
\data\
ngram 1=1529
ngram 2=5354
ngram 3=661

\1-grams:
-0.9859859	</s>
-99	<s>	-0.2420533
-3.708208	Anything/英語/*	-0.1149672
-4.009238	B/名詞/*	-0.1147971
-4.009238	BUMPOFCHICKEN/名詞/*	-0.1080664
-4.009238	Berber/英語/*	-0.1145844
-4.009238	EC/名詞/*	-0.1080664
-4.009238	Give/英語/*	-0.09606394
-4.009238	Justin/英語/*	-0.1150098
-4.009238	ML/名詞/*	-0.1145844
-4.009238	NANA/名詞/*	-0.1145418
-4.009238	OK/英語/*	-0.1127931
-3.231087	OPA/名詞/*	-0.2582886
-4.009238	Of/英語/*	-0.1150098
-4.009238	SS/名詞/*	-0.1147546
-3.708208	Soy/英語/*	-0.02289911
-4.009238	THANK/英語/*	-0.1150098
-4.009238	Tシャツ/名詞/*	-0.1123227
-3.708208	YEAH/英語/*	-0.06742483
-4.009238	YES/英語/*	-0.06770939
-4.009238	YOU/英語/*	-0.06770939
-4.009238	another/英語/*	-0.1150098
-4.009238	course/英語/*	-0.07509001
-4.009238	give/英語/*	-0.1150098
-4.009238	me/英語/*	-0.1150098
-4.009238	ok/英語/*	-0.07509001
-4.009238	question/英語/*	-0.07509001
-4.009238	yeah/英語/*	-0.07509001
-1.368757	、/記号/*	-0.06015603
-1.055962	。/記号/*	-3.020891
-2.967846	「/記号/*	-0.1657877
-2.967846	」/記号/*	-0.5596915
-4.009238	あ/フィラー/*	-0.1150098
-2.54684	あ/感動詞/*	-0.5253114
-3.532117	ああ/感動詞/*	-0.08554433
-4.009238	ああゆう/連体詞/*	-0.1144992
-4.009238	あえ/動詞/一段	-0.1024569
-3.708208	あえて/副詞/*	-0.1136044
-3.532117	あか/動詞/五段・カ行イ音便	-0.3572421
-4.009238	あくまでも/副詞/*	-0.1150098
-4.009238	あげ/動詞/一段	-0.1085414
-3.310268	あそこ/名詞/*	-0.2282352
-2.930057	あたし/名詞/*	-0.1836497
-4.009238	あたり/名詞/*	-0.1100923
-3.16414	あっ/動詞/五段・ラ行	-0.4186977
-4.009238	あっこ/名詞/*	-0.1080664
-3.231087	あっち/名詞/*	-0.1584321
-2.805118	あと/名詞/*	-0.2372585
-4.009238	あと/接続詞/*	-0.1147546
-3.708208	あなた/名詞/*	-0.113519
-3.532117	あの/フィラー/*	-0.243272
-2.687019	あの/連体詞/*	-0.2854452
-4.009238	あのー/フィラー/*	-0.1150098
-2.967846	あり/動詞/五段・ラ行	-0.2033998
-3.532117	ありえ/動詞/一段	-0.1122799
-3.407178	ありがとう/感動詞/*	-0.1771789
-2.517877	ある/動詞/五段・ラ行	-0.2254391
-4.009238	ある程度/副詞/*	-0.1147546
-2.833147	あれ/名詞/*	-0.09862719
-4.009238	あん/動詞/五段・ラ行撥音便	-0.1137323
-4.009238	あんた/名詞/*	-0.1080664
-3.708208	あんだけ/副詞/*	-0.1149672
-4.009238	あんな/連体詞/*	-0.1150098
-4.009238	あんね/フィラー/*	-0.09606394
-3.16414	あんま/副詞/*	-0.1994894
-3.231087	あんまり/副詞/*	-0.1115091
-2.753966	あー/フィラー/*	-0.1692549
-4.009238	あー/感動詞/*	-0.07509001
-4.009238	あーあ/感動詞/*	-0.09606394
-3.106148	い/動詞/一段	-0.4943407
-2.319042	いい/形容詞/形容詞・イイ	-0.1858857
-2.708208	いう/動詞/五段・ワ行促音便	-0.1350784
-4.009238	いえ/動詞/一段	-0.114712
-3.532117	いか/動詞/五段・カ行促音便	-0.1121088
-4.009238	いかつい/形容詞/形容詞・アウオ段	-0.07509001
-4.009238	いき/動詞/五段・カ行促音便	-0.1148397
-3.708208	いきなり/副詞/*	-0.07495015
-3.708208	いく/動詞/五段・カ行促音便	-0.07499678
-3.708208	いけ/動詞/一段	-0.1105651
-4.009238	いけ/動詞/五段・カ行促音便	-0.114712
-4.009238	いける/動詞/一段	-0.07509001
-4.009238	いたる/動詞/五段・ラ行	-0.07509001
-3.310268	いっ/動詞/五段・ワ行促音便	-0.3479211
-4.009238	いっか/感動詞/*	-0.1123227
-3.407178	いっつも/副詞/*	-0.07378287
-3.708208	いっぱい/副詞/*	-0.1133483
-4.009238	いつも/副詞/*	-0.1144141
-3.708208	いま/名詞/*	-0.1139881
-4.009238	いま/接頭詞/*	-0.1150098
-4.009238	いや/名詞/*	-0.112066
-3.407178	いや/感動詞/*	-0.09374817
-3.532117	いる/動詞/一段	-0.1063781
-3.708208	いれ/動詞/一段	-0.100351
-4.009238	いろいろ/副詞/*	-0.1126221
-3.708208	いろんな/連体詞/*	-0.3646034
-2.833147	う/助動詞/不変化型	-0.2128474
-3.310268	ううん/感動詞/*	-0.1837759
-2.46517	うち/名詞/*	-0.2122688
-4.009238	うどん/名詞/*	-0.1123227
-4.009238	うまい/形容詞/形容詞・アウオ段	-0.1150098
-4.009238	うまく/形容詞/形容詞・アウオ段	-0.1109086
-4.009238	うわ/感動詞/*	-0.09606394
-3.708208	うん/フィラー/*	-0.1141585
-2.276845	うん/感動詞/*	-1.162045
-3.532117	うーん/感動詞/*	-0.3402993
-3.310268	え/フィラー/*	-0.1072447
-3.054996	え/感動詞/*	-0.4276015
-4.009238	ええ/形容詞/形容詞・イイ	-0.1141585
-4.009238	えっ/感動詞/*	-0.1130067
-3.532117	えっと/フィラー/*	-0.0958418
-3.532117	えっとね/フィラー/*	-0.2457667
-3.708208	えみ/名詞/*	-0.1060744
-3.708208	えらい/形容詞/形容詞・アウオ段	-0.1147546
-3.532117	えー/フィラー/*	-0.2436739
-4.009238	えーと/フィラー/*	-0.09606394
-3.310268	お/接頭詞/*	-0.1982502
-3.708208	おい/動詞/一段	-0.3523057
-3.407178	おいしい/形容詞/形容詞・イ段	-0.278607
-4.009238	おいしく/形容詞/形容詞・イ段	-0.1146269
-4.009238	おかず/名詞/*	-0.1147971
-3.708208	おじいちゃん/名詞/*	-0.1064215
-4.009238	おじけ/動詞/一段	-0.1150098
-3.310268	おっ/動詞/五段・ラ行	-0.176929
-4.009238	おねえちゃん/名詞/*	-0.1147546
-3.708208	おば/名詞/*	-0.3646459
-4.009238	おもろい/形容詞/形容詞・アウオ段	-0.1117662
-4.009238	おもろかっ/形容詞/形容詞・アウオ段	-0.1085414
-4.009238	おら/動詞/五段・ラ行	-0.1139455
-3.16414	おる/動詞/五段・ラ行	-0.1586894
-4.009238	おれ/名詞/*	-0.1094037
-4.009238	お前/名詞/*	-0.114712
-3.708208	お母さん/名詞/*	-0.106248
-4.009238	お洒落/名詞/*	-0.1061612
-4.009238	お稽古/名詞/*	-0.1150098
-4.009238	お腹/名詞/*	-0.1150098
-3.532117	お金/名詞/*	-0.1130921
-2.009238	か/助詞/*	-0.6094502
-3.708208	かかる/動詞/五段・ラ行	-0.07148589
-4.009238	かかる/連体詞/*	-0.07509001
-3.532117	かけ/動詞/一段	-0.3466923
-3.407178	かっこいい/形容詞/不変化型	-0.06447333
-4.009238	かっこよかっ/形容詞/形容詞・アウオ段	-0.1085414
-3.708208	かっこよく/形容詞/形容詞・アウオ段	-0.1108657
-4.009238	かつ/接続詞/*	-0.1150098
-3.708208	かなり/副詞/*	-0.0750434
-3.054996	かも/助詞/*	-0.4133154
-2.079819	から/助詞/*	-0.2053165
-4.009238	から/名詞/*	-0.1080664
-4.009238	かわいい/形容詞/形容詞・イ段	-0.1143289
-1.94478	が/助詞/*	-0.01372331
-4.009238	がい/名詞/*	-0.1080664
-3.708208	がっつり/副詞/*	-0.1090159
-4.009238	がらみ/名詞/*	-0.1130067
-3.310268	き/動詞/カ変・クル	-0.342225
-4.009238	き/動詞/一段	-0.1024569
-4.009238	きらい/名詞/*	-0.1142011
-3.231087	きれい/名詞/*	-0.1138841
-4.009238	くそ/接頭詞/*	-0.1149672
-4.009238	ください/動詞/五段・ラ行特殊	-0.1104362
-3.708208	くない/助詞/特殊・ナイ	-0.07261246
-3.708208	くらい/助詞/*	-0.06533229
-3.231087	くる/動詞/カ変・クル	-0.06385195
-4.009238	くれ/動詞/一段	-0.1109086
-3.310268	くれ/動詞/一段・クレル	-0.0971286
-3.532117	くれる/動詞/一段・クレル	-0.2536896
-4.009238	くれれ/動詞/一段・クレル	-0.114712
-4.009238	くん/名詞/*	-0.1123227
-2.86311	ぐらい/助詞/*	-0.1491901
-4.009238	け/助詞/*	-0.09606394
-2.122748	けど/助詞/*	-0.6561091
-3.407178	こう/副詞/*	-0.2012157
-4.009238	こういう/連体詞/*	-0.1150098
-3.231087	ここ/名詞/*	-0.1711705
-4.009238	こそ/助詞/*	-0.1150098
-4.009238	こたつ/名詞/*	-0.1117662
-3.310268	こっち/名詞/*	-0.189048
-2.346481	こと/名詞/*	-0.2860787
-3.708208	こないだ/名詞/*	-0.1100063
-3.407178	この/連体詞/*	-0.1124511
-4.009238	このあいだ/名詞/*	-0.1147971
-3.231087	これ/名詞/*	-0.06865661
-3.708208	これから/副詞/*	-0.1113805
-3.708208	ころ/名詞/*	-0.1060744
-4.009238	こん/動詞/五段・マ行	-0.1117662
-4.009238	こんな/連体詞/*	-0.1148822
-4.009238	こんなに/副詞/*	-0.1150098
-4.009238	ござい/助動詞/五段・ラ行特殊	-0.1148397
-3.708208	ごつい/形容詞/形容詞・アウオ段	-0.1106939
-4.009238	ごと/名詞/*	-0.1141585
-4.009238	ごはん/名詞/*	-0.1080664
-3.708208	ごめん/感動詞/*	-0.1137323
-3.532117	ご飯/名詞/*	-0.1057705
-2.490724	さ/助詞/*	-0.6366104
-3.532117	さ/動詞/サ変・スル	-0.3584365
-3.16414	さあ/感動詞/*	-0.1990593
-4.009238	さけ/動詞/一段	-0.1131776
-3.708208	さすが/副詞/*	-0.3619148
-4.009238	させ/動詞/一段	-0.1134764
-3.407178	さっき/名詞/*	-0.1133056
-4.009238	さらに/副詞/*	-0.1149247
-3.708208	さん/名詞/*	-0.1145844
-2.327997	し/助詞/*	-0.8690108
-2.203058	し/動詞/サ変・スル	-0.6557744
-4.009238	し/動詞/五段・サ行	-0.1024569
-3.231087	しか/助詞/*	-0.2601834
-4.009238	しかも/接続詞/*	-0.1143715
-3.708208	したら/接続詞/*	-0.06537996
-4.009238	しば/名詞/*	-0.1147971
-4.009238	しまい/動詞/五段・ワ行促音便	-0.114712
-3.532117	しまう/動詞/五段・ワ行促音便	-0.0727062
-3.708208	しまっ/動詞/五段・ワ行促音便	-0.1075476
-4.009238	しゃあない/形容詞/形容詞・アウオ段	-0.1115091
-4.009238	しゃけ/名詞/*	-0.1149672
-3.532117	しゃべっ/動詞/五段・ラ行	-0.09361418
-4.009238	しゃべれる/動詞/一段	-0.1147546
-4.009238	しょう/名詞/*	-0.1100923
-4.009238	しょうゆ/名詞/*	-0.1144992
-3.708208	しよ/動詞/サ変・スル	-0.3642629
-3.708208	しら/動詞/五段・ラ行	-0.3628556
-3.231087	しれ/動詞/一段	-0.8257643
-3.407178	しんどい/形容詞/形容詞・アウオ段	-0.1012736
-3.532117	じいさん/名詞/*	-0.06903489
-2.365786	じゃ/助動詞/特殊・ジャ	-1.253489
-3.708208	じゃ/接続詞/*	-0.1147971
-3.310268	じゃあ/接続詞/*	-0.1257653
-4.009238	じゃろ/助動詞/特殊・ジャ	-0.07509001
-3.310268	じゃん/助動詞/不変化型	-0.0163316
-4.009238	す/動詞/サ変・スル	-0.1150098
-4.009238	すいません/感動詞/*	-0.1104362
-4.009238	すぎ/動詞/一段	-0.1024569
-4.009238	すく/動詞/五段・カ行イ音便	-0.1149672
-4.009238	すぐ/副詞/*	-0.1149672
-4.009238	すげえ/感動詞/*	-0.1104362
-3.310268	すごい/形容詞/形容詞・アウオ段	-0.147916
-4.009238	すごかっ/形容詞/形容詞・アウオ段	-0.1085414
-4.009238	すっご/形容詞/形容詞・アウオ段	-0.09606394
-4.009238	すべて/名詞/*	-0.1150098
-4.009238	すら/助詞/*	-0.1145844
-2.594265	する/動詞/サ変・スル	-0.2386308
-4.009238	すると/接続詞/*	-0.09606394
-3.310268	ず/助動詞/特殊・ヌ	-0.2217846
-3.532117	ずっと/副詞/*	-0.113391
-3.532117	せ/副詞/*	-0.3563013
-3.407178	せ/動詞/サ変・スル	-0.2820388
-4.009238	せ/動詞/一段	-0.1149247
-3.407178	せえ/動詞/サ変・スル	-0.5073984
-3.532117	そ/副詞/*	-0.3563013
-1.908868	そう/副詞/*	-1.065753
-3.106148	そう/名詞/*	-0.2055432
-3.106148	そういう/連体詞/*	-0.2124486
-3.708208	そういえば/接続詞/*	-0.09601953
-4.009238	そうそう/副詞/*	-0.1148822
-2.86311	そこ/名詞/*	-0.2772675
-4.009238	そこで/接続詞/*	-0.1147971
-3.708208	そして/接続詞/*	-0.1139455
-4.009238	そっかー/感動詞/*	-0.06770939
-4.009238	その/フィラー/*	-0.113647
-2.753966	その/連体詞/*	-0.1207121
-4.009238	そもそも/接続詞/*	-0.1149672
-2.337141	それ/名詞/*	-0.3493203
-4.009238	それからも/接続詞/*	-0.1149247
-3.16414	それで/接続詞/*	-0.03965536
-4.009238	それでいて/接続詞/*	-0.1140733
-4.009238	それでも/接続詞/*	-0.1148397
-4.009238	それなり/名詞/*	-0.1061612
-4.009238	そんだけ/副詞/*	-0.07509001
-2.708208	そんな/連体詞/*	-0.3212218
-3.532117	そんなに/副詞/*	-0.1133056
-3.310268	そんなん/名詞/*	-0.07261246
-1.827395	た/助動詞/特殊・タ	-0.4604272
-2.441037	たい/助動詞/特殊・タイ	-0.3444124
-3.231087	たかっ/助動詞/特殊・タイ	-0.1986505
-3.532117	たく/助動詞/特殊・タイ	-0.09765995
-3.708208	たげよ/動詞/一段	-0.3642629
-3.708208	たしなむ/動詞/五段・マ行	-0.364816
-3.532117	ただ/接続詞/*	-0.1101783
-4.009238	たった/副詞/*	-0.1149247
-4.009238	たどり着い/動詞/五段・カ行イ音便	-0.1085414
-3.407178	たぶん/副詞/*	-0.1124511
-4.009238	たま/名詞/*	-0.1061612
-4.009238	たまに/副詞/*	-0.1148397
-4.009238	たまらなく/形容詞/形容詞・アウオ段	-0.1150098
-2.327997	たら/助動詞/特殊・タ	-0.03789654
-3.532117	たり/助詞/*	-0.2609561
-4.009238	たろ/助動詞/特殊・タ	-0.07509001
-3.310268	たん/助動詞/特殊・タ	-0.1359027
-3.054996	だ/助動詞/特殊・タ	-0.1800173
-2.385989	だ/助動詞/特殊・ダ	-0.5300687
-2.86311	だから/接続詞/*	-0.1460266
-3.16414	だけ/助詞/*	-0.0592353
-2.833147	だっ/助動詞/特殊・ダ	-0.691138
-4.009238	だって/助詞/*	-0.113647
-3.054996	だって/接続詞/*	-0.0933461
-4.009238	だらけ/名詞/*	-0.1061612
-3.310268	だれ/名詞/*	-0.1845045
-3.532117	だろ/助動詞/特殊・タ	-0.2595383
-3.16414	だろ/助動詞/特殊・ダ	-0.2220469
-4.009238	ちっちゃい/形容詞/形容詞・アウオ段	-0.1114234
-4.009238	ちっちゃく/形容詞/形容詞・イ段	-0.1024569
-4.009238	ちゃい/動詞/五段・ワ行促音便	-0.114712
-3.231087	ちゃう/動詞/五段・ワ行促音便	-0.1757391
-3.009238	ちゃう/動詞/五段・特殊	-0.3867062
-3.407178	ちゃっ/動詞/五段・ワ行促音便	-0.2649131
-3.231087	ちゃん/名詞/*	-0.06423446
-3.708208	ちゃんと/副詞/*	-0.1138176
-4.009238	ちょ/接頭詞/*	-0.1061612
-4.009238	ちょいと/副詞/*	-0.1148822
-4.009238	ちょう/接頭詞/*	-0.1150098
-3.009238	ちょっと/副詞/*	-0.1123227
-4.009238	っ/助詞/*	-0.1150098
-4.009238	っきれ/名詞/*	-0.1130067
-3.708208	っけ/助詞/*	-0.3459128
-1.975815	って/助詞/*	-0.2990986
-4.009238	つ/名詞/*	-0.1147971
-4.009238	つい/動詞/五段・カ行イ音便	-0.1146695
-4.009238	ついては/接続詞/*	-0.07509001
-4.009238	つく/動詞/五段・カ行イ音便	-0.1130922
-3.310268	つつ/助詞/*	-0.3274464
-4.009238	つながり/名詞/*	-0.1115091
-4.009238	つぶれ/動詞/一段	-0.1149247
-4.009238	つらい/形容詞/形容詞・アウオ段	-0.1115091
-4.009238	つるむ/動詞/五段・マ行	-0.1141585
-1.543856	て/助詞/*	-0.3512322
-4.009238	ていう/助詞/*	-0.09606394
-3.708208	てか/接続詞/*	-0.09352486
-3.532117	てん/助動詞/特殊・タ	-0.224044
-3.16414	てん/動詞/一段撥音便	-0.2299579
-2.687019	で/助動詞/特殊・ダ	-0.4803272
-2.122748	で/助詞/*	-0.1832918
-2.666816	で/接続詞/*	-0.5910282
-4.009238	でかい/形容詞/形容詞・アウオ段	-0.1045962
-3.407178	でき/動詞/一段	-0.1019314
-3.106148	できる/動詞/一段	-0.01627824
-3.310268	でしょ/助動詞/特殊・デス	-0.3553569
-3.009238	です/助動詞/特殊・デス	-0.2421195
-3.708208	でっかく/形容詞/形容詞・アウオ段	-0.3646885
-4.009238	でっちあげ/名詞/*	-0.1141585
-4.009238	でっち上げ/名詞/*	-0.1109086
-3.310268	では/助詞/*	-0.3567363
-2.611298	でも/助詞/*	-0.2365505
-2.385989	でも/接続詞/*	-0.1073556
-4.009238	でん/動詞/一段撥音便	-0.1117662
-4.009238	と/フィラー/*	-0.1145844
-2.031515	と/助詞/*	-0.3126004
-2.203058	とか/助詞/*	-0.21953
-4.009238	とか/動詞/五段・カ行イ音便	-0.1109086
-3.708208	とき/名詞/*	-0.1023256
-4.009238	ときゃ/動詞/五段・カ行イ音便	-0.1147971
-4.009238	とけ/動詞/五段・カ行イ音便	-0.114712
-3.16414	とこ/名詞/*	-0.07233107
-3.310268	ところ/名詞/*	-0.0623185
-3.407178	として/助詞/*	-0.07054482
-2.647511	とっ/動詞/五段・ラ行	-1.127745
-4.009238	とも/助詞/*	-0.1135617
-3.407178	とりあえず/副詞/*	-0.2216563
-3.054996	とる/動詞/五段・ラ行	-0.1010541
-3.532117	とん/動詞/五段・ラ行撥音便	-0.2246973
-2.895295	どう/副詞/*	-0.2211193
-4.009238	どうにか/副詞/*	-0.1045962
-3.054996	どこ/名詞/*	-0.2761899
-4.009238	どこか/名詞/*	-0.1061612
-4.009238	どちら/名詞/*	-0.1107798
-3.708208	どっか/名詞/*	-0.1047268
-3.532117	どっち/名詞/*	-0.2594522
-3.708208	どの/連体詞/*	-0.364816
-4.009238	どる/動詞/五段・ラ行	-0.1150098
-3.708208	どれ/名詞/*	-0.1104791
-3.708208	どんどん/副詞/*	-0.1148822
-2.022467	な/助動詞/特殊・ダ	-0.5883817
-1.623632	な/助詞/*	-0.9489156
-3.708208	なぁ/助詞/*	-0.05422688
-3.16414	なあ/助詞/*	-0.3207586
-2.022467	ない/助動詞/特殊・ナイ	-0.3282989
-2.895295	ない/形容詞/形容詞・アウオ段	-0.1578733
-2.930057	なかっ/助動詞/特殊・ナイ	-0.976613
-4.009238	なかなか/副詞/*	-0.1118519
-3.708208	ながら/助詞/*	-0.1138602
-4.009238	なきゃ/助動詞/特殊・ナイ	-0.1149672
-2.833147	なく/助動詞/特殊・ナイ	-0.5927129
-3.708208	なく/形容詞/形容詞・アウオ段	-0.09819067
-4.009238	なさ/助動詞/特殊・ナイ	-0.109662
-4.009238	なさい/動詞/五段・ラ行特殊	-0.1104362
-4.009238	なし/助動詞/特殊・ナイ	-0.07509001
-4.009238	なぜか/副詞/*	-0.1150098
-2.629027	なっ/動詞/五段・ラ行	-1.171767
-3.407178	なに/名詞/*	-0.2001433
-4.009238	なにか/副詞/*	-0.1114234
-4.009238	なら/動詞/五段・ラ行	-0.1149247
-3.708208	なら/接続詞/*	-0.1139029
-3.16414	なり/動詞/五段・ラ行	-0.2012025
-3.16414	なる/動詞/五段・ラ行	-0.09955866
-4.009238	なるほど/感動詞/*	-0.1118519
-4.009238	なれ/動詞/一段	-0.1130067
-3.708208	なれる/動詞/一段	-0.1127076
-4.009238	なん/動詞/五段・ラ行撥音便	-0.1080664
-2.666816	なん/名詞/*	-0.1816512
-2.253364	なんか/フィラー/*	-0.0782413
-3.708208	なんだかんだ/副詞/*	-0.1147971
-4.009238	なんて/副詞/*	-0.1149672
-3.708208	なんて/助詞/*	-0.1138176
-3.009238	なんで/副詞/*	-0.172646
-4.009238	なんとも/副詞/*	-0.1150098
-2.77879	なー/助詞/*	-0.2232845
-1.693268	に/助詞/*	-0.1804983
-4.009238	にとって/助詞/*	-0.1094037
-4.009238	によって/助詞/*	-0.1144992
-2.134177	ね/助詞/*	-0.9584394
-3.708208	ね/名詞/*	-0.1147546
-4.009238	ねぇ/助動詞/特殊・ナイ	-0.1148397
-4.009238	ねぇ/助詞/*	-0.1147971
-4.009238	ねえ/助詞/*	-0.1150098
-2.517877	ねん/助詞/*	-0.4659091
-3.708208	ねん/名詞/*	-0.113263
-3.708208	ねー/助詞/*	-0.09995503
-1.797051	の/助詞/*	-0.1081092
-2.687019	の/名詞/*	-0.3487501
-3.532117	のに/助詞/*	-0.111166
-3.708208	のん/名詞/*	-0.1123655
-1.888664	は/助詞/*	-0.1264441
-2.967846	はい/感動詞/*	-0.347312
-4.009238	はいっ/動詞/五段・ラ行	-0.1024569
-4.009238	はいる/動詞/五段・ラ行	-0.1141585
-4.009238	はー/感動詞/*	-0.09606394
-3.106148	ば/助詞/*	-0.1223273
-4.009238	ばっか/助詞/*	-0.1150098
-3.708208	ばっかり/助詞/*	-0.1093175
-4.009238	ぱって/副詞/*	-0.1146695
-4.009238	ひかれる/動詞/一段	-0.1150098
-4.009238	ひたすら/副詞/*	-0.1150098
-4.009238	ひょいひょい/副詞/*	-0.1150098
-3.708208	ひん/助動詞/特殊・ナイ	-0.1094467
-3.708208	びっくり/名詞/*	-0.1082824
-4.009238	へ/助詞/*	-0.1149247
-4.009238	へえ/感動詞/*	-0.1146269
-2.805118	へん/助動詞/特殊・ナイ	-0.1833806
-3.708208	へん/名詞/*	-0.06361269
-4.009238	へんかっ/助動詞/特殊・ナイ	-0.1085414
-4.009238	へー/感動詞/*	-0.07509001
-4.009238	べき/助動詞/文語・ベシ	-0.1109086
-4.009238	ぺらぺら/副詞/*	-0.1131776
-3.532117	ほしい/形容詞/形容詞・イ段	-0.1040732
-4.009238	ほとんど/副詞/*	-0.1147546
-3.708208	ほど/助詞/*	-0.09601953
-4.009238	ほんで/接続詞/*	-0.1135617
-3.532117	ほんと/感動詞/*	-0.1086277
-3.532117	ほんとに/副詞/*	-0.0749035
-3.231087	ほんま/副詞/*	-0.8297995
-4.009238	ほんま/感動詞/*	-0.09606394
-3.054996	ほんまに/副詞/*	-0.09208242
-4.009238	ぼーっと/副詞/*	-0.1123227
-4.009238	ぽく/形容詞/形容詞・アウオ段	-0.1109086
-4.009238	ま/フィラー/*	-0.1147971
-4.009238	ま/感動詞/*	-0.09606394
-2.967846	まぁ/感動詞/*	-0.05768545
-2.276845	まあ/フィラー/*	-0.1937951
-4.009238	まさしく/副詞/*	-0.1130494
-3.708208	まし/助動詞/特殊・マス	-0.3583902
-4.009238	まじ/副詞/*	-0.1149672
-4.009238	まじで/感動詞/*	-0.07509001
-3.310268	ます/助動詞/特殊・マス	-0.1995318
-3.708208	まず/副詞/*	-0.09597511
-3.532117	ませ/助動詞/特殊・マス	-0.3572421
-3.532117	また/接続詞/*	-0.07457695
-3.407178	まだ/副詞/*	-0.1125366
-3.009238	まで/助詞/*	-0.1372268
-4.009238	まとめ/動詞/一段	-0.1024569
-3.708208	まま/名詞/*	-0.07499678
-3.16414	み/動詞/一段	-0.5681591
-2.327997	みたい/名詞/*	-1.469471
-2.647511	みんな/名詞/*	-0.1061181
-3.532117	むしろ/副詞/*	-0.1127504
-3.708208	むっちゃ/副詞/*	-0.1147546
-4.009238	めちゃ/副詞/*	-0.1150098
-4.009238	めちゃめちゃ/名詞/*	-0.1133483
-2.532117	めっちゃ/副詞/*	-0.08329596
-4.009238	めんどうくせえ/形容詞/形容詞・アウオ段	-0.1104362
-4.009238	めんどくさい/形容詞/形容詞・アウオ段	-0.1104362
-2.079819	も/助詞/*	-0.1199754
-2.594265	もう/副詞/*	-0.0733551
-3.708208	もうすぐ/副詞/*	-0.1147971
-4.009238	もし/副詞/*	-0.1150098
-4.009238	もっさい/形容詞/形容詞・アウオ段	-0.1149247
-3.708208	もっさく/形容詞/形容詞・アウオ段	-0.3523057
-3.532117	もっと/副詞/*	-0.1124083
-3.708208	もの/名詞/*	-0.1100493
-4.009238	もらえ/動詞/五段・ワ行促音便	-0.1104362
-4.009238	もらえる/動詞/一段	-0.1141585
-4.009238	もらわ/動詞/五段・ワ行促音便	-0.1142011
-2.647511	もん/助詞/*	-0.399199
-2.930057	もん/名詞/*	-0.148357
-2.16414	や/助動詞/特殊・ヤ	-0.507791
-3.231087	や/助詞/*	-0.122678
-3.708208	やさしい/形容詞/形容詞・イ段	-0.0728468
-4.009238	やすい/形容詞/形容詞・アウオ段	-0.1114234
-2.708208	やっ/助動詞/特殊・ヤ	-0.5714083
-2.629027	やっ/動詞/五段・ラ行	-0.761499
-4.009238	やっす/形容詞/形容詞・アウオ段	-0.1130067
-2.805118	やっぱ/副詞/*	-0.09584181
-4.009238	やっぱり/副詞/*	-0.1141159
-3.16414	やつ/名詞/*	-0.247195
-3.054996	やばい/形容詞/形容詞・アウオ段	-0.1670509
-4.009238	やばく/形容詞/形容詞・アウオ段	-0.1109086
-4.009238	やべー/感動詞/*	-0.1104362
-3.708208	やめ/動詞/一段	-0.09575292
-3.708208	やら/動詞/五段・ラ行	-0.112964
-4.009238	やられ/動詞/一段	-0.1130067
-3.310268	やり/動詞/五段・ラ行	-0.3596923
-2.833147	やろ/助動詞/特殊・ヤ	-0.17933
-2.687019	やん/助動詞/特殊・ヤ	-0.594205
-3.532117	ゆ/動詞/五段・ワ行促音便	-0.2594092
-3.532117	ゆう/動詞/五段・ワ行促音便	-0.2619415
-4.009238	ゆうこ/名詞/*	-0.1080664
-3.054996	ゆっ/動詞/五段・ワ行促音便	-0.4996149
-3.708208	ゆっくり/副詞/*	-0.3621716
-4.009238	ゆっこ/名詞/*	-0.1094037
-2.09016	よ/助詞/*	-1.117738
-3.16414	よう/名詞/*	-0.5560369
-3.231087	よかっ/形容詞/形容詞・アウオ段	-0.723648
-3.310268	よく/形容詞/形容詞・アウオ段	-0.2316659
-4.009238	よさ/形容詞/形容詞・アウオ段	-0.114712
-4.009238	よら/動詞/五段・ラ行	-0.1130067
-3.106148	より/助詞/*	-0.1106939
-3.310268	ら/名詞/*	-0.1862139
-3.310268	らしい/助動詞/形容詞・イ段	-0.248376
-4.009238	らしくっ/助動詞/形容詞・イ段	-0.1024569
-3.407178	られ/動詞/一段	-0.2191372
-2.504088	る/動詞/一段	-0.1763542
-2.708208	れ/動詞/一段	-0.5086819
-3.231087	れる/動詞/一段	-0.1775014
-3.16414	わ/助詞/*	-0.2294385
-4.009238	わかっ/動詞/五段・ラ行	-0.1130067
-3.054996	わから/動詞/五段・ラ行	-1.066565
-4.009238	わかる/動詞/五段・ラ行	-0.1109944
-3.708208	わかん/動詞/五段・ラ行	-0.3607574
-4.009238	わがまま/名詞/*	-0.1061612
-3.708208	わけ/名詞/*	-0.1118519
-3.532117	わざわざ/副詞/*	-0.1100923
-3.532117	わり/名詞/*	-0.3552298
-2.385989	を/助詞/*	-0.1275764
-2.327997	ん/助動詞/特殊・ナイ	-0.4597271
-2.594265	ん/助詞/*	-0.5652434
-2.122748	ん/名詞/*	-0.5578908
-3.532117	んかっ/助動詞/特殊・ナイ	-0.3527767
-3.532117	んく/助動詞/特殊・ナイ	-0.2596244
-4.009238	んち/名詞/*	-0.1061612
-3.407178	んー/フィラー/*	-0.09348016
-4.009238	アイ/感動詞/*	-0.1148822
-4.009238	アイアムカルロス/感動詞/*	-0.1104362
-4.009238	アウトゴーイング/名詞/*	-0.1109086
-4.009238	アクターズ/名詞/*	-0.1061612
-3.708208	アクティブ/名詞/*	-0.111809
-4.009238	アップ/名詞/*	-0.1123227
-4.009238	アナザークエスチョン/感動詞/*	-0.07509001
-3.532117	アメ/名詞/*	-0.3591601
-3.708208	アメリカ/名詞/*	-0.3579152
-4.009238	アン/名詞/*	-0.1100923
-4.009238	イグ/名詞/*	-0.1061612
-3.407178	イケメン/名詞/*	-0.1062914
-4.009238	イチゴ/名詞/*	-0.1149247
-3.708208	イッチー/名詞/*	-0.1113805
-3.708208	イメージ/名詞/*	-0.07002639
-3.708208	イラって/副詞/*	-0.1145418
-4.009238	インターナショナル/名詞/*	-0.1109086
-4.009238	インド/名詞/*	-0.112964
-4.009238	エンジョイ/名詞/*	-0.1123227
-3.407178	オーストラリア/名詞/*	-0.07574209
-4.009238	カッコイイ/形容詞/不変化型	-0.1104362
-4.009238	カルロス/名詞/*	-0.1104362
-3.708208	カ月/名詞/*	-0.1147971
-4.009238	ガタイ/名詞/*	-0.112964
-3.708208	ガチ/名詞/*	-0.1117234
-4.009238	ガンジス/名詞/*	-0.1150098
-4.009238	キムタク/名詞/*	-0.1123227
-4.009238	キムヒキム・ヒョンジュン/名詞/*	-0.1104362
-4.009238	キムヒョンジュン/名詞/*	-0.1094037
-3.708208	キャンパス/名詞/*	-0.09735009
-4.009238	キュウリ/名詞/*	-0.06770939
-4.009238	キョーコ/名詞/*	-0.1147546
-4.009238	クソ/接頭詞/*	-0.1144141
-3.16414	ケント/名詞/*	-0.1503331
-3.708208	コウタ/名詞/*	-0.1112089
-3.708208	コナミ/名詞/*	-0.1108657
-4.009238	コミュニティー/名詞/*	-0.1061612
-4.009238	コロッケ/名詞/*	-0.1123227
-4.009238	コンピュータ/名詞/*	-0.112066
-3.708208	ゴキブリ/名詞/*	-0.1100493
-4.009238	ゴスペル/名詞/*	-0.1123227
-3.708208	ゴリラ/名詞/*	-0.1127504
-4.009238	サムワン/感動詞/*	-0.07509001
-3.231087	サークル/名詞/*	-0.1617525
-3.708208	ザ/名詞/*	-0.1148822
-3.708208	シューズ/名詞/*	-0.06742483
-3.708208	ショパン/名詞/*	-0.1074611
-4.009238	シン/名詞/*	-0.1147971
-3.708208	ジブリアニメ/名詞/*	-0.3579152
-4.009238	ジャズ/名詞/*	-0.1142011
-4.009238	スクリプト/名詞/*	-0.1061612
-4.009238	スター/名詞/*	-0.1123227
-4.009238	ストライク/名詞/*	-0.06770939
-4.009238	ストライクゾーン/名詞/*	-0.1148397
-4.009238	ストリート/名詞/*	-0.1147971
-3.407178	スペイン/名詞/*	-0.2055229
-4.009238	スラムダンク/名詞/*	-0.07509001
-3.708208	センス/名詞/*	-0.3459128
-4.009238	ゼミ/名詞/*	-0.1061612
-4.009238	ゼロ/名詞/*	-0.1109944
-4.009238	ソナチネ/名詞/*	-0.1117662
-4.009238	ソース/名詞/*	-0.1139881
-3.106148	タイプ/名詞/*	-0.09920606
-4.009238	タカラヅカ/名詞/*	-0.1127931
-4.009238	タレント/名詞/*	-0.1104362
-4.009238	ダサい/形容詞/形容詞・アウオ段	-0.1150098
-4.009238	ダメ/名詞/*	-0.1109086
-4.009238	ダンサー/名詞/*	-0.1061612
-3.231087	ダンス/名詞/*	-0.08713409
-4.009238	チュチュ/名詞/*	-0.1061612
-4.009238	チョンて/副詞/*	-0.1123227
-4.009238	テニ/名詞/*	-0.1100923
-4.009238	テレビ/名詞/*	-0.1117662
-4.009238	テロン/名詞/*	-0.1024569
-3.708208	テロンアイランド/名詞/*	-0.07002639
-3.708208	ディレクター/名詞/*	-0.3599411
-3.708208	デレキ/名詞/*	-0.1127076
-3.708208	トイレ/名詞/*	-0.1067683
-3.16414	トゥシューズ/名詞/*	-0.187701
-3.708208	ド/接頭詞/*	-0.1149672
-4.009238	ドストライク/名詞/*	-0.07509001
-4.009238	ドン/副詞/*	-0.1150098
-4.009238	ドンフレ/名詞/*	-0.1127931
-4.009238	ドーン/副詞/*	-0.07509001
-4.009238	ニロ/名詞/*	-0.1061612
-4.009238	ネイキ/名詞/*	-0.1080664
-3.708208	ノリ/名詞/*	-0.1087571
-3.708208	ハウス/名詞/*	-0.1126649
-4.009238	ハッシー/名詞/*	-0.112066
-3.532117	バイト/名詞/*	-0.2619415
-2.967846	バレエ/名詞/*	-0.2087375
-4.009238	バレエシューズ/名詞/*	-0.07509001
-3.532117	バレリーナ/名詞/*	-0.2540819
-3.708208	パン/名詞/*	-0.3621716
-4.009238	ヒロ/名詞/*	-0.1130067
-3.231087	ピアノ/名詞/*	-0.1671277
-4.009238	ピュア/名詞/*	-0.07509001
-4.009238	ピーピー/感動詞/*	-0.06770939
-4.009238	フランス/名詞/*	-0.1107798
-4.009238	フランス語/名詞/*	-0.1148822
-3.708208	フルーツ/名詞/*	-0.1058573
-4.009238	フレックス/名詞/*	-0.1104362
-3.708208	フレンドリー/名詞/*	-0.06533229
-3.708208	フレーク/名詞/*	-0.3249388
-3.708208	ブランコ/名詞/*	-0.108196
-4.009238	プライド/名詞/*	-0.1114234
-3.708208	プラス/名詞/*	-0.1143715
-4.009238	プラスアルファ/名詞/*	-0.1117662
-3.708208	プロ/名詞/*	-0.35601
-3.708208	ベスト/名詞/*	-0.364816
-4.009238	ホゼ/名詞/*	-0.113263
-4.009238	ボランティア/名詞/*	-0.1147971
-4.009238	ボリボリ/副詞/*	-0.1142011
-4.009238	ボロ/名詞/*	-0.1150098
-4.009238	ボロボロ/名詞/*	-0.1115091
-4.009238	ボールペン/名詞/*	-0.1148397
-3.708208	ポルトガル/名詞/*	-0.3645183
-3.708208	ポン/名詞/*	-0.35601
-4.009238	マイミク/名詞/*	-0.1061612
-4.009238	マジシャン/名詞/*	-0.09606394
-3.407178	マスコミ/名詞/*	-0.2065821
-4.009238	マチュピチュ/名詞/*	-0.1107798
-4.009238	マンション/名詞/*	-0.1080664
-3.708208	ミカン/名詞/*	-0.1148822
-4.009238	メガネ/名詞/*	-0.1100923
-4.009238	メキシコ/名詞/*	-0.07509001
-3.708208	メディア/名詞/*	-0.3579152
-4.009238	メロン/名詞/*	-0.09606394
-4.009238	ヤクソン/名詞/*	-0.1145844
-4.009238	ライン/名詞/*	-0.1100923
-4.009238	ラコス/名詞/*	-0.1150098
-4.009238	ラブ/名詞/*	-0.1150098
-3.407178	リアリー/感動詞/*	-0.2199928
-4.009238	リハーサル/名詞/*	-0.1117662
-4.009238	リュック/名詞/*	-0.1150098
-4.009238	リンゴ/名詞/*	-0.09606394
-4.009238	ルイ/名詞/*	-0.1150098
-4.009238	ルカワ/名詞/*	-0.1100923
-3.532117	レッスン/名詞/*	-0.1133483
-4.009238	レベル/名詞/*	-0.1080664
-3.708208	ロッククライミング/名詞/*	-0.3249388
-3.708208	ローソン/名詞/*	-0.1080232
-4.009238	ワルツ/名詞/*	-0.1123227
-4.009238	ワントゥ/感動詞/*	-0.1150098
-2.805118	一/名詞/*	-0.1770104
-3.532117	一つ/名詞/*	-0.1038115
-3.009238	一人/名詞/*	-0.2564002
-4.009238	一人ひとり/名詞/*	-0.1080664
-4.009238	一分/名詞/*	-0.1123227
-3.708208	一応/副詞/*	-0.1124938
-4.009238	一旦/副詞/*	-0.1150098
-4.009238	一月/名詞/*	-0.1143715
-4.009238	一概/名詞/*	-0.1061612
-3.407178	一番/名詞/*	-0.1112518
-3.310268	一緒/名詞/*	-0.3799962
-3.407178	一般/名詞/*	-0.09043121
-4.009238	一足/名詞/*	-0.1149247
-4.009238	七/名詞/*	-0.1148397
-4.009238	万/名詞/*	-0.1139455
-2.930057	三/名詞/*	-0.2213491
-3.708208	三つ/名詞/*	-0.364731
-3.407178	三田/名詞/*	-0.2175069
-4.009238	三角形/名詞/*	-0.07509001
-4.009238	上/名詞/*	-0.1131776
-4.009238	上がら/動詞/五段・ラ行	-0.1109086
-3.407178	上が原/名詞/*	-0.1019752
-4.009238	上げ/動詞/一段	-0.1024569
-3.708208	上手く/形容詞/形容詞・アウオ段	-0.1044655
-4.009238	不可能/名詞/*	-0.109662
-4.009238	不思議/名詞/*	-0.113263
-3.407178	不細工/名詞/*	-0.209131
-4.009238	不経済/名詞/*	-0.1143289
-4.009238	与え/動詞/一段	-0.1085414
-4.009238	世/名詞/*	-0.1080664
-3.708208	世の中/名詞/*	-0.0887632
-3.532117	世界/名詞/*	-0.3591601
-4.009238	世界中/名詞/*	-0.1117662
-3.407178	世間/名詞/*	-0.5079091
-4.009238	世間体/名詞/*	-0.113263
-3.231087	中/名詞/*	-0.169022
-3.708208	中国/名詞/*	-0.105727
-3.708208	中国語/名詞/*	-0.1057705
-3.708208	中学/名詞/*	-0.1055533
-4.009238	中学校/名詞/*	-0.1149672
-4.009238	中断/名詞/*	-0.1123227
-4.009238	中途半端/名詞/*	-0.1150098
-4.009238	中間/名詞/*	-0.1143289
-4.009238	乗せれる/動詞/一段・可能	-0.1130067
-4.009238	乗っ/動詞/五段・ラ行	-0.1147546
-4.009238	乗り移る/動詞/五段・ラ行	-0.1130067
-4.009238	予定/名詞/*	-0.1094037
-4.009238	事務所/名詞/*	-0.1061612
-4.009238	事実/名詞/*	-0.1109086
-2.930057	二/名詞/*	-0.176245
-4.009238	二人/名詞/*	-0.1137749
-3.407178	五/名詞/*	-0.1142437
-4.009238	亜紀/名詞/*	-0.1147971
-4.009238	亡くなっ/動詞/五段・ラ行	-0.1085414
-2.365786	人/名詞/*	-0.3034428
-3.708208	人々/名詞/*	-0.35601
-4.009238	人嫌い/名詞/*	-0.1142011
-4.009238	人数/名詞/*	-0.1148397
-3.231087	人生/名詞/*	-0.1140338
-3.231087	人見知り/名詞/*	-0.1595567
-3.310268	人間/名詞/*	-0.193028
-2.666816	今/名詞/*	-0.2630784
-3.708208	今に/副詞/*	-0.1149672
-3.407178	今まで/副詞/*	-0.1077206
-3.708208	今年/名詞/*	-0.1043784
-4.009238	今後/副詞/*	-0.09606394
-3.407178	今日/名詞/*	-0.1111231
-4.009238	仕事/名詞/*	-0.1139455
-4.009238	仕立て/動詞/一段	-0.1150098
-3.708208	他/名詞/*	-0.09902964
-4.009238	以上/名詞/*	-0.07509001
-3.532117	以外/名詞/*	-0.08649887
-4.009238	仲/名詞/*	-0.112964
-4.009238	仲良かっ/形容詞/形容詞・アウオ段	-0.1130067
-4.009238	仲良く/副詞/*	-0.1149672
-4.009238	仲良く/形容詞/形容詞・アウオ段	-0.1104362
-3.532117	伊丹/名詞/*	-0.1078935
-3.708208	会う/動詞/五段・ワ行促音便	-0.1084551
-4.009238	会話/名詞/*	-0.1142011
-4.009238	伝われ/動詞/五段・ラ行	-0.114712
-4.009238	伸び/動詞/一段	-0.1024569
-4.009238	似/動詞/一段	-0.1024569
-4.009238	似合い/動詞/五段・ワ行促音便	-0.114712
-4.009238	似合っ/動詞/五段・ワ行促音便	-0.1147971
-4.009238	低い/形容詞/形容詞・アウオ段	-0.1145844
-4.009238	住ん/動詞/五段・マ行	-0.1117662
-3.708208	体/名詞/*	-0.1099202
-4.009238	体重/名詞/*	-0.1150098
-2.594265	何/名詞/*	-0.1030133
-4.009238	何で/副詞/*	-0.1140733
-4.009238	何とか/名詞/*	-0.113263
-4.009238	作為/名詞/*	-0.112066
-4.009238	使い/動詞/五段・ワ行促音便	-0.1149672
-4.009238	使い方/名詞/*	-0.1123227
-4.009238	使う/動詞/五段・ワ行促音便	-0.1148397
-3.532117	使える/動詞/一段	-0.06761454
-4.009238	使わ/動詞/五段・ワ行促音便	-0.1149247
-4.009238	例/名詞/*	-0.1080664
-3.532117	例えば/接続詞/*	-0.07476358
-3.708208	信じ/動詞/一段	-0.1023694
-3.708208	信じる/動詞/一段	-0.1109515
-4.009238	俺/名詞/*	-0.1094037
-4.009238	個性/名詞/*	-0.1150098
-4.009238	候補/名詞/*	-0.1148397
-4.009238	値上がり/名詞/*	-0.1123227
-4.009238	停止/名詞/*	-0.1123227
-4.009238	健太/名詞/*	-0.1118519
-3.708208	側/名詞/*	-0.1037243
-4.009238	働い/動詞/五段・カ行イ音便	-0.1024569
-4.009238	働く/動詞/五段・カ行イ音便	-0.1127931
-4.009238	優しい/形容詞/形容詞・イ段	-0.1115091
-4.009238	優遇/名詞/*	-0.1149247
-4.009238	元気/名詞/*	-0.1109086
-3.708208	兄さん/名詞/*	-0.1073313
-4.009238	先/名詞/*	-0.1150098
-4.009238	先に/副詞/*	-0.114712
-3.16414	先生/名詞/*	-0.1607791
-4.009238	先輩/名詞/*	-0.1109944
-4.009238	先週/名詞/*	-0.07509001
-2.708208	入っ/動詞/五段・ラ行	-0.8378007
-4.009238	入ら/動詞/五段・ラ行	-0.1148397
-3.532117	入り/動詞/五段・ラ行	-0.2456778
-4.009238	入り/名詞/*	-0.1114234
-4.009238	入る/動詞/五段・ラ行	-0.1150098
-3.532117	入れ/動詞/一段	-0.2516786
-4.009238	入れる/動詞/一段	-0.1130067
-4.009238	全/名詞/*	-0.1150098
-3.407178	全く/副詞/*	-0.2218691
-4.009238	全て/名詞/*	-0.1080664
-3.532117	全体/名詞/*	-0.3585643
-2.46517	全然/副詞/*	-0.05611403
-3.106148	全部/名詞/*	-0.1189099
-3.532117	八/名詞/*	-0.2642464
-4.009238	公用/名詞/*	-0.1146695
-3.310268	公立/名詞/*	-0.105727
-4.009238	六/名詞/*	-0.1148397
-4.009238	共通/名詞/*	-0.1080664
-4.009238	具合/名詞/*	-0.1061612
-3.407178	円/名詞/*	-0.1965948
-4.009238	冬/名詞/*	-0.1061612
-3.054996	出/動詞/一段	-0.3957217
-4.009238	出る/動詞/一段	-0.1145844
-4.009238	出会う/動詞/五段・ワ行促音便	-0.1149672
-4.009238	出会え/動詞/一段	-0.1085414
-3.708208	出会っ/動詞/五段・ワ行促音便	-0.09575292
-4.009238	出口/名詞/*	-0.1114234
-4.009238	出産/名詞/*	-0.07509001
-4.009238	出身/名詞/*	-0.112066
-3.532117	分/名詞/*	-0.08563533
-4.009238	分/接頭詞/*	-0.1144992
-4.009238	分から/動詞/五段・ラ行	-0.1130067
-4.009238	分かん/動詞/五段・ラ行	-0.1109086
-3.708208	分野/名詞/*	-0.3640074
-4.009238	切れ/動詞/一段	-0.1139455
-4.009238	初め/動詞/一段	-0.1024569
-3.708208	初めて/副詞/*	-0.3579152
-4.009238	判ら/動詞/五段・ラ行	-0.1130067
-2.967846	別に/副詞/*	-0.1063037
-4.009238	別れ/動詞/一段	-0.1024569
-4.009238	制/名詞/*	-0.1141585
-3.407178	前/名詞/*	0.004268408
-4.009238	割/名詞/*	-0.1061612
-3.106148	力/名詞/*	-0.164691
-4.009238	勇気/名詞/*	-0.1094037
-3.532117	勉強/名詞/*	-0.1091452
-4.009238	勘弁/名詞/*	-0.1123227
-3.708208	勝手/名詞/*	-0.35601
-4.009238	化/名詞/*	-0.114712
-4.009238	化し/動詞/五段・サ行	-0.1024569
-3.106148	十/名詞/*	-0.2017508
-3.708208	十字路/名詞/*	-0.3631118
-3.310268	千/名詞/*	-0.1787129
-4.009238	半分/名詞/*	-0.1144567
-3.708208	協力/名詞/*	-0.1121516
-4.009238	南/名詞/*	-0.1123227
-4.009238	危険/名詞/*	-0.1150098
-3.708208	原因/名詞/*	-0.360285
-4.009238	友/名詞/*	-0.113263
-4.009238	友子/名詞/*	-0.1146269
-2.86311	友達/名詞/*	-0.2056906
-3.708208	受け/動詞/一段	-0.102238
-4.009238	受け入れる/動詞/一段	-0.1147546
-4.009238	受験/名詞/*	-0.113263
-4.009238	古着/名詞/*	-0.1080664
-4.009238	台湾/名詞/*	-0.1149247
-3.532117	右/名詞/*	-0.2365184
-3.708208	右側/名詞/*	-0.3579152
-4.009238	合コン/名詞/*	-0.1117662
-4.009238	同じ/名詞/*	-0.1149672
-3.708208	同じ/連体詞/*	-0.1149672
-4.009238	名/名詞/*	-0.1147546
-3.708208	名前/名詞/*	-0.1060744
-4.009238	向い/動詞/五段・カ行イ音便	-0.1024569
-4.009238	向こう/名詞/*	-0.1114234
-4.009238	君/名詞/*	-0.1135617
-4.009238	否定/名詞/*	-0.1148822
-4.009238	吹き替え/動詞/一段	-0.1117662
-4.009238	告ら/動詞/五段・ラ行	-0.1147971
-4.009238	呑ん/動詞/五段・マ行	-0.1146695
-4.009238	周り/名詞/*	-0.1114234
-4.009238	呼ぶ/動詞/五段・バ行	-0.1143289
-4.009238	呼ん/動詞/五段・バ行	-0.1150098
-4.009238	唇/名詞/*	-0.1100923
-3.708208	問題/名詞/*	-0.1136044
-4.009238	喋っ/動詞/五段・ラ行	-0.1024569
-3.407178	喋る/動詞/五段・ラ行	-0.1101353
-4.009238	喋ろ/動詞/五段・ラ行	-0.1144141
-4.009238	喜べる/動詞/一段	-0.1149672
-3.708208	嘘/名詞/*	-0.1123655
-4.009238	噛ま/動詞/五段・マ行	-0.1148397
-3.310268	四/名詞/*	-0.1134337
-4.009238	四月/名詞/*	-0.1150098
-3.532117	回/名詞/*	-0.2575542
-3.708208	回生/名詞/*	-0.1023256
-3.407178	図書館/名詞/*	-0.2753214
-3.708208	国/名詞/*	-0.1141159
-4.009238	国外/名詞/*	-0.1139881
-4.009238	地味/名詞/*	-0.09606394
-3.708208	地球/名詞/*	-0.1078935
-4.009238	型/名詞/*	-0.1145844
-3.310268	基本/名詞/*	-0.2248216
-4.009238	場合/名詞/*	-0.06770939
-4.009238	場所/名詞/*	-0.1123227
-3.16414	塩/名詞/*	-0.6249113
-3.708208	塾/名詞/*	-0.1100923
-4.009238	増え/動詞/一段	-0.1085414
-3.708208	壁/名詞/*	-0.1080232
-4.009238	声/名詞/*	-0.1149247
-3.708208	声変わり/名詞/*	-0.1080232
-4.009238	変/名詞/*	-0.1061612
-3.708208	外人/名詞/*	-0.113519
-4.009238	外国/名詞/*	-0.1131776
-4.009238	多い/形容詞/形容詞・アウオ段	-0.1139455
-2.77879	多分/副詞/*	-0.341348
-4.009238	夜/名詞/*	-0.1150098
-4.009238	夢/名詞/*	-0.07509001
-4.009238	大/名詞/*	-0.1150098
-4.009238	大き/形容詞/形容詞・イ段	-0.1117662
-4.009238	大きい/形容詞/形容詞・イ段	-0.1109944
-4.009238	大っ/接頭詞/*	-0.1150098
-3.532117	大丈夫/名詞/*	-0.08934998
-3.708208	大事/名詞/*	-0.3613579
-3.532117	大人/名詞/*	-0.2528601
-4.009238	大変/名詞/*	-0.113263
-4.009238	大好き/名詞/*	-0.1130067
-4.009238	大嫌い/名詞/*	-0.112066
-3.231087	大学/名詞/*	-0.1993648
-4.009238	大敵/名詞/*	-0.1115091
-4.009238	大自然/名詞/*	-0.1123227
-3.708208	太郎/名詞/*	-0.1100493
-3.708208	夫婦/名詞/*	-0.1081096
-3.532117	奈美恵/名詞/*	-0.1069416
-4.009238	奥/名詞/*	-0.07509001
-3.231087	女/名詞/*	-0.2074521
-4.009238	好/名詞/*	-0.1061612
-4.009238	好き/動詞/五段・カ行イ音便	-0.07509001
-2.504088	好き/名詞/*	-0.5050653
-4.009238	妄想/名詞/*	-0.1123227
-4.009238	姉さん/名詞/*	-0.1123227
-3.708208	姉ちゃん/名詞/*	-0.105727
-4.009238	始め/動詞/一段	-0.1024569
-3.310268	嫌/名詞/*	-0.1532344
-3.231087	嫌い/動詞/五段・ワ行促音便	-0.2667577
-3.407178	嫌い/名詞/*	-0.2166033
-4.009238	嫌われる/動詞/一段	-0.1114234
-2.77879	子/名詞/*	-0.1891068
-4.009238	存在/名詞/*	-0.1139455
-4.009238	学問/名詞/*	-0.1147546
-3.231087	学校/名詞/*	-0.105162
-4.009238	学生/名詞/*	-0.1148822
-3.231087	孫/名詞/*	-0.2192545
-3.708208	宇宙/名詞/*	-0.1139029
-4.009238	安く/形容詞/形容詞・アウオ段	-0.1024569
-3.407178	安室/名詞/*	-0.2838297
-4.009238	完ぺき/名詞/*	-0.1144141
-4.009238	完全/名詞/*	-0.1061612
-4.009238	実は/接続詞/*	-0.1148822
-3.708208	実家/名詞/*	-0.1028069
-4.009238	実現/名詞/*	-0.1123227
-4.009238	実行/名詞/*	-0.114712
-4.009238	害/名詞/*	-0.1144992
-3.708208	家/名詞/*	-0.100395
-3.708208	家族/名詞/*	-0.1073313
-4.009238	対し/動詞/五段・サ行	-0.1024569
-3.708208	将来/名詞/*	-0.1148822
-4.009238	小/接頭詞/*	-0.1148822
-4.009238	小学校/名詞/*	-0.1061612
-4.009238	小池/名詞/*	-0.1147546
-3.708208	小１/名詞/*	-0.1043784
-4.009238	小２/名詞/*	-0.1061612
-4.009238	小３/名詞/*	-0.1117662
-4.009238	少ない/形容詞/形容詞・アウオ段	-0.1139455
-4.009238	少なく/形容詞/形容詞・アウオ段	-0.1109086
-4.009238	少年/名詞/*	-0.07509001
-4.009238	就活/名詞/*	-0.1144992
-4.009238	就職/名詞/*	-0.1123227
-4.009238	届か/動詞/五段・カ行イ音便	-0.1150098
-4.009238	履い/動詞/五段・カ行イ音便	-0.1024569
-4.009238	履か/動詞/五段・カ行イ音便	-0.1150098
-3.532117	山口/名詞/*	-0.2646719
-4.009238	島/名詞/*	-0.07509001
-4.009238	嵌り/動詞/五段・ラ行	-0.1123227
-4.009238	川/名詞/*	-0.1147546
-4.009238	巨峰/名詞/*	-0.09606394
-4.009238	差/名詞/*	-0.1123227
-4.009238	巻き込ん/動詞/五段・マ行	-0.1117662
-4.009238	市/名詞/*	-0.1117662
-4.009238	布/名詞/*	-0.1150098
-4.009238	希望/名詞/*	-0.1094037
-4.009238	師範/名詞/*	-0.1142011
-4.009238	帯/名詞/*	-0.1142011
-4.009238	帰ろ/動詞/五段・ラ行	-0.1144141
-4.009238	帰省/名詞/*	-0.1123227
-4.009238	干渉/名詞/*	-0.1148822
-4.009238	年/名詞/*	-0.1107798
-4.009238	年上/名詞/*	-0.1100923
-3.708208	年下/名詞/*	-0.1143715
-4.009238	年間/名詞/*	-0.1150098
-4.009238	年齢/名詞/*	-0.1094037
-3.407178	幼稚園/名詞/*	-0.2024634
-4.009238	広/形容詞/形容詞・アウオ段	-0.114712
-4.009238	延長線/名詞/*	-0.1150098
-4.009238	引っ越す/動詞/五段・サ行	-0.1117662
-3.708208	強化/名詞/*	-0.1121944
-4.009238	弾い/動詞/五段・カ行イ音便	-0.1024569
-4.009238	弾く/動詞/五段・カ行イ音便	-0.1130922
-4.009238	弾け/動詞/一段	-0.1024569
-3.708208	弾ける/動詞/一段	-0.3646034
-4.009238	当てはめる/動詞/一段	-0.1109944
-4.009238	彩香/名詞/*	-0.1109944
-4.009238	役/名詞/*	-0.1080664
-3.532117	彼/名詞/*	-0.2591078
-3.532117	彼女/名詞/*	-0.109662
-3.310268	彼氏/名詞/*	-0.182612
-3.532117	後/名詞/*	-0.2501422
-4.009238	後輩/名詞/*	-0.1150098
-4.009238	得る/動詞/一段	-0.1115091
-4.009238	御堂/名詞/*	-0.1150098
-4.009238	徴兵/名詞/*	-0.1150098
-4.009238	心/名詞/*	-0.1100923
-4.009238	心斎橋/名詞/*	-0.1150098
-4.009238	忍耐/名詞/*	-0.114712
-3.310268	忘れ/動詞/一段	-0.2243763
-3.310268	怖い/形容詞/形容詞・アウオ段	-0.1464324
-4.009238	思いつく/動詞/五段・カ行イ音便	-0.1141585
-4.009238	思い出し/動詞/五段・サ行	-0.1085414
-2.407178	思う/動詞/五段・ワ行促音便	-0.3736677
-3.708208	思え/動詞/一段	-0.1076774
-2.86311	思っ/動詞/五段・ワ行促音便	-0.68232
-3.310268	思わ/動詞/五段・ワ行促音便	-0.3587948
-4.009238	急ぐ/動詞/五段・ガ行	-0.1145418
-4.009238	性/名詞/*	-0.113263
-4.009238	性別/名詞/*	-0.1141585
-3.532117	性格/名詞/*	-0.09526371
-3.708208	恋し/動詞/サ変・−スル	-0.1134337
-3.407178	恋愛/名詞/*	-0.09836742
-4.009238	恐れ/動詞/一段	-0.1109086
-4.009238	恥ずかしい/形容詞/形容詞・イ段	-0.1114234
-3.407178	悪い/形容詞/形容詞・アウオ段	-0.2153956
-4.009238	悪かっ/形容詞/形容詞・アウオ段	-0.1130067
-4.009238	悪く/形容詞/形容詞・アウオ段	-0.1144141
-3.708208	惹か/動詞/五段・カ行イ音便	-0.3640499
-3.407178	意外/名詞/*	-0.169182
-4.009238	意見/名詞/*	-0.1141585
-3.407178	感じ/動詞/一段	-0.109662
-2.647511	感じ/名詞/*	-0.2614517
-3.708208	感謝/名詞/*	-0.3249388
-3.708208	憧れ/動詞/一段	-0.09664097
-3.532117	成功/名詞/*	-0.104988
-3.532117	成長/名詞/*	-0.2633515
-4.009238	戦う/動詞/五段・ワ行促音便	-0.1147971
-4.009238	戻し/動詞/五段・サ行	-0.1024569
-3.708208	戻っ/動詞/五段・ラ行	-0.3523057
-4.009238	手/名詞/*	-0.1149672
-4.009238	手/接頭詞/*	-0.1150098
-4.009238	手芸/名詞/*	-0.1123227
-3.532117	才能/名詞/*	-0.02126651
-4.009238	才色兼備/名詞/*	-0.07509001
-4.009238	批判的/名詞/*	-0.1061612
-3.708208	抜き/名詞/*	-0.35601
-4.009238	拒否ら/動詞/五段・ラ行	-0.1130067
-3.708208	持っ/動詞/五段・タ行	-0.1139455
-4.009238	持て/動詞/五段・タ行	-0.114712
-4.009238	指/名詞/*	-0.1123227
-4.009238	振り返る/動詞/五段・ラ行	-0.1109944
-3.532117	捏ね/動詞/一段	-0.2633089
-3.708208	接し/動詞/五段・サ行	-0.3645183
-4.009238	接する/動詞/サ変・−スル	-0.1104362
-4.009238	揚げ/名詞/*	-0.1140733
-3.708208	政治/名詞/*	-0.105727
-4.009238	救い/動詞/五段・ワ行促音便	-0.1147546
-3.708208	教え/動詞/一段	-0.3523057
-4.009238	教員/名詞/*	-0.1109944
-3.407178	教室/名詞/*	-0.10798
-4.009238	文/名詞/*	-0.09606394
-3.532117	料理/名詞/*	-0.100219
-4.009238	新しく/形容詞/形容詞・イ段	-0.1145844
-4.009238	新た/名詞/*	-0.1061612
-3.708208	新聞/名詞/*	-0.1061178
-2.967846	方/名詞/*	-0.3526333
-4.009238	方向/名詞/*	-0.1107798
-3.708208	旅行/名詞/*	-0.1122372
-3.708208	日/名詞/*	-0.35601
-3.407178	日本/名詞/*	-0.2141413
-3.708208	日本人/名詞/*	-0.08289703
-3.310268	日本語/名詞/*	-0.1823914
-3.532117	旦那/名詞/*	-0.05899351
-3.708208	早い/形容詞/形容詞・アウオ段	-0.06361269
-4.009238	早乙女/名詞/*	-0.1123227
-3.708208	昇格/名詞/*	-0.1116805
-4.009238	明るい/形容詞/形容詞・アウオ段	-0.1109944
-4.009238	明るく/形容詞/形容詞・アウオ段	-0.1109086
-4.009238	明子/名詞/*	-0.1123227
-3.16414	昔/名詞/*	-0.1551596
-4.009238	昨日/名詞/*	-0.1109086
-4.009238	昼/名詞/*	-0.1137749
-4.009238	時/名詞/*	-0.1080664
-4.009238	時代/名詞/*	-0.1061612
-3.231087	時間/名詞/*	-0.1404068
-4.009238	普通/副詞/*	-0.07509001
-2.666816	普通/名詞/*	-0.9592728
-4.009238	暮らし/動詞/五段・サ行	-0.1024569
-4.009238	暴い/動詞/五段・カ行イ音便	-0.1024569
-4.009238	曲/名詞/*	-0.1100923
-4.009238	曲がり/動詞/五段・ラ行	-0.09606394
-4.009238	曲がる/動詞/五段・ラ行	-0.1147971
-3.708208	書い/動詞/五段・カ行イ音便	-0.3523057
-4.009238	書き初め/名詞/*	-0.07509001
-4.009238	書き換えん/動詞/一段撥音便	-0.1137323
-3.532117	最初/名詞/*	-0.06111673
-3.532117	最終/名詞/*	-0.3585643
-3.231087	最近/名詞/*	-0.1140307
-4.009238	月末/名詞/*	-0.113263
-3.708208	月謝/名詞/*	-0.1111661
-4.009238	有名/名詞/*	-0.1109086
-4.009238	期待/名詞/*	-0.07509001
-4.009238	未来/名詞/*	-0.06770939
-4.009238	末/名詞/*	-0.1094037
-3.708208	本/名詞/*	-0.1090159
-4.009238	本当に/副詞/*	-0.1150098
-3.708208	本気/名詞/*	-0.1108657
-4.009238	本郷/名詞/*	-0.1150098
-4.009238	本間/名詞/*	-0.1061612
-3.532117	村/名詞/*	-0.1021066
-2.967846	来/動詞/カ変・来ル	-0.4128408
-4.009238	来る/動詞/カ変・来ル	-0.07509001
-4.009238	来ん/動詞/カ変・来ル撥音便	-0.1117662
-4.009238	松田/名詞/*	-0.1147546
-4.009238	染まっ/動詞/五段・ラ行	-0.1148822
-4.009238	柿/名詞/*	-0.1123227
-4.009238	校舎/名詞/*	-0.1100923
-4.009238	根性/名詞/*	-0.1100923
-4.009238	格好/名詞/*	-0.1114234
-4.009238	桃/名詞/*	-0.09606394
-4.009238	棟/名詞/*	-0.1061612
-4.009238	森山/名詞/*	-0.1150098
-3.708208	楽/名詞/*	-0.3606286
-3.407178	楽しい/形容詞/形容詞・イ段	-0.2066702
-4.009238	楽しかっ/形容詞/形容詞・イ段	-0.1085414
-4.009238	楽しく/形容詞/形容詞・イ段	-0.1109086
-4.009238	概念/名詞/*	-0.1149672
-4.009238	横/名詞/*	-0.1104362
-4.009238	機関/名詞/*	-0.09606394
-4.009238	次/接頭詞/*	-0.1148397
-4.009238	次に/接続詞/*	-0.1149247
-4.009238	欧米/名詞/*	-0.1150098
-4.009238	歌/名詞/*	-0.1149672
-4.009238	歌謡曲/名詞/*	-0.1150098
-4.009238	止め/動詞/一段	-0.1127931
-3.532117	正味/副詞/*	-0.05393333
-4.009238	正当/名詞/*	-0.1150098
-4.009238	武道/名詞/*	-0.07509001
-4.009238	歩い/動詞/五段・カ行イ音便	-0.1024569
-3.708208	歳/名詞/*	-0.1067683
-4.009238	死/名詞/*	-0.1061612
-4.009238	死に/動詞/五段・ナ行	-0.1134764
-4.009238	死にかけ/動詞/一段	-0.1085414
-3.231087	死ぬ/動詞/五段・ナ行	-0.1380529
-3.532117	死ん/動詞/五段・ナ行	-0.2611277
-3.708208	残念/名詞/*	-0.1108227
-3.532117	段/名詞/*	-0.09588623
-4.009238	殺さ/動詞/五段・サ行	-0.1142011
-3.532117	母親/名詞/*	-0.1006587
-4.009238	毒/名詞/*	-0.07509001
-3.708208	比べ/動詞/一段	-0.100351
-3.231087	気/名詞/*	-0.2398183
-4.009238	気さく/名詞/*	-0.07509001
-4.009238	気まずい/形容詞/形容詞・アウオ段	-0.1045962
-4.009238	気付い/動詞/五段・カ行イ音便	-0.1024569
-4.009238	気分/名詞/*	-0.1144141
-4.009238	気持ち/名詞/*	-0.1100923
-4.009238	水島/名詞/*	-0.1150098
-3.407178	水泳/名詞/*	-0.06212644
-3.708208	求め/動詞/一段	-0.3523057
-4.009238	汚く/形容詞/形容詞・アウオ段	-0.1109086
-4.009238	決め/動詞/一段	-0.1085414
-4.009238	治っ/動詞/五段・ラ行	-0.1085414
-4.009238	治る/動詞/五段・ラ行	-0.1147971
-4.009238	洋子/名詞/*	-0.1109944
-4.009238	洞窟/名詞/*	-0.1130067
-4.009238	津山/名詞/*	-0.1150098
-4.009238	活動/名詞/*	-0.1130067
-4.009238	派/名詞/*	-0.113263
-4.009238	派手/名詞/*	-0.1131776
-4.009238	流/動詞/一段	-0.1148822
-3.532117	流/名詞/*	-0.0633733
-4.009238	流さ/動詞/五段・サ行	-0.1142011
-3.708208	流星/名詞/*	-0.364816
-3.407178	浮気/名詞/*	-0.2173779
-4.009238	海外/名詞/*	-0.1080664
-3.532117	消え/動詞/一段	-0.2455001
-4.009238	深い/形容詞/形容詞・アウオ段	-0.1115091
-3.708208	深く/形容詞/形容詞・アウオ段	-0.3592525
-4.009238	清楚/名詞/*	-0.07509001
-4.009238	済まし/動詞/五段・サ行	-0.1146695
-4.009238	滑り/名詞/*	-0.1150098
-3.708208	漢字/名詞/*	-0.1039424
-4.009238	灰色/名詞/*	-0.1144141
-4.009238	炒め/動詞/一段	-0.1149672
-4.009238	無い/助動詞/形容詞・イ段	-0.1118519
-4.009238	無敵/名詞/*	-0.112066
-3.231087	無理/名詞/*	-0.1548592
-4.009238	無理やり/副詞/*	-0.1139455
-4.009238	無難/名詞/*	-0.1109086
-4.009238	無駄/名詞/*	-0.1061612
-4.009238	熱心/名詞/*	-0.07509001
-4.009238	熱愛/名詞/*	-0.1123227
-4.009238	爪先/名詞/*	-0.1117662
-4.009238	片足/名詞/*	-0.1141585
-4.009238	片道/名詞/*	-0.1144141
-3.532117	版/名詞/*	-0.0670451
-3.708208	物/名詞/*	-0.06533229
-4.009238	状態/名詞/*	-0.1117662
-4.009238	珍しく/形容詞/形容詞・イ段	-0.1109086
-4.009238	現れる/動詞/一段	-0.1130922
-4.009238	理工/名詞/*	-0.1080664
-4.009238	理想/名詞/*	-0.1080664
-3.708208	理由/名詞/*	-0.1070715
-4.009238	環境/名詞/*	-0.1131776
-3.708208	瓶/名詞/*	-0.06533229
-3.708208	生き/動詞/一段	-0.3523057
-3.532117	生まれ/動詞/一段	-0.2326442
-3.708208	生徒/名詞/*	-0.1050315
-3.407178	生活/名詞/*	-0.1063781
-3.231087	男/名詞/*	-0.293368
-3.532117	男の子/名詞/*	-0.07012068
-4.009238	男子/名詞/*	-0.1080664
-4.009238	男性/名詞/*	-0.1080664
-4.009238	留学/名詞/*	-0.1139455
-4.009238	疑っ/動詞/五段・ラ行	-0.1024569
-4.009238	病院/名詞/*	-0.1094037
-3.708208	痛い/形容詞/形容詞・アウオ段	-0.07387638
-4.009238	痩せ/動詞/一段	-0.1150098
-4.009238	発表会/名詞/*	-0.1148822
-4.009238	登る/動詞/五段・ラ行	-0.1117662
-4.009238	登ん/動詞/五段・ラ行撥音便	-0.1080664
-4.009238	白い/形容詞/形容詞・アウオ段	-0.1148822
-3.708208	白く/形容詞/形容詞・アウオ段	-0.09819067
-3.310268	百/名詞/*	-0.1980375
-2.77879	的/名詞/*	-0.5759527
-4.009238	皿/名詞/*	-0.1150098
-3.407178	目/名詞/*	-0.2061411
-4.009238	目指し/動詞/五段・サ行	-0.1024569
-4.009238	目的/名詞/*	-0.1104362
-4.009238	直し/動詞/五段・サ行	-0.1024569
-3.708208	直進/名詞/*	-0.0949076
-3.231087	相手/名詞/*	-0.0811538
-3.708208	県/名詞/*	-0.07495015
-3.708208	着/名詞/*	-0.07485688
-3.532117	知っ/動詞/五段・ラ行	-0.3466923
-2.967846	知ら/動詞/五段・ラ行	-0.6760805
-4.009238	知らず/名詞/*	-0.1061612
-3.708208	知り/動詞/五段・ラ行	-0.1133483
-4.009238	知りあい/名詞/*	-0.1131776
-3.532117	知り合い/動詞/五段・ワ行促音便	-0.1078935
-4.009238	知り合い/名詞/*	-0.112066
-4.009238	知れ/動詞/一段	-0.1130067
-4.009238	知識/名詞/*	-0.1080664
-3.708208	硬い/形容詞/形容詞・アウオ段	-0.1047268
-3.708208	確か/副詞/*	-0.3249388
-3.708208	確か/名詞/*	-0.35601
-3.16414	確かに/感動詞/*	-0.5265187
-4.009238	確認/名詞/*	-0.1123227
-4.009238	社/名詞/*	-0.1123227
-3.708208	神/名詞/*	-0.1091883
-3.054996	私/名詞/*	-0.2149685
-4.009238	私立/名詞/*	-0.1080664
-4.009238	秒/名詞/*	-0.1061612
-4.009238	移さ/動詞/五段・サ行	-0.1142011
-4.009238	移り/動詞/五段・ラ行	-0.1134764
-3.708208	程度/名詞/*	-0.35601
-4.009238	空き/動詞/五段・カ行イ音便	-0.1147971
-4.009238	突然/副詞/*	-0.07509001
-4.009238	立つ/動詞/五段・タ行	-0.1147546
-4.009238	筋/名詞/*	-0.1114234
-4.009238	答え/動詞/一段	-0.1148822
-4.009238	範囲/名詞/*	-0.1100923
-3.708208	簡単/名詞/*	-0.3607574
-3.708208	粉/名詞/*	-0.1135617
-3.231087	系/名詞/*	-0.08335462
-4.009238	系統的/名詞/*	-0.1061612
-4.009238	約束/名詞/*	-0.1100923
-4.009238	素直/名詞/*	-0.1061612
-4.009238	細く/形容詞/形容詞・アウオ段	-0.1109086
-4.009238	細め/動詞/一段	-0.1150098
-4.009238	終わっ/動詞/五段・ラ行	-0.1085414
-4.009238	終わり/動詞/五段・ラ行	-0.1149672
-4.009238	組/名詞/*	-0.1148397
-4.009238	経た/動詞/五段・タ行	-0.1143715
-3.532117	経済/名詞/*	-0.1097051
-3.708208	経験/名詞/*	-0.1122372
-3.231087	結婚/名詞/*	-0.1754793
-2.930057	結構/副詞/*	-0.04707682
-4.009238	絞る/動詞/五段・ラ行	-0.1149247
-4.009238	絵/名詞/*	-0.1107798
-4.009238	絵画/名詞/*	-0.1127931
-2.967846	絶対/副詞/*	-0.1487021
-3.708208	絶対/名詞/*	-0.07490353
-4.009238	続か/動詞/五段・カ行イ音便	-0.1130067
-3.532117	続け/動詞/一段	-0.09548614
-4.009238	続けよ/動詞/一段	-0.1144141
-4.009238	総政/名詞/*	-0.1146695
-4.009238	練/名詞/*	-0.1107798
-3.407178	練習/名詞/*	-0.09294367
-4.009238	置い/動詞/五段・カ行イ音便	-0.1024569
-3.532117	美しい/形容詞/形容詞・イ段	-0.1010102
-3.708208	美形/名詞/*	-0.1104362
-4.009238	美貌/名詞/*	-0.1104362
-3.708208	習い/動詞/五段・ワ行促音便	-0.3633252
-3.407178	習い事/名詞/*	-0.2085171
-4.009238	習う/動詞/五段・ワ行促音便	-0.1149247
-4.009238	習える/動詞/一段	-0.1149672
-3.708208	習っ/動詞/五段・ワ行促音便	-0.3523057
-3.054996	習字/名詞/*	-0.2420299
-4.009238	習得/名詞/*	-0.114712
-4.009238	考え/動詞/一段	-0.1130067
-4.009238	考え/名詞/*	-0.1126221
-4.009238	考えれる/動詞/一段・可能	-0.1148397
-3.310268	者/名詞/*	-0.1773757
-3.708208	聞い/動詞/五段・カ行イ音便	-0.3583902
-4.009238	聞か/動詞/五段・カ行イ音便	-0.1142011
-4.009238	聴講/名詞/*	-0.1145844
-4.009238	肌/名詞/*	-0.1100923
-4.009238	肩/名詞/*	-0.1149672
-4.009238	育ち/動詞/五段・タ行	-0.1127931
-3.407178	背/名詞/*	-0.2783054
-3.407178	能力/名詞/*	-0.5078665
-4.009238	脱い/動詞/五段・ガ行	-0.1146695
-3.708208	自体/名詞/*	-0.1061178
-2.895295	自分/名詞/*	-0.2352627
-4.009238	自制心/名詞/*	-0.1150098
-4.009238	自由/名詞/*	-0.1061612
-3.407178	自立/名詞/*	-0.2148338
-4.009238	至る/動詞/五段・ラ行	-0.07509001
-4.009238	興味/名詞/*	-0.1145844
-4.009238	舞台/名詞/*	-0.1117662
-3.708208	良かっ/形容詞/形容詞・アウオ段	-0.3583902
-4.009238	色々/副詞/*	-0.1149672
-4.009238	色気/名詞/*	-0.1137323
-3.532117	色白/名詞/*	-0.02158297
-4.009238	色素/名詞/*	-0.1094037
-4.009238	花/名詞/*	-0.114712
-3.708208	花園/名詞/*	-0.1078071
-3.708208	若い/形容詞/形容詞・アウオ段	-0.07303418
-4.009238	若く/動詞/五段・カ行イ音便	-0.1024569
-4.009238	苦労/名詞/*	-0.1123227
-2.895295	英語/名詞/*	-0.1212128
-4.009238	茶色/名詞/*	-0.1139881
-4.009238	荒れ/動詞/一段	-0.09606394
-4.009238	莫大/名詞/*	-0.1109086
-3.708208	落ち/動詞/一段	-0.3523057
-3.708208	蒲焼き/名詞/*	-0.0750434
-3.532117	薄い/形容詞/形容詞・アウオ段	-0.1144141
-4.009238	薄く/形容詞/形容詞・アウオ段	-0.1024569
-4.009238	藤/名詞/*	-0.1150098
-4.009238	血/名詞/*	-0.1150098
-4.009238	行か/動詞/五段・カ行促音便	-0.1145418
-3.407178	行き/動詞/五段・カ行促音便	-0.2635777
-4.009238	行き方/名詞/*	-0.1149672
-3.532117	行く/動詞/五段・カ行促音便	-0.06837264
-4.009238	行ける/動詞/一段	-0.1147546
-3.106148	行っ/動詞/五段・カ行促音便	-0.4647405
-4.009238	衝撃/名詞/*	-0.1147546
-4.009238	衣装/名詞/*	-0.1123227
-4.009238	裕/名詞/*	-0.1123227
-4.009238	西北/名詞/*	-0.1114234
-4.009238	要するに/副詞/*	-0.07509001
-3.708208	要る/動詞/五段・ラ行	-0.1085414
-2.46517	見/動詞/一段	-0.8254721
-4.009238	見え/動詞/一段	-0.1024569
-4.009238	見える/動詞/一段	-0.1130067
-4.009238	見つかる/動詞/五段・ラ行	-0.1146269
-3.708208	見る/動詞/一段	-0.1098772
-4.009238	見出し/動詞/五段・サ行	-0.1085414
-3.310268	覚え/動詞/一段	-0.2889543
-3.708208	親/名詞/*	-0.1061178
-4.009238	親しみ/動詞/五段・マ行	-0.1150098
-4.009238	解散/名詞/*	-0.112066
-4.009238	解釈/名詞/*	-0.1123227
-3.708208	言い/動詞/五段・ワ行促音便	-0.1147971
-3.106148	言う/動詞/五段・ワ行促音便	-0.1559842
-4.009238	言え/動詞/一段	-0.1130067
-2.930057	言っ/動詞/五段・ワ行促音便	-0.8774896
-2.833147	言わ/動詞/五段・ワ行促音便	-0.4935744
-3.532117	言語/名詞/*	-0.07275306
-4.009238	記憶/名詞/*	-0.1144992
-3.532117	訳/名詞/*	-0.1048574
-3.310268	話/名詞/*	-0.09222731
-3.708208	話題/名詞/*	-0.101098
-4.009238	認識/名詞/*	-0.1123227
-3.054996	語/名詞/*	-0.1288218
-4.009238	語っ/動詞/五段・ラ行	-0.1024569
-4.009238	語彙/名詞/*	-0.114712
-4.009238	読ん/動詞/五段・マ行	-0.1117662
-4.009238	読売新聞/名詞/*	-0.07509001
-3.532117	誰/名詞/*	-0.2561687
-4.009238	課外/名詞/*	-0.1150098
-4.009238	豆/名詞/*	-0.07509001
-4.009238	豊か/名詞/*	-0.07509001
-4.009238	豚汁/名詞/*	-0.1109944
-3.708208	貧乏/名詞/*	-0.05422688
-4.009238	責め/動詞/一段	-0.1148822
-4.009238	責める/動詞/一段	-0.1131776
-3.708208	買っ/動詞/五段・ワ行促音便	-0.100351
-4.009238	質問/名詞/*	-0.1139455
-4.009238	走っ/動詞/五段・ラ行	-0.1024569
-3.532117	超/接頭詞/*	-0.1148822
-4.009238	越し/動詞/五段・サ行	-0.1150098
-3.310268	趣味/名詞/*	-0.1876115
-4.009238	足/名詞/*	-0.1149672
-3.532117	距離/名詞/*	-0.1110802
-4.009238	踊っ/動詞/五段・ラ行	-0.1130067
-3.708208	踊ら/動詞/五段・ラ行	-0.113519
-3.708208	身近/名詞/*	-0.1078935
-4.009238	載っ/動詞/五段・ラ行	-0.1085414
-4.009238	輪/名詞/*	-0.1080664
-4.009238	辞め/動詞/一段	-0.1140733
-3.708208	辺/名詞/*	-0.1078071
-4.009238	近い/名詞/*	-0.1104362
-3.532117	近い/形容詞/形容詞・アウオ段	-0.1080232
-4.009238	近所/名詞/*	-0.1061612
-4.009238	迷っ/動詞/五段・ワ行促音便	-0.1024569
-4.009238	逆/名詞/*	-0.1144141
-4.009238	逆/接頭詞/*	-0.1150098
-3.708208	逆に/接続詞/*	-0.1149247
-4.009238	透明/名詞/*	-0.1130067
-3.708208	通っ/動詞/五段・ラ行	-0.3523057
-4.009238	連れ/動詞/一段	-0.1024569
-4.009238	連絡/名詞/*	-0.1150098
-3.708208	週/名詞/*	-0.3642203
-3.532117	週/接頭詞/*	-0.2637779
-4.009238	進ん/動詞/五段・マ行	-0.1117662
-3.708208	遊び/動詞/五段・バ行	-0.3459128
-3.708208	遊ん/動詞/五段・バ行	-0.1117234
-4.009238	運動/名詞/*	-0.1147971
-3.708208	過ぎ/動詞/一段	-0.3523057
-4.009238	過去/名詞/*	-0.1150098
-3.532117	道/名詞/*	-0.3574983
-4.009238	道具/名詞/*	-0.09606394
-4.009238	道徳/名詞/*	-0.1123227
-4.009238	違い/動詞/五段・ワ行促音便	-0.1117662
-4.009238	違い/名詞/*	-0.1104362
-2.895295	違う/動詞/五段・ワ行促音便	-0.09083553
-3.708208	違う/感動詞/*	-0.0750434
-4.009238	違っ/動詞/五段・ワ行促音便	-0.1085414
-3.532117	遠い/形容詞/形容詞・アウオ段	-0.1144992
-3.532117	遺産/名詞/*	-0.1035933
-4.009238	部分/名詞/*	-0.1045962
-3.708208	部活/名詞/*	-0.1097051
-4.009238	醤油/名詞/*	-0.1139881
-3.532117	金/名詞/*	-0.2541255
-3.708208	金持ち/名詞/*	-0.1082824
-4.009238	長い/形容詞/形容詞・アウオ段	-0.1150098
-4.009238	閉め/動詞/一段	-0.1149672
-4.009238	開い/動詞/五段・カ行イ音便	-0.1024569
-3.708208	間/名詞/*	-0.101098
-4.009238	間違え/動詞/一段	-0.1024569
-4.009238	間違っ/動詞/五段・ワ行促音便	-0.1024569
-4.009238	関し/動詞/五段・サ行	-0.1024569
-3.231087	関係/名詞/*	-0.1513024
-3.708208	関学/名詞/*	-0.105727
-4.009238	闘わ/動詞/五段・ワ行促音便	-0.1130067
-4.009238	限り/名詞/*	-0.07509001
-3.708208	陶芸/名詞/*	-0.07063904
-4.009238	隣/名詞/*	-0.1150098
-4.009238	離婚/名詞/*	-0.1123227
-4.009238	難い/形容詞/形容詞・アウオ段	-0.1117662
-4.009238	難しい/形容詞/形容詞・イ段	-0.1115091
-3.708208	雰囲気/名詞/*	-0.3599411
-3.310268	霊/名詞/*	-0.3908868
-4.009238	青/名詞/*	-0.07509001
-4.009238	青かっ/形容詞/形容詞・アウオ段	-0.1085414
-4.009238	青井/名詞/*	-0.1150098
-4.009238	面倒くさい/形容詞/形容詞・アウオ段	-0.07509001
-4.009238	面白く/形容詞/形容詞・アウオ段	-0.1109086
-3.407178	韓/名詞/*	-0.2840424
-3.310268	韓国/名詞/*	-0.2997316
-3.708208	韓流/名詞/*	-0.1107369
-4.009238	音声/名詞/*	-0.1150098
-4.009238	音読み/名詞/*	-0.1130067
-4.009238	頃/名詞/*	-0.1094037
-3.708208	頑張っ/動詞/五段・ラ行	-0.100351
-3.532117	頭/名詞/*	-0.1149247
-4.009238	頼り/名詞/*	-0.1150098
-2.895295	顔/名詞/*	-0.3958448
-4.009238	願う/動詞/五段・ワ行促音便	-0.07509001
-4.009238	類/名詞/*	-0.1094037
-4.009238	風/名詞/*	-0.1061612
-4.009238	風景/名詞/*	-0.1123227
-3.532117	風邪/名詞/*	-0.1082824
-4.009238	飛ぶ/動詞/五段・バ行	-0.1117662
-4.009238	飛ん/動詞/五段・バ行	-0.1146695
-4.009238	食う/動詞/五段・ワ行促音便	-0.1144567
-3.231087	食べ/動詞/一段	-0.2051694
-3.532117	食べる/動詞/一段	-0.1088865
-4.009238	食べれ/動詞/一段・可能	-0.1109086
-4.009238	食べん/動詞/一段撥音便	-0.1141585
-3.532117	食べ物/名詞/*	-0.2580295
-3.407178	食堂/名詞/*	-0.273887
-4.009238	食材/名詞/*	-0.1100923
-4.009238	駅/名詞/*	-0.1080664
-4.009238	騙す/動詞/五段・サ行	-0.1130922
-3.231087	高い/形容詞/形容詞・アウオ段	-0.05787951
-4.009238	高く/形容詞/形容詞・アウオ段	-0.1144141
-3.532117	高校/名詞/*	-0.2517662
-4.009238	髪/名詞/*	-0.06770939
-4.009238	髪の毛/名詞/*	-0.1147971
-3.708208	髪形/名詞/*	-0.07387638
-3.708208	魅力/名詞/*	-0.3641777
-4.009238	鮭/名詞/*	-0.1149672
-4.009238	鵜呑み/名詞/*	-0.1061612
-4.009238	鶴/名詞/*	-0.1149672
-4.009238	黄色く/形容詞/形容詞・アウオ段	-0.1140307
-4.009238	黒/名詞/*	-0.09606394
-4.009238	黒め/動詞/一段	-0.1080664
-3.231087	！/記号/*	-0.682816
-4.009238	％/名詞/*	-0.1148822
-4.009238	１月/名詞/*	-0.1107798
-2.284962	？/記号/*	-1.685051

\2-grams:
-2.967582	<s> Anything/英語/*
-3.656399	<s> B/名詞/*
-3.656399	<s> Give/英語/*
-3.656399	<s> Justin/英語/*
-3.656399	<s> NANA/名詞/*
-2.967582	<s> OPA/名詞/*
-3.656399	<s> Of/英語/*
-2.967582	<s> Soy/英語/*
-3.656399	<s> THANK/英語/*
-2.967582	<s> YEAH/英語/*
-3.656399	<s> YES/英語/*
-3.656399	<s> yeah/英語/*
-3.656399	<s> 「/記号/*
-2.967582	<s> 」/記号/*
-1.625312	<s> あ/感動詞/*	-0.03599001
-2.795802	<s> ああ/感動詞/*
-3.656399	<s> あえて/副詞/*
-3.656399	<s> あか/動詞/五段・カ行イ音便
-3.656399	<s> あくまでも/副詞/*
-2.582595	<s> あたし/名詞/*
-1.98186	<s> あと/名詞/*	0.01414663
-3.656399	<s> あと/接続詞/*
-3.656399	<s> あなた/名詞/*
-2.967582	<s> あの/フィラー/*
-2.06901	<s> あの/連体詞/*	0.01661617
-3.656399	<s> あのー/フィラー/*
-3.656399	<s> あり/動詞/五段・ラ行
-3.656399	<s> ありえ/動詞/一段
-2.967582	<s> ありがとう/感動詞/*
-2.795802	<s> ある/動詞/五段・ラ行	-0.07578459
-2.253359	<s> あれ/名詞/*	-0.006294795
-2.967582	<s> あんだけ/副詞/*
-3.656399	<s> あんね/フィラー/*
-3.656399	<s> あんま/副詞/*
-2.795802	<s> あんまり/副詞/*
-1.819132	<s> あー/フィラー/*	0.02509491
-3.656399	<s> あー/感動詞/*
-3.656399	<s> あーあ/感動詞/*
-3.656399	<s> い/動詞/一段
-2.582595	<s> いい/形容詞/形容詞・イイ
-3.656399	<s> いき/動詞/五段・カ行促音便
-3.656399	<s> いきなり/副詞/*
-3.656399	<s> いつも/副詞/*
-3.656399	<s> いま/名詞/*
-3.656399	<s> いや/名詞/*
-2.795802	<s> いや/感動詞/*
-2.334492	<s> ううん/感動詞/*	-0.003498076
-1.98186	<s> うち/名詞/*	0.05549
-3.656399	<s> うどん/名詞/*
-3.656399	<s> うまい/形容詞/形容詞・アウオ段
-3.656399	<s> うん/フィラー/*
-1.290859	<s> うん/感動詞/*	0.02823425
-2.795802	<s> うーん/感動詞/*	-0.008886569
-2.334492	<s> え/フィラー/*
-2.06901	<s> え/感動詞/*	-0.0124336
-3.656399	<s> ええ/形容詞/形容詞・イイ
-3.656399	<s> えっ/感動詞/*
-2.795802	<s> えっと/フィラー/*
-2.795802	<s> えっとね/フィラー/*	0.0566281
-2.967582	<s> えらい/形容詞/形容詞・アウオ段
-2.967582	<s> えー/フィラー/*	-0.0438993
-3.656399	<s> えーと/フィラー/*
-2.582595	<s> お/接頭詞/*	0.004493954
-3.656399	<s> おいしい/形容詞/形容詞・イ段
-3.656399	<s> おかず/名詞/*
-3.656399	<s> おねえちゃん/名詞/*
-3.656399	<s> おれ/名詞/*
-3.656399	<s> お母さん/名詞/*
-3.656399	<s> お腹/名詞/*
-3.656399	<s> か/助詞/*
-3.656399	<s> から/助詞/*
-3.656399	<s> かわいい/形容詞/形容詞・イ段
-3.656399	<s> きれい/名詞/*
-3.656399	<s> くそ/接頭詞/*
-3.656399	<s> け/助詞/*
-3.656399	<s> こたつ/名詞/*
-2.967582	<s> こないだ/名詞/*
-3.656399	<s> この/連体詞/*
-3.656399	<s> このあいだ/名詞/*
-2.582595	<s> これ/名詞/*
-3.656399	<s> これから/副詞/*
-3.656399	<s> ごつい/形容詞/形容詞・アウオ段
-3.656399	<s> ごめん/感動詞/*
-3.656399	<s> さけ/動詞/一段
-3.656399	<s> さすが/副詞/*
-2.582595	<s> さっき/名詞/*
-3.656399	<s> し/動詞/サ変・スル
-3.656399	<s> しかも/接続詞/*
-3.656399	<s> しば/名詞/*
-3.656399	<s> しゃべっ/動詞/五段・ラ行
-2.967582	<s> じいさん/名詞/*
-3.656399	<s> じゃ/助動詞/特殊・ジャ
-3.656399	<s> じゃ/接続詞/*
-2.967582	<s> じゃあ/接続詞/*
-3.656399	<s> すいません/感動詞/*
-2.967582	<s> すごい/形容詞/形容詞・アウオ段
-3.656399	<s> すっご/形容詞/形容詞・アウオ段
-2.967582	<s> する/動詞/サ変・スル
-2.967582	<s> せ/副詞/*	0.1085346
-2.795802	<s> せ/動詞/サ変・スル	0.08790343
-2.967582	<s> そ/副詞/*	0.1085346
-1.259825	<s> そう/副詞/*	0.3200045
-2.967582	<s> そういう/連体詞/*
-3.656399	<s> そうそう/副詞/*
-2.582595	<s> そこ/名詞/*
-2.967582	<s> そして/接続詞/*
-2.795802	<s> その/連体詞/*
-3.656399	<s> そもそも/接続詞/*
-1.744499	<s> それ/名詞/*	-0.1472843
-2.582595	<s> それで/接続詞/*
-3.656399	<s> それでいて/接続詞/*
-3.656399	<s> そんだけ/副詞/*
-2.06901	<s> そんな/連体詞/*	0.05069827
-3.656399	<s> そんなに/副詞/*
-2.967582	<s> そんなん/名詞/*
-3.656399	<s> ただ/接続詞/*
-3.656399	<s> たった/副詞/*
-2.967582	<s> たぶん/副詞/*
-3.656399	<s> たま/名詞/*
-3.656399	<s> たまに/副詞/*
-3.656399	<s> だ/助動詞/特殊・タ
-2.023252	<s> だから/接続詞/*	-0.006823879
-3.656399	<s> だけ/助詞/*
-2.253359	<s> だって/接続詞/*
-3.656399	<s> ちゃんと/副詞/*
-3.656399	<s> ちょう/接頭詞/*
-2.967582	<s> ちょっと/副詞/*
-2.795802	<s> って/助詞/*
-3.656399	<s> つながり/名詞/*
-3.656399	<s> つらい/形容詞/形容詞・アウオ段
-3.656399	<s> て/助詞/*
-3.656399	<s> てか/接続詞/*
-3.656399	<s> で/助詞/*
-1.877124	<s> で/接続詞/*	-0.3477734
-3.656399	<s> でかい/形容詞/形容詞・アウオ段
-2.967582	<s> でっかく/形容詞/形容詞・アウオ段	0.1141481
-1.661525	<s> でも/接続詞/*	-0.004148922
-2.967582	<s> と/助詞/*	-0.2278321
-3.656399	<s> とか/助詞/*
-3.656399	<s> として/助詞/*
-3.656399	<s> どう/副詞/*
-2.795802	<s> どこ/名詞/*	-0.0600013
-3.656399	<s> どっか/名詞/*
-2.967582	<s> どっち/名詞/*
-3.656399	<s> どの/連体詞/*
-3.656399	<s> どれ/名詞/*
-3.656399	<s> なあ/助詞/*
-2.967582	<s> ない/形容詞/形容詞・アウオ段
-3.656399	<s> なかなか/副詞/*
-2.967582	<s> なっ/動詞/五段・ラ行	0.1294582
-3.656399	<s> なに/名詞/*
-3.656399	<s> なるほど/感動詞/*
-2.334492	<s> なん/名詞/*	-0.1030644
-1.560854	<s> なんか/フィラー/*	-0.02884456
-2.582595	<s> なんで/副詞/*	-0.02721467
-3.656399	<s> なー/助詞/*
-3.656399	<s> ね/助詞/*
-3.656399	<s> ねぇ/助詞/*
-3.656399	<s> ねー/助詞/*
-3.656399	<s> の/助詞/*
-2.334492	<s> はい/感動詞/*	-0.01142082
-3.656399	<s> はー/感動詞/*
-3.656399	<s> へ/助詞/*
-3.656399	<s> へえ/感動詞/*
-3.656399	<s> へー/感動詞/*
-3.656399	<s> ほんで/接続詞/*
-2.967582	<s> ほんと/感動詞/*
-3.656399	<s> ほんとに/副詞/*
-2.582595	<s> ほんま/副詞/*	0.4629539
-2.967582	<s> ほんまに/副詞/*
-3.656399	<s> ま/感動詞/*
-3.656399	<s> まぁ/感動詞/*
-1.625312	<s> まあ/フィラー/*	0.03100737
-2.967582	<s> また/接続詞/*
-3.656399	<s> まとめ/動詞/一段
-2.253359	<s> みんな/名詞/*
-3.656399	<s> むしろ/副詞/*
-3.656399	<s> むっちゃ/副詞/*
-2.023252	<s> めっちゃ/副詞/*
-3.656399	<s> も/助詞/*
-2.023252	<s> もう/副詞/*
-3.656399	<s> もうすぐ/副詞/*
-3.656399	<s> もっさく/形容詞/形容詞・アウオ段
-3.656399	<s> もっと/副詞/*
-2.334552	<s> や/助動詞/特殊・ヤ	-0.03049755
-3.656399	<s> やっ/動詞/五段・ラ行
-2.967582	<s> やっぱ/副詞/*
-2.334552	<s> やばい/形容詞/形容詞・アウオ段	-0.01000815
-3.656399	<s> やばく/形容詞/形容詞・アウオ段
-3.656399	<s> やべー/感動詞/*
-3.656399	<s> やめ/動詞/一段
-3.656399	<s> やろ/助動詞/特殊・ヤ
-3.656399	<s> やん/助動詞/特殊・ヤ
-3.656399	<s> ゆうこ/名詞/*
-3.656399	<s> ゆっ/動詞/五段・ワ行促音便
-3.656399	<s> ゆっくり/副詞/*
-2.967582	<s> よ/助詞/*	-0.2244159
-3.656399	<s> よく/形容詞/形容詞・アウオ段
-2.967582	<s> わから/動詞/五段・ラ行
-3.656399	<s> わり/名詞/*
-3.656399	<s> んー/フィラー/*
-3.656399	<s> アイ/感動詞/*
-3.656399	<s> アウトゴーイング/名詞/*
-3.656399	<s> アクターズ/名詞/*
-3.656399	<s> アメ/名詞/*
-3.656399	<s> イグ/名詞/*
-3.656399	<s> イケメン/名詞/*
-3.656399	<s> イッチー/名詞/*
-3.656399	<s> インド/名詞/*
-3.656399	<s> ガチ/名詞/*
-3.656399	<s> ガンジス/名詞/*
-2.967582	<s> ケント/名詞/*
-3.656399	<s> コナミ/名詞/*
-2.967582	<s> ゴキブリ/名詞/*
-3.656399	<s> ザ/名詞/*
-3.656399	<s> ショパン/名詞/*
-2.967582	<s> ジブリアニメ/名詞/*	0.1141481
-3.656399	<s> ジャズ/名詞/*
-3.656399	<s> スペイン/名詞/*
-2.967582	<s> センス/名詞/*	0.1141481
-2.334492	<s> タイプ/名詞/*
-3.656399	<s> ダンス/名詞/*
-3.656399	<s> チョンて/副詞/*
-3.656399	<s> テロンアイランド/名詞/*
-3.656399	<s> トイレ/名詞/*
-2.582595	<s> トゥシューズ/名詞/*	-0.1232844
-3.656399	<s> ドストライク/名詞/*
-3.656399	<s> ドンフレ/名詞/*
-3.656399	<s> ドーン/副詞/*
-3.656399	<s> ニロ/名詞/*
-3.656399	<s> ノリ/名詞/*
-3.656399	<s> ハッシー/名詞/*
-2.967582	<s> バイト/名詞/*
-2.967582	<s> バレエ/名詞/*
-3.656399	<s> バレエシューズ/名詞/*
-2.967582	<s> ピアノ/名詞/*
-3.656399	<s> ピュア/名詞/*
-3.656399	<s> プライド/名詞/*
-3.656399	<s> プラス/名詞/*
-3.656399	<s> プラスアルファ/名詞/*
-3.656399	<s> ベスト/名詞/*
-3.656399	<s> ボロボロ/名詞/*
-2.967582	<s> ポルトガル/名詞/*	0.1141481
-3.656399	<s> マイミク/名詞/*
-3.656399	<s> マスコミ/名詞/*
-3.656399	<s> メキシコ/名詞/*
-3.656399	<s> ラコス/名詞/*
-3.656399	<s> リアリー/感動詞/*
-3.656399	<s> リュック/名詞/*
-3.656399	<s> ルカワ/名詞/*
-3.656399	<s> レッスン/名詞/*
-3.656399	<s> ロッククライミング/名詞/*
-3.656399	<s> ワルツ/名詞/*
-3.656399	<s> 一/名詞/*
-2.795802	<s> 一人/名詞/*
-3.656399	<s> 一応/副詞/*
-2.967582	<s> 一番/名詞/*
-3.656399	<s> 一緒/名詞/*
-2.795802	<s> 三/名詞/*
-2.967582	<s> 上が原/名詞/*
-3.656399	<s> 世の中/名詞/*
-3.656399	<s> 世界/名詞/*
-3.656399	<s> 中間/名詞/*
-2.967582	<s> 二/名詞/*
-3.656399	<s> 人/名詞/*
-3.656399	<s> 人生/名詞/*
-3.656399	<s> 人見知り/名詞/*
-2.334492	<s> 今/名詞/*
-2.967582	<s> 今に/副詞/*
-3.656399	<s> 今まで/副詞/*
-3.656399	<s> 今年/名詞/*
-3.656399	<s> 今後/副詞/*
-2.967582	<s> 今日/名詞/*
-3.656399	<s> 仕事/名詞/*
-3.656399	<s> 以上/名詞/*
-3.656399	<s> 以外/名詞/*
-3.656399	<s> 仲/名詞/*
-3.656399	<s> 伊丹/名詞/*
-3.656399	<s> 会う/動詞/五段・ワ行促音便
-1.98186	<s> 何/名詞/*	-0.02489733
-3.656399	<s> 何で/副詞/*
-3.656399	<s> 使える/動詞/一段
-3.656399	<s> 例/名詞/*
-3.656399	<s> 例えば/接続詞/*
-3.656399	<s> 優しい/形容詞/形容詞・イ段
-3.656399	<s> 先生/名詞/*
-3.656399	<s> 先週/名詞/*
-3.656399	<s> 入っ/動詞/五段・ラ行
-3.656399	<s> 入る/動詞/五段・ラ行
-3.656399	<s> 全く/副詞/*
-3.656399	<s> 全て/名詞/*
-3.656399	<s> 全体/名詞/*
-2.023252	<s> 全然/副詞/*
-3.656399	<s> 冬/名詞/*
-3.656399	<s> 分から/動詞/五段・ラ行
-2.795802	<s> 別に/副詞/*
-3.656399	<s> 別れ/動詞/一段
-3.656399	<s> 勝手/名詞/*
-3.656399	<s> 原因/名詞/*
-2.795802	<s> 友達/名詞/*
-3.656399	<s> 唇/名詞/*
-3.656399	<s> 喋ろ/動詞/五段・ラ行
-3.656399	<s> 噛ま/動詞/五段・マ行
-2.967582	<s> 四/名詞/*
-3.656399	<s> 四月/名詞/*
-3.656399	<s> 地味/名詞/*
-3.656399	<s> 地球/名詞/*
-3.656399	<s> 基本/名詞/*
-2.582595	<s> 塩/名詞/*	0.412022
-3.656399	<s> 声変わり/名詞/*
-3.656399	<s> 変/名詞/*
-2.334552	<s> 多分/副詞/*	0.1300192
-3.656399	<s> 大っ/接頭詞/*
-2.967582	<s> 大丈夫/名詞/*
-3.656399	<s> 大事/名詞/*
-3.656399	<s> 大人/名詞/*
-3.656399	<s> 大変/名詞/*
-3.656399	<s> 大自然/名詞/*
-3.656399	<s> 女/名詞/*
-2.120162	<s> 好き/名詞/*	-0.6283889
-2.967582	<s> 嫌い/名詞/*
-2.967582	<s> 学校/名詞/*
-3.656399	<s> 学生/名詞/*
-2.795802	<s> 孫/名詞/*
-3.656399	<s> 宇宙/名詞/*
-2.795802	<s> 安室/名詞/*	0.08790343
-3.656399	<s> 実家/名詞/*
-3.656399	<s> 小池/名詞/*
-2.967582	<s> 小１/名詞/*
-3.656399	<s> 小２/名詞/*
-3.656399	<s> 小３/名詞/*
-3.656399	<s> 少なく/形容詞/形容詞・アウオ段
-3.656399	<s> 山口/名詞/*
-3.656399	<s> 島/名詞/*
-3.656399	<s> 年下/名詞/*
-3.656399	<s> 年齢/名詞/*
-3.656399	<s> 延長線/名詞/*
-3.656399	<s> 弾け/動詞/一段
-2.967582	<s> 後/名詞/*	-0.0438993
-3.656399	<s> 忘れ/動詞/一段
-3.656399	<s> 怖い/形容詞/形容詞・アウオ段
-3.656399	<s> 性格/名詞/*
-3.656399	<s> 惹か/動詞/五段・カ行イ音便
-3.656399	<s> 意外/名詞/*
-3.656399	<s> 手/接頭詞/*
-3.656399	<s> 手芸/名詞/*
-3.656399	<s> 才色兼備/名詞/*
-3.656399	<s> 批判的/名詞/*
-3.656399	<s> 持っ/動詞/五段・タ行
-2.967582	<s> 捏ね/動詞/一段	-0.0438993
-3.656399	<s> 政治/名詞/*
-3.656399	<s> 料理/名詞/*
-3.656399	<s> 新聞/名詞/*
-2.795802	<s> 日本/名詞/*	-0.00502255
-3.656399	<s> 日本語/名詞/*
-3.656399	<s> 旦那/名詞/*
-3.656399	<s> 早い/形容詞/形容詞・アウオ段
-2.582595	<s> 昔/名詞/*
-2.582595	<s> 普通/名詞/*	0.6221523
-3.656399	<s> 書き初め/名詞/*
-2.967582	<s> 最終/名詞/*	0.1085346
-2.795802	<s> 最近/名詞/*
-3.656399	<s> 本当に/副詞/*
-3.656399	<s> 来/動詞/カ変・来ル
-3.656399	<s> 松田/名詞/*
-3.656399	<s> 森山/名詞/*
-3.656399	<s> 次/接頭詞/*
-3.656399	<s> 次に/接続詞/*
-3.656399	<s> 正味/副詞/*
-3.656399	<s> 武道/名詞/*
-2.582595	<s> 死ぬ/動詞/五段・ナ行	-0.01629892
-3.656399	<s> 死ん/動詞/五段・ナ行
-2.967582	<s> 残念/名詞/*
-3.656399	<s> 段/名詞/*
-3.656399	<s> 母親/名詞/*
-3.656399	<s> 気/名詞/*
-3.656399	<s> 気まずい/形容詞/形容詞・アウオ段
-3.656399	<s> 水泳/名詞/*
-3.656399	<s> 洞窟/名詞/*
-3.656399	<s> 津山/名詞/*
-3.656399	<s> 派手/名詞/*
-2.967582	<s> 流星/名詞/*	0.1141481
-3.656399	<s> 消え/動詞/一段
-3.656399	<s> 深い/形容詞/形容詞・アウオ段
-3.656399	<s> 深く/形容詞/形容詞・アウオ段
-3.656399	<s> 灰色/名詞/*
-3.656399	<s> 炒め/動詞/一段
-3.656399	<s> 無理/名詞/*
-3.656399	<s> 無難/名詞/*
-3.656399	<s> 熱愛/名詞/*
-3.656399	<s> 爪先/名詞/*
-3.656399	<s> 片足/名詞/*
-3.656399	<s> 珍しく/形容詞/形容詞・イ段
-3.656399	<s> 理由/名詞/*
-3.656399	<s> 生活/名詞/*
-2.967582	<s> 男/名詞/*	-0.10725
-3.656399	<s> 病院/名詞/*
-3.656399	<s> 痛い/形容詞/形容詞・アウオ段
-3.656399	<s> 白く/形容詞/形容詞・アウオ段
-3.656399	<s> 百/名詞/*
-2.967582	<s> 相手/名詞/*
-3.656399	<s> 知っ/動詞/五段・ラ行
-3.656399	<s> 知ら/動詞/五段・ラ行
-3.656399	<s> 知り/動詞/五段・ラ行
-3.656399	<s> 知り合い/動詞/五段・ワ行促音便
-2.795802	<s> 確かに/感動詞/*	0.151235
-3.656399	<s> 神/名詞/*
-2.334552	<s> 私/名詞/*	0.02157488
-3.656399	<s> 突然/副詞/*
-2.967582	<s> 粉/名詞/*
-3.656399	<s> 経済/名詞/*
-2.967582	<s> 結婚/名詞/*
-2.967582	<s> 結構/副詞/*
-3.656399	<s> 絵画/名詞/*
-2.253359	<s> 絶対/副詞/*
-3.656399	<s> 練習/名詞/*
-3.656399	<s> 習い事/名詞/*
-2.795802	<s> 習字/名詞/*	-0.0600013
-2.967582	<s> 背/名詞/*
-3.656399	<s> 脱い/動詞/五段・ガ行
-3.656399	<s> 自制心/名詞/*
-3.656399	<s> 自立/名詞/*
-3.656399	<s> 興味/名詞/*
-3.656399	<s> 色白/名詞/*
-2.967582	<s> 若い/形容詞/形容詞・アウオ段
-3.656399	<s> 若く/動詞/五段・カ行イ音便
-2.334552	<s> 英語/名詞/*	-0.02890919
-2.967582	<s> 蒲焼き/名詞/*
-3.656399	<s> 行っ/動詞/五段・カ行促音便
-3.656399	<s> 西北/名詞/*
-3.656399	<s> 要る/動詞/五段・ラ行
-2.582595	<s> 見/動詞/一段
-3.656399	<s> 見る/動詞/一段
-3.656399	<s> 覚え/動詞/一段
-3.656399	<s> 親/名詞/*
-3.656399	<s> 解散/名詞/*
-3.656399	<s> 言わ/動詞/五段・ワ行促音便
-3.656399	<s> 言語/名詞/*
-3.656399	<s> 読売新聞/名詞/*
-2.967582	<s> 誰/名詞/*	-0.0438993
-3.656399	<s> 豆/名詞/*
-3.656399	<s> 超/接頭詞/*
-3.656399	<s> 趣味/名詞/*
-3.656399	<s> 逆に/接続詞/*
-3.656399	<s> 週/接頭詞/*
-3.656399	<s> 道徳/名詞/*
-2.967582	<s> 違う/動詞/五段・ワ行促音便
-3.656399	<s> 遠い/形容詞/形容詞・アウオ段
-3.656399	<s> 部活/名詞/*
-3.656399	<s> 醤油/名詞/*
-3.656399	<s> 間/名詞/*
-3.656399	<s> 間違え/動詞/一段
-3.656399	<s> 関学/名詞/*
-3.656399	<s> 闘わ/動詞/五段・ワ行促音便
-3.656399	<s> 陶芸/名詞/*
-3.656399	<s> 雰囲気/名詞/*
-3.656399	<s> 青井/名詞/*
-3.656399	<s> 韓/名詞/*
-2.967582	<s> 韓国/名詞/*	-0.1387341
-2.967582	<s> 韓流/名詞/*
-3.656399	<s> 頑張っ/動詞/五段・ラ行
-3.656399	<s> 頭/名詞/*
-3.656399	<s> 顔/名詞/*
-3.656399	<s> 類/名詞/*
-2.795802	<s> 風邪/名詞/*
-3.656399	<s> 食べ/動詞/一段
-3.656399	<s> 食堂/名詞/*
-3.656399	<s> 高校/名詞/*
-3.656399	<s> 髪の毛/名詞/*
-3.656399	<s> 髪形/名詞/*
-3.656399	<s> 鮭/名詞/*
-3.656399	<s> 鶴/名詞/*
-3.656399	<s> 黒/名詞/*
-3.656399	<s> 黒め/動詞/一段
-0.934176	Anything/英語/* OK/英語/*
-0.934176	Anything/英語/* ok/英語/*
-0.633146	B/名詞/* 系/名詞/*
-0.633146	BUMPOFCHICKEN/名詞/* の/助詞/*
-0.633146	Berber/英語/* 来/動詞/カ変・来ル
-0.633146	EC/名詞/* の/助詞/*
-0.633146	Give/英語/* 、/記号/*
-0.633146	Justin/英語/* Berber/英語/*
-0.633146	ML/名詞/* 来/動詞/カ変・来ル
-0.633146	NANA/名詞/* 二/名詞/*
-0.633146	OK/英語/* ？/記号/*
-1.411297	OPA/名詞/* か/助詞/*
-0.7224804	OPA/名詞/* より/助詞/*
-0.7224804	OPA/名詞/* を/助詞/*	-0.1970747
-1.411297	OPA/名詞/* 側/名詞/*
-0.633146	Of/英語/* course/英語/*
-0.633146	SS/名詞/* だけ/助詞/*
-0.934176	Soy/英語/* </s>
-0.934176	Soy/英語/* 。/記号/*
-0.633146	THANK/英語/* YOU/英語/*
-0.633146	Tシャツ/名詞/* とか/助詞/*
-0.934176	YEAH/英語/* </s>
-0.934176	YEAH/英語/* ！/記号/*
-0.633146	YES/英語/* </s>
-0.633146	YOU/英語/* </s>
-0.633146	another/英語/* question/英語/*
-0.633146	course/英語/* 。/記号/*
-0.633146	give/英語/* me/英語/*
-0.633146	me/英語/* another/英語/*
-0.633146	ok/英語/* 。/記号/*
-0.633146	question/英語/* 。/記号/*
-0.633146	yeah/英語/* 。/記号/*
-3.273628	、/記号/* </s>
-2.584811	、/記号/* OPA/名詞/*
-3.273628	、/記号/* give/英語/*
-3.273628	、/記号/* 「/記号/*
-3.273628	、/記号/* あ/フィラー/*
-2.413031	、/記号/* あ/感動詞/*	0.1080524
-3.273628	、/記号/* あえ/動詞/一段
-3.273628	、/記号/* あそこ/名詞/*
-3.273628	、/記号/* あたし/名詞/*
-3.273628	、/記号/* あっこ/名詞/*
-2.584811	、/記号/* あっち/名詞/*
-2.413031	、/記号/* あと/名詞/*
-3.273628	、/記号/* あなた/名詞/*
-3.273628	、/記号/* あの/フィラー/*
-2.413031	、/記号/* あの/連体詞/*
-3.273628	、/記号/* あれ/名詞/*
-3.273628	、/記号/* あんな/連体詞/*
-3.273628	、/記号/* あんま/副詞/*
-3.273628	、/記号/* あんまり/副詞/*
-3.273628	、/記号/* い/動詞/一段
-2.413031	、/記号/* いい/形容詞/形容詞・イイ
-3.273628	、/記号/* いっつも/副詞/*
-3.273628	、/記号/* いや/感動詞/*
-2.199824	、/記号/* うち/名詞/*	0.02156975
-3.273628	、/記号/* うわ/感動詞/*
-3.273628	、/記号/* うん/フィラー/*
-3.273628	、/記号/* えー/フィラー/*
-3.273628	、/記号/* おじいちゃん/名詞/*
-3.273628	、/記号/* おる/動詞/五段・ラ行
-3.273628	、/記号/* お稽古/名詞/*
-3.273628	、/記号/* お金/名詞/*
-2.584811	、/記号/* か/助詞/*
-3.273628	、/記号/* こう/副詞/*
-2.199824	、/記号/* ここ/名詞/*
-2.584811	、/記号/* こっち/名詞/*
-3.273628	、/記号/* この/連体詞/*
-3.273628	、/記号/* これ/名詞/*
-3.273628	、/記号/* ごめん/感動詞/*
-3.273628	、/記号/* ご飯/名詞/*
-3.273628	、/記号/* さすが/副詞/*
-3.273628	、/記号/* したら/接続詞/*
-3.273628	、/記号/* しゃあない/形容詞/形容詞・アウオ段
-3.273628	、/記号/* しゃけ/名詞/*
-3.273628	、/記号/* しょうゆ/名詞/*
-2.584811	、/記号/* しんどい/形容詞/形容詞・アウオ段
-3.273628	、/記号/* じゃ/接続詞/*
-2.584811	、/記号/* じゃあ/接続詞/*
-3.273628	、/記号/* する/動詞/サ変・スル
-3.273628	、/記号/* せ/副詞/*
-2.584811	、/記号/* そう/副詞/*
-2.413031	、/記号/* そういう/連体詞/*
-3.273628	、/記号/* そういえば/接続詞/*
-1.951721	、/記号/* そこ/名詞/*
-3.273628	、/記号/* そこで/接続詞/*
-1.870588	、/記号/* その/連体詞/*	-0.01537926
-1.870588	、/記号/* それ/名詞/*
-3.273628	、/記号/* それからも/接続詞/*
-3.273628	、/記号/* そんな/連体詞/*
-3.273628	、/記号/* そんなに/副詞/*
-2.584811	、/記号/* そんなん/名詞/*
-3.273628	、/記号/* たしなむ/動詞/五段・マ行
-3.273628	、/記号/* ただ/接続詞/*
-2.413031	、/記号/* だから/接続詞/*
-3.273628	、/記号/* だって/接続詞/*
-2.584811	、/記号/* ちょっと/副詞/*
-3.273628	、/記号/* って/助詞/*
-2.584811	、/記号/* て/助詞/*	-0.2482347
-1.870588	、/記号/* で/接続詞/*	0.3752823
-3.273628	、/記号/* できる/動詞/一段
-3.273628	、/記号/* でっち上げ/名詞/*
-1.737391	、/記号/* でも/接続詞/*
-3.273628	、/記号/* と/フィラー/*
-3.273628	、/記号/* と/助詞/*
-3.273628	、/記号/* とりあえず/副詞/*
-3.273628	、/記号/* どう/副詞/*
-3.273628	、/記号/* どうにか/副詞/*
-2.413031	、/記号/* どこ/名詞/*
-3.273628	、/記号/* どちら/名詞/*
-3.273628	、/記号/* どっち/名詞/*
-3.273628	、/記号/* な/助詞/*
-3.273628	、/記号/* なに/名詞/*
-2.584811	、/記号/* なん/名詞/*
-1.686239	、/記号/* なんか/フィラー/*	-0.03148239
-3.273628	、/記号/* なんだかんだ/副詞/*
-3.273628	、/記号/* のん/名詞/*
-3.273628	、/記号/* ぱって/副詞/*
-3.273628	、/記号/* びっくり/名詞/*
-3.273628	、/記号/* ほんまに/副詞/*
-3.273628	、/記号/* ま/フィラー/*
-1.951781	、/記号/* まぁ/感動詞/*
-1.640481	、/記号/* まあ/フィラー/*
-3.273628	、/記号/* まず/副詞/*
-3.273628	、/記号/* また/接続詞/*
-2.584811	、/記号/* みたい/名詞/*	0.0687604
-2.413031	、/記号/* みんな/名詞/*
-2.584811	、/記号/* むしろ/副詞/*
-3.273628	、/記号/* むっちゃ/副詞/*
-2.413031	、/記号/* めっちゃ/副詞/*
-3.273628	、/記号/* も/助詞/*
-1.951721	、/記号/* もう/副詞/*
-2.413031	、/記号/* やっ/動詞/五段・ラ行	0.188593
-3.273628	、/記号/* やっす/形容詞/形容詞・アウオ段
-1.951721	、/記号/* やっぱ/副詞/*
-3.273628	、/記号/* やん/助動詞/特殊・ヤ
-3.273628	、/記号/* よかっ/形容詞/形容詞・アウオ段
-3.273628	、/記号/* わざわざ/副詞/*
-3.273628	、/記号/* を/助詞/*
-2.584811	、/記号/* んー/フィラー/*
-3.273628	、/記号/* アイアムカルロス/感動詞/*
-3.273628	、/記号/* アナザークエスチョン/感動詞/*
-3.273628	、/記号/* イッチー/名詞/*
-2.584811	、/記号/* オーストラリア/名詞/*
-3.273628	、/記号/* キムヒキム・ヒョンジュン/名詞/*
-3.273628	、/記号/* ケント/名詞/*
-3.273628	、/記号/* コナミ/名詞/*
-3.273628	、/記号/* サークル/名詞/*
-3.273628	、/記号/* ザ/名詞/*
-3.273628	、/記号/* スペイン/名詞/*
-3.273628	、/記号/* タカラヅカ/名詞/*
-3.273628	、/記号/* ダンス/名詞/*
-3.273628	、/記号/* テレビ/名詞/*
-3.273628	、/記号/* ディレクター/名詞/*
-3.273628	、/記号/* トイレ/名詞/*
-3.273628	、/記号/* バイト/名詞/*
-2.413031	、/記号/* バレエ/名詞/*
-3.273628	、/記号/* バレリーナ/名詞/*
-2.413031	、/記号/* ピアノ/名詞/*
-3.273628	、/記号/* ブランコ/名詞/*
-3.273628	、/記号/* プロ/名詞/*
-3.273628	、/記号/* ホゼ/名詞/*
-3.273628	、/記号/* ボランティア/名詞/*
-3.273628	、/記号/* ボリボリ/副詞/*
-3.273628	、/記号/* ポン/名詞/*
-3.273628	、/記号/* マスコミ/名詞/*
-3.273628	、/記号/* ミカン/名詞/*
-3.273628	、/記号/* メディア/名詞/*
-3.273628	、/記号/* メロン/名詞/*
-3.273628	、/記号/* リハーサル/名詞/*
-3.273628	、/記号/* ルイ/名詞/*
-3.273628	、/記号/* ロッククライミング/名詞/*
-3.273628	、/記号/* 一/名詞/*
-3.273628	、/記号/* 一人/名詞/*
-3.273628	、/記号/* 一応/副詞/*
-2.413031	、/記号/* 三/名詞/*
-2.584811	、/記号/* 三つ/名詞/*	0.1141481
-3.273628	、/記号/* 三田/名詞/*
-3.273628	、/記号/* 上が原/名詞/*
-3.273628	、/記号/* 不思議/名詞/*
-3.273628	、/記号/* 世間/名詞/*
-3.273628	、/記号/* 世間体/名詞/*
-3.273628	、/記号/* 中国/名詞/*
-3.273628	、/記号/* 中学/名詞/*
-3.273628	、/記号/* 中学校/名詞/*
-3.273628	、/記号/* 二/名詞/*
-3.273628	、/記号/* 人/名詞/*
-3.273628	、/記号/* 人間/名詞/*
-2.413031	、/記号/* 今/名詞/*
-2.584811	、/記号/* 今まで/副詞/*
-3.273628	、/記号/* 仲良かっ/形容詞/形容詞・アウオ段
-2.584811	、/記号/* 伊丹/名詞/*
-3.273628	、/記号/* 体/名詞/*
-2.584811	、/記号/* 何/名詞/*	-0.2313373
-3.273628	、/記号/* 優遇/名詞/*
-3.273628	、/記号/* 先生/名詞/*
-3.273628	、/記号/* 入っ/動詞/五段・ラ行
-1.737391	、/記号/* 全然/副詞/*
-2.413031	、/記号/* 全部/名詞/*
-2.413031	、/記号/* 公立/名詞/*
-2.199824	、/記号/* 別に/副詞/*
-2.584811	、/記号/* 勉強/名詞/*
-3.273628	、/記号/* 十/名詞/*
-3.273628	、/記号/* 半分/名詞/*
-3.273628	、/記号/* 協力/名詞/*
-3.273628	、/記号/* 友達/名詞/*
-2.584811	、/記号/* 右側/名詞/*	0.1141481
-3.273628	、/記号/* 合コン/名詞/*
-3.273628	、/記号/* 同じ/連体詞/*
-2.413031	、/記号/* 四/名詞/*
-3.273628	、/記号/* 図書館/名詞/*
-3.273628	、/記号/* 国/名詞/*
-3.273628	、/記号/* 国外/名詞/*
-3.273628	、/記号/* 地球/名詞/*
-2.584811	、/記号/* 基本/名詞/*
-3.273628	、/記号/* 壁/名詞/*
-2.413031	、/記号/* 多分/副詞/*	-0.09196778
-3.273628	、/記号/* 大/名詞/*
-2.199824	、/記号/* 大学/名詞/*	0.03597803
-3.273628	、/記号/* 太郎/名詞/*
-3.273628	、/記号/* 女/名詞/*
-3.273628	、/記号/* 好き/名詞/*
-3.273628	、/記号/* 嫌/名詞/*
-3.273628	、/記号/* 存在/名詞/*
-3.273628	、/記号/* 学問/名詞/*
-3.273628	、/記号/* 孫/名詞/*
-3.273628	、/記号/* 宇宙/名詞/*
-3.273628	、/記号/* 実行/名詞/*
-3.273628	、/記号/* 将来/名詞/*
-3.273628	、/記号/* 巨峰/名詞/*
-2.584811	、/記号/* 幼稚園/名詞/*
-3.273628	、/記号/* 彼氏/名詞/*
-3.273628	、/記号/* 後輩/名詞/*
-3.273628	、/記号/* 御堂/名詞/*
-3.273628	、/記号/* 心斎橋/名詞/*
-3.273628	、/記号/* 忍耐/名詞/*
-3.273628	、/記号/* 忘れ/動詞/一段
-3.273628	、/記号/* 怖い/形容詞/形容詞・アウオ段
-3.273628	、/記号/* 思っ/動詞/五段・ワ行促音便
-3.273628	、/記号/* 恐れ/動詞/一段
-3.273628	、/記号/* 恥ずかしい/形容詞/形容詞・イ段
-3.273628	、/記号/* 意外/名詞/*
-3.273628	、/記号/* 成長/名詞/*
-3.273628	、/記号/* 戦う/動詞/五段・ワ行促音便
-2.584811	、/記号/* 才能/名詞/*
-3.273628	、/記号/* 政治/名詞/*
-3.273628	、/記号/* 新聞/名詞/*
-3.273628	、/記号/* 旅行/名詞/*
-3.273628	、/記号/* 日本語/名詞/*
-3.273628	、/記号/* 昇格/名詞/*
-3.273628	、/記号/* 明子/名詞/*
-3.273628	、/記号/* 昔/名詞/*
-3.273628	、/記号/* 昨日/名詞/*
-1.951721	、/記号/* 普通/名詞/*	0.08715019
-3.273628	、/記号/* 最終/名詞/*
-3.273628	、/記号/* 月謝/名詞/*
-3.273628	、/記号/* 柿/名詞/*
-3.273628	、/記号/* 桃/名詞/*
-3.273628	、/記号/* 楽しかっ/形容詞/形容詞・イ段
-3.273628	、/記号/* 歌/名詞/*
-3.273628	、/記号/* 歌謡曲/名詞/*
-3.273628	、/記号/* 死ぬ/動詞/五段・ナ行
-3.273628	、/記号/* 殺さ/動詞/五段・サ行
-3.273628	、/記号/* 母親/名詞/*
-3.273628	、/記号/* 水泳/名詞/*
-3.273628	、/記号/* 求め/動詞/一段
-3.273628	、/記号/* 浮気/名詞/*
-3.273628	、/記号/* 深く/形容詞/形容詞・アウオ段
-2.584811	、/記号/* 漢字/名詞/*
-3.273628	、/記号/* 無い/助動詞/形容詞・イ段
-3.273628	、/記号/* 片道/名詞/*
-3.273628	、/記号/* 生まれ/動詞/一段
-3.273628	、/記号/* 疑っ/動詞/五段・ラ行
-3.273628	、/記号/* 的/名詞/*
-3.273628	、/記号/* 直進/名詞/*
-3.273628	、/記号/* 相手/名詞/*
-3.273628	、/記号/* 知ら/動詞/五段・ラ行
-3.273628	、/記号/* 知り/動詞/五段・ラ行
-2.584811	、/記号/* 確か/名詞/*	0.1141481
-3.273628	、/記号/* 確かに/感動詞/*
-3.273628	、/記号/* 神/名詞/*
-3.273628	、/記号/* 私/名詞/*
-3.273628	、/記号/* 答え/動詞/一段
-3.273628	、/記号/* 経済/名詞/*
-2.584811	、/記号/* 結構/副詞/*
-3.273628	、/記号/* 習い事/名詞/*
-3.273628	、/記号/* 習字/名詞/*
-3.273628	、/記号/* 聞い/動詞/五段・カ行イ音便
-2.413031	、/記号/* 自分/名詞/*
-2.584811	、/記号/* 英語/名詞/*
-3.273628	、/記号/* 茶色/名詞/*
-3.273628	、/記号/* 行き/動詞/五段・カ行促音便
-3.273628	、/記号/* 衣装/名詞/*
-3.273628	、/記号/* 見/動詞/一段
-3.273628	、/記号/* 語/名詞/*
-3.273628	、/記号/* 語彙/名詞/*
-3.273628	、/記号/* 走っ/動詞/五段・ラ行
-3.273628	、/記号/* 趣味/名詞/*
-3.273628	、/記号/* 身近/名詞/*
-3.273628	、/記号/* 逆/名詞/*
-3.273628	、/記号/* 週/名詞/*
-2.584811	、/記号/* 遊び/動詞/五段・バ行	0.1141481
-3.273628	、/記号/* 遊ん/動詞/五段・バ行
-3.273628	、/記号/* 運動/名詞/*
-3.273628	、/記号/* 道/名詞/*
-3.273628	、/記号/* 違う/動詞/五段・ワ行促音便
-3.273628	、/記号/* 違う/感動詞/*
-3.273628	、/記号/* 金/名詞/*
-3.273628	、/記号/* 間違っ/動詞/五段・ワ行促音便
-3.273628	、/記号/* 関学/名詞/*
-3.273628	、/記号/* 陶芸/名詞/*
-3.273628	、/記号/* 青/名詞/*
-3.273628	、/記号/* 韓/名詞/*
-3.273628	、/記号/* 韓国/名詞/*
-3.273628	、/記号/* 顔/名詞/*
-3.273628	、/記号/* 食べる/動詞/一段
-3.273628	、/記号/* 食堂/名詞/*
-3.273628	、/記号/* 高校/名詞/*
-3.273628	、/記号/* 髪/名詞/*
-3.273628	、/記号/* 髪形/名詞/*
-0.0004838936	。/記号/* </s>
-3.586422	。/記号/* 求め/動詞/一段
-1.674539	「/記号/* あ/感動詞/*
-1.674539	「/記号/* ありがとう/感動詞/*
-1.674539	「/記号/* あー/フィラー/*
-1.674539	「/記号/* えみ/名詞/*
-1.674539	「/記号/* どこ/名詞/*
-0.8139424	「/記号/* なんで/副詞/*
-1.674539	「/記号/* んー/フィラー/*
-1.674539	「/記号/* ヤクソン/名詞/*
-1.674539	「/記号/* 三田/名詞/*
-0.6007351	」/記号/* って/助詞/*
-1.674539	」/記号/* て/助詞/*
-1.674539	」/記号/* で/接続詞/*
-0.3526324	」/記号/* みたい/名詞/*	0.1203264
-0.633146	あ/フィラー/* １月/名詞/*
-0.3484547	あ/感動詞/* 、/記号/*
-2.095544	あ/感動詞/* 。/記号/*
-0.6925048	あ/感動詞/* そう/副詞/*	-0.8361432
-2.095544	あ/感動詞/* ほんまに/副詞/*
-2.095544	あ/感動詞/* キョーコ/名詞/*
-2.095544	あ/感動詞/* 今/名詞/*
-2.095544	あ/感動詞/* 今日/名詞/*
-1.406727	あ/感動詞/* 確かに/感動詞/*	0.2686563
-2.095544	あ/感動詞/* 見/動詞/一段
-2.095544	あ/感動詞/* 逆/接頭詞/*
-1.110267	ああ/感動詞/* 、/記号/*
-1.110267	ああ/感動詞/* そう/副詞/*
-1.110267	ああ/感動詞/* って/助詞/*
-0.633146	ああゆう/連体詞/* 顔/名詞/*
-0.633146	あえ/動詞/一段 て/助詞/*
-0.934176	あえて/副詞/* もう/副詞/*
-0.934176	あえて/副詞/* 言う/動詞/五段・ワ行促音便
-0.2496709	あか/動詞/五段・カ行イ音便 ん/助動詞/特殊・ナイ
-0.633146	あくまでも/副詞/* 理想/名詞/*
-0.633146	あげ/動詞/一段 た/助動詞/特殊・タ
-0.4715197	あそこ/名詞/* に/助詞/*
-1.332116	あそこ/名詞/* の/助詞/*
-1.332116	あそこ/名詞/* まで/助詞/*
-0.8517309	あたし/名詞/* 。/記号/*	2.585102
-1.712327	あたし/名詞/* それ/名詞/*
-1.712327	あたし/名詞/* って/助詞/*
-1.02351	あたし/名詞/* は/助詞/*	-0.1832575
-1.712327	あたし/名詞/* ほとんど/副詞/*
-1.02351	あたし/名詞/* も/助詞/*
-1.712327	あたし/名詞/* ら/名詞/*
-1.712327	あたし/名詞/* 塩/名詞/*
-0.633146	あたり/名詞/* が/助詞/*
-0.6176477	あっ/動詞/五段・ラ行 た/助動詞/特殊・タ
-0.4044404	あっ/動詞/五段・ラ行 て/助詞/*	-0.1808867
-0.633146	あっこ/名詞/* の/助詞/*
-1.411297	あっち/名詞/* が/助詞/*
-1.411297	あっち/名詞/* に/助詞/*
-0.7224804	あっち/名詞/* の/助詞/*
-1.411297	あっち/名詞/* も/助詞/*
-1.411297	あっち/名詞/* 側/名詞/*
-0.7634624	あと/名詞/* 、/記号/*
-1.837266	あと/名詞/* そんな/連体詞/*
-1.837266	あと/名詞/* だれ/名詞/*
-1.837266	あと/名詞/* な/助動詞/特殊・ダ
-1.837266	あと/名詞/* なに/名詞/*
-0.7634624	あと/名詞/* は/助詞/*
-1.837266	あと/名詞/* フランス/名詞/*
-1.837266	あと/名詞/* 一つ/名詞/*
-1.837266	あと/名詞/* 習字/名詞/*
-1.837266	あと/名詞/* 間/名詞/*
-0.633146	あと/接続詞/* 先生/名詞/*
-0.934176	あなた/名詞/* うち/名詞/*
-0.934176	あなた/名詞/* んち/名詞/*
-0.4214504	あの/フィラー/* 、/記号/*
-1.110267	あの/フィラー/* なんか/フィラー/*
-1.955365	あの/連体詞/* へん/名詞/*
-1.955365	あの/連体詞/* 二人/名詞/*
-0.6335187	あの/連体詞/* 人/名詞/*	-0.01756054
-1.955365	あの/連体詞/* 先/名詞/*
-0.8815616	あの/連体詞/* 子/名詞/*
-1.955365	あの/連体詞/* 安室/名詞/*
-1.955365	あの/連体詞/* 布/名詞/*
-1.955365	あの/連体詞/* 瓶/名詞/*
-1.955365	あの/連体詞/* 美貌/名詞/*
-1.955365	あの/連体詞/* 花/名詞/*
-1.955365	あの/連体詞/* 言語/名詞/*
-1.955365	あの/連体詞/* 辺/名詞/*
-1.955365	あの/連体詞/* 頃/名詞/*
-0.633146	あのー/フィラー/* ドン/副詞/*
-1.674539	あり/動詞/五段・ラ行 か/助詞/*
-1.674539	あり/動詞/五段・ラ行 たい/助動詞/特殊・タイ
-0.9857219	あり/動詞/五段・ラ行 つつ/助詞/*	0.09765936
-0.8139424	あり/動詞/五段・ラ行 ませ/助動詞/特殊・マス	-0.008886569
-1.674539	あり/動詞/五段・ラ行 や/助詞/*
-1.674539	あり/動詞/五段・ラ行 得る/動詞/一段
-1.674539	あり/動詞/五段・ラ行 気/名詞/*
-1.674539	あり/動詞/五段・ラ行 過ぎ/動詞/一段
-1.110267	ありえ/動詞/一段 へん/助動詞/特殊・ナイ
-1.110267	ありえ/動詞/一段 へんかっ/助動詞/特殊・ナイ
-1.110267	ありえ/動詞/一段 ん/助動詞/特殊・ナイ
-0.5463892	ありがとう/感動詞/* 。/記号/*	2.702523
-1.235206	ありがとう/感動詞/* ござい/助動詞/五段・ラ行特殊
-1.235206	ありがとう/感動詞/* って/助詞/*
-2.124508	ある/動詞/五段・ラ行 、/記号/*
-1.435691	ある/動詞/五段・ラ行 。/記号/*	2.702523
-2.124508	ある/動詞/五段・ラ行 ある/動詞/五段・ラ行
-2.124508	ある/動詞/五段・ラ行 か/助詞/*
-1.050704	ある/動詞/五段・ラ行 から/助詞/*
-2.124508	ある/動詞/五段・ラ行 ぐらい/助詞/*
-1.435691	ある/動詞/五段・ラ行 けど/助詞/*
-1.435691	ある/動詞/五段・ラ行 し/助詞/*
-1.435691	ある/動詞/五段・ラ行 な/助詞/*	0.195334
-1.435691	ある/動詞/五段・ラ行 やん/助動詞/特殊・ヤ	0.03007363
-0.8026611	ある/動詞/五段・ラ行 よ/助詞/*	0.3350356
-1.435691	ある/動詞/五段・ラ行 ん/助詞/*
-2.124508	ある/動詞/五段・ラ行 ん/名詞/*
-2.124508	ある/動詞/五段・ラ行 子/名詞/*
-2.124508	ある/動詞/五段・ラ行 曲/名詞/*
-2.124508	ある/動詞/五段・ラ行 気/名詞/*
-2.124508	ある/動詞/五段・ラ行 ？/記号/*
-0.633146	ある程度/副詞/* あっ/動詞/五段・ラ行
-1.12042	あれ/名詞/* 、/記号/*
-1.809237	あれ/名詞/* 。/記号/*
-1.809237	あれ/名詞/* で/助詞/*
-1.809237	あれ/名詞/* な/助動詞/特殊・ダ
-0.9486409	あれ/名詞/* は/助詞/*
-1.809237	あれ/名詞/* も/助詞/*
-1.809237	あれ/名詞/* やろ/助動詞/特殊・ヤ
-1.809237	あれ/名詞/* やん/助動詞/特殊・ヤ
-1.809237	あれ/名詞/* より/助詞/*
-1.809237	あれ/名詞/* 中国/名詞/*
-1.809237	あれ/名詞/* 何/名詞/*
-1.809237	あれ/名詞/* 救い/動詞/五段・ワ行促音便
-0.633146	あん/動詞/五段・ラ行撥音便 ねん/助詞/*
-0.633146	あんた/名詞/* の/助詞/*
-0.934176	あんだけ/副詞/* ボロ/名詞/*
-0.934176	あんだけ/副詞/* 人数/名詞/*
-0.633146	あんな/連体詞/* 発表会/名詞/*
-0.633146	あんね/フィラー/* 、/記号/*
-1.478244	あんま/副詞/* ない/形容詞/形容詞・アウオ段
-1.478244	あんま/副詞/* 人/名詞/*
-0.6176477	あんま/副詞/* 好き/名詞/*	-0.3290253
-1.478244	あんま/副詞/* 害/名詞/*
-1.478244	あんま/副詞/* 思わ/動詞/五段・ワ行促音便
-1.411297	あんまり/副詞/* いきなり/副詞/*
-1.411297	あんまり/副詞/* うち/名詞/*
-1.411297	あんまり/副詞/* わから/動詞/五段・ラ行
-1.411297	あんまり/副詞/* 好き/名詞/*
-1.411297	あんまり/副詞/* 習い事/名詞/*
-1.411297	あんまり/副詞/* 過去/名詞/*
-0.8146149	あー/フィラー/* 、/記号/*
-1.888419	あー/フィラー/* いい/形容詞/形容詞・イイ
-1.888419	あー/フィラー/* いっ/動詞/五段・ワ行促音便
-1.888419	あー/フィラー/* こういう/連体詞/*
-1.888419	あー/フィラー/* そう/副詞/*
-1.888419	あー/フィラー/* そういう/連体詞/*
-1.888419	あー/フィラー/* そっかー/感動詞/*
-1.888419	あー/フィラー/* でも/接続詞/*
-1.888419	あー/フィラー/* はい/感動詞/*
-1.888419	あー/フィラー/* ほんま/副詞/*
-1.888419	あー/フィラー/* ほんまに/副詞/*
-1.199602	あー/フィラー/* やっ/動詞/五段・ラ行
-1.888419	あー/フィラー/* 一人/名詞/*
-1.888419	あー/フィラー/* 確かに/感動詞/*
-0.633146	あー/感動詞/* 。/記号/*
-0.633146	あーあ/感動詞/* 、/記号/*
-1.536236	い/動詞/一段 た/助動詞/特殊・タ
-1.536236	い/動詞/一段 たい/助動詞/特殊・タイ
-1.536236	い/動詞/一段 て/助詞/*
-0.2143297	い/動詞/一段 ない/助動詞/特殊・ナイ
-2.323342	いい/形容詞/形容詞・イイ </s>
-2.323342	いい/形容詞/形容詞・イイ 。/記号/*
-2.323342	いい/形容詞/形容詞・イイ から/助詞/*
-1.462746	いい/形容詞/形容詞・イイ けど/助詞/*
-2.323342	いい/形容詞/形容詞・イイ こと/名詞/*
-1.001436	いい/形容詞/形容詞・イイ し/助詞/*	-0.03265514
-2.323342	いい/形容詞/形容詞・イイ だろ/助動詞/特殊・タ
-2.323342	いい/形容詞/形容詞・イイ でしょ/助動詞/特殊・デス
-1.634525	いい/形容詞/形容詞・イイ と/助詞/*	-0.1118785
-2.323342	いい/形容詞/形容詞・イイ として/助詞/*
-1.634525	いい/形容詞/形容詞・イイ な/助詞/*
-2.323342	いい/形容詞/形容詞・イイ なあ/助詞/*
-1.634525	いい/形容詞/形容詞・イイ なー/助詞/*
-1.634525	いい/形容詞/形容詞・イイ ね/助詞/*	0.2093349
-1.634525	いい/形容詞/形容詞・イイ ねん/助詞/*	-0.1763008
-2.323342	いい/形容詞/形容詞・イイ の/助詞/*
-1.462746	いい/形容詞/形容詞・イイ や/助詞/*
-2.323342	いい/形容詞/形容詞・イイ やん/助動詞/特殊・ヤ
-1.462746	いい/形容詞/形容詞・イイ よ/助詞/*
-2.323342	いい/形容詞/形容詞・イイ らしい/助動詞/形容詞・イ段
-2.323342	いい/形容詞/形容詞・イイ わ/助詞/*
-2.323342	いい/形容詞/形容詞・イイ ん/助詞/*
-1.001436	いい/形容詞/形容詞・イイ ん/名詞/*	-0.1347758
-2.323342	いい/形容詞/形容詞・イイ 夫婦/名詞/*
-1.462746	いい/形容詞/形容詞・イイ 子/名詞/*
-1.634525	いい/形容詞/形容詞・イイ 感じ/名詞/*
-2.323342	いい/形容詞/形容詞・イイ 気/名詞/*
-1.934176	いう/動詞/五段・ワ行促音便 、/記号/*
-1.07358	いう/動詞/五段・ワ行促音便 。/記号/*	2.585102
-1.245359	いう/動詞/五段・ワ行促音便 か/助詞/*
-1.934176	いう/動詞/五段・ワ行促音便 から/助詞/*
-1.934176	いう/動詞/五段・ワ行促音便 こと/名詞/*
-1.934176	いう/動詞/五段・ワ行促音便 ところ/名詞/*
-1.934176	いう/動詞/五段・ワ行促音便 な/助詞/*
-0.8603724	いう/動詞/五段・ワ行促音便 の/名詞/*	-0.04636852
-1.934176	いう/動詞/五段・ワ行促音便 ん/助詞/*
-1.934176	いう/動詞/五段・ワ行促音便 ん/名詞/*
-1.934176	いう/動詞/五段・ワ行促音便 イケメン/名詞/*
-1.934176	いう/動詞/五段・ワ行促音便 コミュニティー/名詞/*
-1.934176	いう/動詞/五段・ワ行促音便 名前/名詞/*
-1.934176	いう/動詞/五段・ワ行促音便 霊/名詞/*
-0.633146	いえ/動詞/一段 ば/助詞/*
-1.110267	いか/動詞/五段・カ行促音便 ず/助動詞/特殊・ヌ
-1.110267	いか/動詞/五段・カ行促音便 へん/助動詞/特殊・ナイ
-1.110267	いか/動詞/五段・カ行促音便 ん/助動詞/特殊・ナイ
-0.633146	いかつい/形容詞/形容詞・アウオ段 。/記号/*
-0.633146	いき/動詞/五段・カ行促音便 ます/助動詞/特殊・マス
-0.934176	いきなり/副詞/* 。/記号/*
-0.934176	いきなり/副詞/* しゃべっ/動詞/五段・ラ行
-0.934176	いく/動詞/五段・カ行促音便 。/記号/*
-0.934176	いく/動詞/五段・カ行促音便 いく/動詞/五段・カ行促音便
-0.934176	いけ/動詞/一段 ない/助動詞/特殊・ナイ
-0.934176	いけ/動詞/一段 ば/助詞/*
-0.633146	いけ/動詞/五段・カ行促音便 ば/助詞/*
-0.633146	いける/動詞/一段 。/記号/*
-0.633146	いたる/動詞/五段・ラ行 。/記号/*
-0.6432992	いっ/動詞/五段・ワ行促音便 て/助詞/*
-0.4715197	いっ/動詞/五段・ワ行促音便 とっ/動詞/五段・ラ行	-0.04783904
-0.633146	いっか/感動詞/* とか/助詞/*
-1.235206	いっつも/副詞/* 。/記号/*
-1.235206	いっつも/副詞/* 声/名詞/*
-1.235206	いっつも/副詞/* 言っ/動詞/五段・ワ行促音便
-1.235206	いっつも/副詞/* 言わ/動詞/五段・ワ行促音便
-0.934176	いっぱい/副詞/* ある/動詞/五段・ラ行
-0.934176	いっぱい/副詞/* 出/動詞/一段
-0.633146	いつも/副詞/* あれ/名詞/*
-0.934176	いま/名詞/* やっ/動詞/五段・ラ行
-0.934176	いま/名詞/* 思いつく/動詞/五段・カ行イ音便
-0.633146	いま/接頭詞/* 食材/名詞/*
-0.633146	いや/名詞/* や/助動詞/特殊・ヤ
-1.235206	いや/感動詞/* 、/記号/*
-1.235206	いや/感動詞/* でも/接続詞/*
-1.235206	いや/感動詞/* わから/動詞/五段・ラ行
-1.235206	いや/感動詞/* キムヒョンジュン/名詞/*
-1.110267	いる/動詞/一段 けど/助詞/*
-1.110267	いる/動詞/一段 みたい/名詞/*
-1.110267	いる/動詞/一段 ん/名詞/*
-0.934176	いれ/動詞/一段 たら/助動詞/特殊・タ
-0.934176	いれ/動詞/一段 て/助詞/*
-0.633146	いろいろ/副詞/* なんか/フィラー/*
-0.2453592	いろんな/連体詞/* とこ/名詞/*
-1.809237	う/助動詞/不変化型 、/記号/*
-1.12042	う/助動詞/不変化型 。/記号/*	2.702523
-1.12042	う/助動詞/不変化型 か/助詞/*
-1.809237	う/助動詞/不変化型 ぐらい/助詞/*
-1.12042	う/助動詞/不変化型 って/助詞/*
-1.12042	う/助動詞/不変化型 な/助詞/*	-0.2249822
-1.12042	う/助動詞/不変化型 なー/助詞/*
-1.12042	う/助動詞/不変化型 ね/助詞/*	0.2093349
-1.809237	う/助動詞/不変化型 や/助詞/*
-1.332116	ううん/感動詞/* 、/記号/*
-0.4715197	ううん/感動詞/* 。/記号/*	2.585102
-1.332116	ううん/感動詞/* 違う/感動詞/*
-2.177214	うち/名詞/* 、/記号/*
-2.177214	うち/名詞/* 。/記号/*
-2.177214	うち/名詞/* あの/連体詞/*
-2.177214	うち/名詞/* いま/接頭詞/*
-2.177214	うち/名詞/* から/助詞/*
-1.488397	うち/名詞/* が/助詞/*
-2.177214	うち/名詞/* どう/副詞/*
-2.177214	うち/名詞/* に/助詞/*
-0.5898255	うち/名詞/* の/助詞/*
-2.177214	うち/名詞/* は/助詞/*
-1.488397	うち/名詞/* みたい/名詞/*
-1.316618	うち/名詞/* も/助詞/*
-1.316618	うち/名詞/* ら/名詞/*
-2.177214	うち/名詞/* わざわざ/副詞/*
-2.177214	うち/名詞/* ゴスペル/名詞/*
-2.177214	うち/名詞/* 信じ/動詞/一段
-2.177214	うち/名詞/* 友達/名詞/*
-2.177214	うち/名詞/* 図書館/名詞/*
-2.177214	うち/名詞/* 昔/名詞/*
-2.177214	うち/名詞/* 習字/名詞/*
-2.177214	うち/名詞/* ？/記号/*
-0.633146	うどん/名詞/* とか/助詞/*
-0.633146	うまい/形容詞/形容詞・アウオ段 具合/名詞/*
-0.633146	うまく/形容詞/形容詞・アウオ段 ない/助動詞/特殊・ナイ
-0.633146	うわ/感動詞/* 、/記号/*
-0.934176	うん/フィラー/* ほんまに/副詞/*
-0.934176	うん/フィラー/* 三/名詞/*
-0.7781513	うん/感動詞/* 、/記号/*
-0.1303338	うん/感動詞/* 。/記号/*	1.340492
-2.36554	うん/感動詞/* そ/副詞/*
-2.36554	うん/感動詞/* そう/副詞/*
-1.676723	うん/感動詞/* それ/名詞/*	-0.1227232
-2.36554	うん/感動詞/* 出/動詞/一段
-0.2496709	うーん/感動詞/* 、/記号/*
-1.332116	え/フィラー/* そう/副詞/*
-1.332116	え/フィラー/* ガチ/名詞/*
-1.332116	え/フィラー/* 人見知り/名詞/*
-1.332116	え/フィラー/* 全然/副詞/*
-1.332116	え/フィラー/* 英語/名詞/*
-0.2654822	え/感動詞/* 、/記号/*
-1.587389	え/感動詞/* じゃあ/接続詞/*
-1.587389	え/感動詞/* でも/接続詞/*
-1.587389	え/感動詞/* 面白く/形容詞/形容詞・アウオ段
-1.587389	え/感動詞/* ？/記号/*
-0.633146	ええ/形容詞/形容詞・イイ やん/助動詞/特殊・ヤ
-0.633146	えっ/感動詞/* みたい/名詞/*
-1.110267	えっと/フィラー/* 、/記号/*
-1.110267	えっと/フィラー/* どの/連体詞/*
-1.110267	えっと/フィラー/* 色白/名詞/*
-0.4214504	えっとね/フィラー/* 、/記号/*
-1.110267	えっとね/フィラー/* 面倒くさい/形容詞/形容詞・アウオ段
-0.934176	えみ/名詞/* さん/名詞/*
-0.934176	えみ/名詞/* に/助詞/*
-0.934176	えらい/形容詞/形容詞・アウオ段 飛ん/動詞/五段・バ行
-0.934176	えらい/形容詞/形容詞・アウオ段 高い/形容詞/形容詞・アウオ段
-0.4214504	えー/フィラー/* 、/記号/*
-1.110267	えー/フィラー/* みたい/名詞/*
-0.633146	えーと/フィラー/* 、/記号/*
-1.332116	お/接頭詞/* 兄さん/名詞/*
-1.332116	お/接頭詞/* 名前/名詞/*
-0.6432992	お/接頭詞/* 姉ちゃん/名詞/*
-1.332116	お/接頭詞/* 金持ち/名詞/*
-0.2453592	おい/動詞/一段 て/助詞/*	-0.1884907
-0.3746097	おいしい/形容詞/形容詞・イ段 し/助詞/*	-0.0004632863
-1.235206	おいしい/形容詞/形容詞・イ段 よ/助詞/*
-0.633146	おいしく/形容詞/形容詞・イ段 なんで/副詞/*
-0.633146	おかず/名詞/* 食べ/動詞/一段
-0.934176	おじいちゃん/名詞/* が/助詞/*
-0.934176	おじいちゃん/名詞/* も/助詞/*
-0.633146	おじけ/動詞/一段 つく/動詞/五段・カ行イ音便
-1.332116	おっ/動詞/五段・ラ行 た/助動詞/特殊・タ
-1.332116	おっ/動詞/五段・ラ行 たら/助動詞/特殊・タ
-1.332116	おっ/動詞/五段・ラ行 たん/助動詞/特殊・タ
-0.6432992	おっ/動詞/五段・ラ行 て/助詞/*
-0.633146	おねえちゃん/名詞/* おる/動詞/五段・ラ行
-0.2453592	おば/名詞/* ちゃん/名詞/*
-0.633146	おもろい/形容詞/形容詞・アウオ段 ん/名詞/*
-0.633146	おもろかっ/形容詞/形容詞・アウオ段 た/助動詞/特殊・タ
-0.633146	おら/動詞/五段・ラ行 ん/助詞/*
-1.478244	おる/動詞/五段・ラ行 から/助詞/*
-1.478244	おる/動詞/五段・ラ行 けど/助詞/*
-1.478244	おる/動詞/五段・ラ行 って/助詞/*
-1.478244	おる/動詞/五段・ラ行 とき/名詞/*
-1.478244	おる/動詞/五段・ラ行 わ/助詞/*
-0.7894272	おる/動詞/五段・ラ行 ？/記号/*	1.481641
-0.633146	おれ/名詞/* は/助詞/*
-0.633146	お前/名詞/* より/助詞/*
-0.934176	お母さん/名詞/* だ/助動詞/特殊・ダ
-0.934176	お母さん/名詞/* の/助詞/*
-0.633146	お洒落/名詞/* に/助詞/*
-0.633146	お稽古/名詞/* ごと/名詞/*
-0.633146	お腹/名詞/* すく/動詞/五段・カ行イ音便
-1.110267	お金/名詞/* ある/動詞/五段・ラ行
-1.110267	お金/名詞/* かかる/動詞/五段・ラ行
-1.110267	お金/名詞/* ない/形容詞/形容詞・アウオ段
-1.944329	か/助詞/* </s>
-1.311299	か/助詞/* 、/記号/*
-0.6382722	か/助詞/* 。/記号/*	1.573065
-2.633146	か/助詞/* 」/記号/*
-2.633146	か/助詞/* あたし/名詞/*
-1.311299	か/助詞/* って/助詞/*	-0.07732826
-1.944329	か/助詞/* と/助詞/*
-0.39794	か/助詞/* な/助詞/*	0.1112065
-1.77255	か/助詞/* なん/名詞/*	-0.1155491
-2.633146	か/助詞/* なー/助詞/*
-2.633146	か/助詞/* ほんと/感動詞/*
-2.633146	か/助詞/* めっちゃ/副詞/*
-2.633146	か/助詞/* や/助動詞/特殊・ヤ
-1.944329	か/助詞/* わから/動詞/五段・ラ行	0.7034895
-2.633146	か/助詞/* スペイン/名詞/*
-2.633146	か/助詞/* 一/名詞/*
-2.633146	か/助詞/* 中国語/名詞/*
-2.633146	か/助詞/* 今/名詞/*
-2.633146	か/助詞/* 声変わり/名詞/*
-1.944329	か/助詞/* 知ら/動詞/五段・ラ行	0.3135184
-2.633146	か/助詞/* 経た/動詞/五段・タ行
-1.944329	か/助詞/* ？/記号/*	1.481641
-0.934176	かかる/動詞/五段・ラ行 。/記号/*
-0.934176	かかる/動詞/五段・ラ行 ん/名詞/*
-0.633146	かかる/連体詞/* 。/記号/*
-0.2496709	かけ/動詞/一段 て/助詞/*
-1.235206	かっこいい/形容詞/不変化型 。/記号/*
-1.235206	かっこいい/形容詞/不変化型 で/助詞/*
-1.235206	かっこいい/形容詞/不変化型 と/助詞/*
-1.235206	かっこいい/形容詞/不変化型 ？/記号/*
-0.633146	かっこよかっ/形容詞/形容詞・アウオ段 た/助動詞/特殊・タ
-0.934176	かっこよく/形容詞/形容詞・アウオ段 ない/助動詞/特殊・ナイ
-0.934176	かっこよく/形容詞/形容詞・アウオ段 見える/動詞/一段
-0.633146	かつ/接続詞/* 頼り/名詞/*
-0.934176	かなり/副詞/* 。/記号/*
-0.934176	かなり/副詞/* インターナショナル/名詞/*
-0.2655419	かも/助詞/* しれ/動詞/一段	-0.04773147
-1.587389	かも/助詞/* ね/助詞/*
-1.587389	かも/助詞/* よ/助詞/*
-1.587389	かも/助詞/* 知れ/動詞/一段
-1.701969	から/助詞/* </s>
-2.562565	から/助詞/* OPA/名詞/*
-0.9751764	から/助詞/* 、/記号/*
-0.6741464	から/助詞/* 。/記号/*	1.674523
-2.562565	から/助詞/* いい/形容詞/形容詞・イイ
-2.562565	から/助詞/* いろんな/連体詞/*
-2.562565	から/助詞/* が/助詞/*
-1.159526	から/助詞/* さ/助詞/*	-0.04705339
-2.562565	から/助詞/* じいさん/名詞/*
-2.562565	から/助詞/* じゃ/助動詞/特殊・ジャ
-2.562565	から/助詞/* すると/接続詞/*
-2.562565	から/助詞/* それ/名詞/*
-1.873748	から/助詞/* って/助詞/*
-2.562565	から/助詞/* とか/助詞/*
-2.562565	から/助詞/* な/助動詞/特殊・ダ
-1.240718	から/助詞/* な/助詞/*	-0.00281535
-1.873748	から/助詞/* なあ/助詞/*	-0.03318441
-2.562565	から/助詞/* ない/助動詞/特殊・ナイ
-2.562565	から/助詞/* なん/名詞/*
-2.562565	から/助詞/* なんとも/副詞/*
-2.562565	から/助詞/* ね/助詞/*
-1.873748	から/助詞/* の/助詞/*
-2.562565	から/助詞/* バレエ/名詞/*
-2.562565	から/助詞/* 一/名詞/*
-2.562565	から/助詞/* 不可能/名詞/*
-2.562565	から/助詞/* 中/名詞/*
-2.562565	から/助詞/* 仲良く/副詞/*
-2.562565	から/助詞/* 入っ/動詞/五段・ラ行
-2.562565	から/助詞/* 全然/副詞/*
-2.562565	から/助詞/* 出/動詞/一段
-2.562565	から/助詞/* 喋る/動詞/五段・ラ行
-2.562565	から/助詞/* 小/接頭詞/*
-2.562565	から/助詞/* 成長/名詞/*
-2.562565	から/助詞/* 来/動詞/カ変・来ル
-2.562565	から/助詞/* 楽/名詞/*
-2.562565	から/助詞/* 死に/動詞/五段・ナ行
-2.562565	から/助詞/* 死ぬ/動詞/五段・ナ行
-2.562565	から/助詞/* 皿/名詞/*
-2.562565	から/助詞/* 移さ/動詞/五段・サ行
-2.562565	から/助詞/* 自由/名詞/*
-2.562565	から/助詞/* 落ち/動詞/一段
-2.562565	から/助詞/* 遠い/形容詞/形容詞・アウオ段
-2.562565	から/助詞/* 閉め/動詞/一段
-2.562565	から/助詞/* 食べる/動詞/一段
-0.633146	から/名詞/* の/助詞/*
-0.633146	かわいい/形容詞/形容詞・イ段 子/名詞/*
-2.697604	が/助詞/* </s>
-1.837008	が/助詞/* 、/記号/*
-2.697604	が/助詞/* 。/記号/*
-2.697604	が/助詞/* 「/記号/*
-2.697604	が/助詞/* あっ/動詞/五段・ラ行
-2.008787	が/助詞/* あり/動詞/五段・ラ行	-0.2033797
-2.008787	が/助詞/* ある/動詞/五段・ラ行
-2.697604	が/助詞/* あんま/副詞/*
-2.697604	が/助詞/* い/動詞/一段
-1.6238	が/助詞/* いい/形容詞/形容詞・イイ
-2.697604	が/助詞/* いっぱい/副詞/*
-2.697604	が/助詞/* うち/名詞/*
-2.008787	が/助詞/* おっ/動詞/五段・ラ行
-2.697604	が/助詞/* おもろい/形容詞/形容詞・アウオ段
-2.697604	が/助詞/* かかる/動詞/五段・ラ行
-2.697604	が/助詞/* がっつり/副詞/*
-2.008787	が/助詞/* きれい/名詞/*	-0.159527
-2.697604	が/助詞/* こんな/連体詞/*
-2.008787	が/助詞/* し/動詞/サ変・スル
-2.697604	が/助詞/* すごい/形容詞/形容詞・アウオ段
-2.697604	が/助詞/* すごかっ/形容詞/形容詞・アウオ段
-2.008787	が/助詞/* する/動詞/サ変・スル	-0.1603948
-2.697604	が/助詞/* その/連体詞/*
-2.697604	が/助詞/* たまらなく/形容詞/形容詞・アウオ段
-2.697604	が/助詞/* だれ/名詞/*
-2.697604	が/助詞/* できる/動詞/一段
-2.697604	が/助詞/* とか/助詞/*
-2.008787	が/助詞/* な/助詞/*	-0.1726428
-1.6238	が/助詞/* ない/助動詞/特殊・ナイ
-2.697604	が/助詞/* なにか/副詞/*
-1.837008	が/助詞/* なんか/フィラー/*
-2.697604	が/助詞/* まず/副詞/*
-2.697604	が/助詞/* みんな/名詞/*
-2.697604	が/助詞/* めちゃ/副詞/*
-2.697604	が/助詞/* やっぱ/副詞/*
-2.697604	が/助詞/* より/助詞/*
-2.697604	が/助詞/* カッコイイ/形容詞/不変化型
-2.697604	が/助詞/* タイプ/名詞/*
-2.697604	が/助詞/* ダメ/名詞/*
-2.697604	が/助詞/* ポン/名詞/*
-2.697604	が/助詞/* 一概/名詞/*
-2.697604	が/助詞/* 一番/名詞/*
-2.697604	が/助詞/* 乗り移る/動詞/五段・ラ行
-2.697604	が/助詞/* 人見知り/名詞/*
-2.697604	が/助詞/* 今/名詞/*
-2.697604	が/助詞/* 他/名詞/*
-2.697604	が/助詞/* 似/動詞/一段
-2.697604	が/助詞/* 似合い/動詞/五段・ワ行促音便
-2.008787	が/助詞/* 何/名詞/*
-2.697604	が/助詞/* 初め/動詞/一段
-2.697604	が/助詞/* 原因/名詞/*
-2.697604	が/助詞/* 友達/名詞/*
-2.697604	が/助詞/* 増え/動詞/一段
-2.697604	が/助詞/* 多い/形容詞/形容詞・アウオ段
-2.697604	が/助詞/* 多分/副詞/*
-2.697604	が/助詞/* 夢/名詞/*
-2.697604	が/助詞/* 大事/名詞/*
-2.697604	が/助詞/* 大嫌い/名詞/*
-2.697604	が/助詞/* 好/名詞/*
-1.294565	が/助詞/* 好き/名詞/*	-0.01900374
-2.697604	が/助詞/* 嫌/名詞/*
-2.697604	が/助詞/* 帰省/名詞/*
-2.697604	が/助詞/* 弾ける/動詞/一段
-2.697604	が/助詞/* 悪かっ/形容詞/形容詞・アウオ段
-2.697604	が/助詞/* 意外/名詞/*
-2.697604	が/助詞/* 成長/名詞/*
-2.697604	が/助詞/* 持て/動詞/五段・タ行
-2.697604	が/助詞/* 普通/名詞/*
-2.697604	が/助詞/* 本間/名詞/*
-2.697604	が/助詞/* 楽/名詞/*
-2.697604	が/助詞/* 楽しい/形容詞/形容詞・イ段
-2.697604	が/助詞/* 消え/動詞/一段
-2.697604	が/助詞/* 現れる/動詞/一段
-2.697604	が/助詞/* 理由/名詞/*
-2.697604	が/助詞/* 白い/形容詞/形容詞・アウオ段
-2.697604	が/助詞/* 白く/形容詞/形容詞・アウオ段
-2.697604	が/助詞/* 百/名詞/*
-2.697604	が/助詞/* 絶対/名詞/*
-2.697604	が/助詞/* 習い/動詞/五段・ワ行促音便
-2.697604	が/助詞/* 習字/名詞/*
-2.697604	が/助詞/* 英語/名詞/*
-2.697604	が/助詞/* 薄い/形容詞/形容詞・アウオ段
-2.697604	が/助詞/* 見/動詞/一段
-2.697604	が/助詞/* 見つかる/動詞/五段・ラ行
-2.697604	が/助詞/* 言う/動詞/五段・ワ行促音便
-2.697604	が/助詞/* 言っ/動詞/五段・ワ行促音便
-2.697604	が/助詞/* 長い/形容詞/形容詞・アウオ段
-2.697604	が/助詞/* 難しい/形容詞/形容詞・イ段
-2.697604	が/助詞/* 顔/名詞/*
-2.697604	が/助詞/* 食堂/名詞/*
-2.008787	が/助詞/* ？/記号/*	1.481641
-0.633146	がい/名詞/* の/助詞/*
-0.934176	がっつり/副詞/* じゃ/助動詞/特殊・ジャ
-0.934176	がっつり/副詞/* な/助動詞/特殊・ダ
-0.633146	がらみ/名詞/* みたい/名詞/*
-0.4715197	き/動詞/カ変・クル た/助動詞/特殊・タ
-0.6432992	き/動詞/カ変・クル て/助詞/*
-0.633146	き/動詞/一段 て/助詞/*
-0.633146	きらい/名詞/* やっ/助動詞/特殊・ヤ
-1.411297	きれい/名詞/* 、/記号/*
-0.7224804	きれい/名詞/* 。/記号/*	2.702523
-1.411297	きれい/名詞/* ね/助詞/*
-1.411297	きれい/名詞/* やっ/助動詞/特殊・ヤ
-1.411297	きれい/名詞/* よ/助詞/*
-0.633146	くそ/接頭詞/* 痛い/形容詞/形容詞・アウオ段
-0.633146	ください/動詞/五段・ラ行特殊 って/助詞/*
-0.934176	くない/助詞/特殊・ナイ 。/記号/*
-0.934176	くない/助詞/特殊・ナイ ？/記号/*
-0.934176	くらい/助詞/* 。/記号/*
-0.934176	くらい/助詞/* に/助詞/*
-1.411297	くる/動詞/カ変・クル 。/記号/*
-1.411297	くる/動詞/カ変・クル から/助詞/*
-1.411297	くる/動詞/カ変・クル し/助詞/*
-1.411297	くる/動詞/カ変・クル の/名詞/*
-1.411297	くる/動詞/カ変・クル よ/助詞/*
-1.411297	くる/動詞/カ変・クル 場所/名詞/*
-0.633146	くれ/動詞/一段 ない/助動詞/特殊・ナイ
-1.332116	くれ/動詞/一段・クレル そう/名詞/*
-1.332116	くれ/動詞/一段・クレル た/助動詞/特殊・タ
-1.332116	くれ/動詞/一段・クレル たら/助動詞/特殊・タ
-1.332116	くれ/動詞/一段・クレル って/助詞/*
-1.332116	くれ/動詞/一段・クレル ない/助動詞/特殊・ナイ
-1.110267	くれる/動詞/一段・クレル と/助詞/*
-0.4214504	くれる/動詞/一段・クレル の/助詞/*	-0.2375417
-0.633146	くれれ/動詞/一段・クレル ば/助詞/*
-0.633146	くん/名詞/* とか/助詞/*
-1.090457	ぐらい/助詞/* 。/記号/*	2.702523
-1.090457	ぐらい/助詞/* か/助詞/*	-0.02890424
-1.779274	ぐらい/助詞/* が/助詞/*
-1.779274	ぐらい/助詞/* ちゃう/動詞/五段・ワ行促音便
-1.090457	ぐらい/助詞/* で/助詞/*
-1.779274	ぐらい/助詞/* な/助動詞/特殊・ダ
-1.779274	ぐらい/助詞/* な/助詞/*
-1.090457	ぐらい/助詞/* に/助詞/*	-0.2483614
-1.779274	ぐらい/助詞/* の/助詞/*
-1.779274	ぐらい/助詞/* やっ/助動詞/特殊・ヤ
-0.633146	け/助詞/* 、/記号/*
-1.19779	けど/助詞/* </s>
-0.544068	けど/助詞/* 、/記号/*	-0.007618984
-0.6560418	けど/助詞/* 。/記号/*	1.698004
-2.519637	けど/助詞/* 「/記号/*
-2.519637	けど/助詞/* ある/動詞/五段・ラ行
-2.519637	けど/助詞/* こっち/名詞/*
-2.519637	けど/助詞/* さ/助詞/*
-2.519637	けど/助詞/* どう/副詞/*
-0.7103994	けど/助詞/* な/助詞/*	0.322793
-1.65904	けど/助詞/* ね/助詞/*	0.09191372
-1.65904	けど/助詞/* みたい/名詞/*	0.09965188
-2.519637	けど/助詞/* よく/形容詞/形容詞・アウオ段
-2.519637	けど/助詞/* プロ/名詞/*
-2.519637	けど/助詞/* 多分/副詞/*
-2.519637	けど/助詞/* 最近/名詞/*
-2.519637	けど/助詞/* 超/接頭詞/*
-2.519637	けど/助詞/* 違う/動詞/五段・ワ行促音便
-0.5463892	こう/副詞/* 、/記号/*
-1.235206	こう/副詞/* やっ/動詞/五段・ラ行
-1.235206	こう/副詞/* 今/名詞/*
-0.633146	こういう/連体詞/* 考え/名詞/*
-1.411297	ここ/名詞/* じゃ/助動詞/特殊・ジャ
-1.411297	ここ/名詞/* すげえ/感動詞/*
-0.7224804	ここ/名詞/* で/助詞/*	-0.2411247
-1.411297	ここ/名詞/* の/助詞/*
-1.411297	ここ/名詞/* 細く/形容詞/形容詞・アウオ段
-0.633146	こそ/助詞/* 海外/名詞/*
-0.633146	こたつ/名詞/* で/助詞/*
-0.6432992	こっち/名詞/* が/助詞/*
-1.332116	こっち/名詞/* だっ/助動詞/特殊・ダ
-1.332116	こっち/名詞/* で/助詞/*
-1.332116	こっち/名詞/* 友達/名詞/*
-2.295904	こと/名詞/* 、/記号/*
-0.9739975	こと/名詞/* 。/記号/*	2.175125
-1.2221	こと/名詞/* ある/動詞/五段・ラ行
-2.295904	こと/名詞/* あん/動詞/五段・ラ行撥音便
-1.435308	こと/名詞/* か/助詞/*	0.07162315
-1.435308	こと/名詞/* が/助詞/*
-2.295904	こと/名詞/* すら/助詞/*
-2.295904	こと/名詞/* って/助詞/*
-2.295904	こと/名詞/* です/助動詞/特殊・デス
-2.295904	こと/名詞/* な/助詞/*
-0.9739975	こと/名詞/* ない/形容詞/形容詞・アウオ段	-0.04404443
-2.295904	こと/名詞/* なく/形容詞/形容詞・アウオ段
-2.295904	こと/名詞/* ね/助詞/*
-0.9739975	こと/名詞/* は/助詞/*	-0.01628917
-1.607087	こと/名詞/* めっちゃ/副詞/*
-1.607087	こと/名詞/* も/助詞/*
-2.295904	こと/名詞/* や/助動詞/特殊・ヤ
-1.435308	こと/名詞/* を/助詞/*
-2.295904	こと/名詞/* 好き/名詞/*
-2.295904	こと/名詞/* 考えれる/動詞/一段・可能
-2.295904	こと/名詞/* 自体/名詞/*
-2.295904	こと/名詞/* 言っ/動詞/五段・ワ行促音便
-2.295904	こと/名詞/* ？/記号/*
-0.934176	こないだ/名詞/* さ/助詞/*
-0.934176	こないだ/名詞/* も/助詞/*
-1.235206	この/連体詞/* へん/名詞/*
-1.235206	この/連体詞/* まま/名詞/*
-1.235206	この/連体詞/* 人/名詞/*
-1.235206	この/連体詞/* 英語/名詞/*
-0.633146	このあいだ/名詞/* ダンス/名詞/*
-1.411297	これ/名詞/* 。/記号/*
-1.411297	これ/名詞/* いれ/動詞/一段
-1.411297	これ/名詞/* って/助詞/*
-1.411297	これ/名詞/* でも/助詞/*
-1.411297	これ/名詞/* スクリプト/名詞/*
-1.411297	これ/名詞/* 一旦/副詞/*
-0.934176	これから/副詞/* も/助詞/*
-0.934176	これから/副詞/* 出会う/動詞/五段・ワ行促音便
-0.934176	ころ/名詞/* に/助詞/*
-0.934176	ころ/名詞/* ブランコ/名詞/*
-0.633146	こん/動詞/五段・マ行 で/助詞/*
-0.633146	こんな/連体詞/* しんどい/形容詞/形容詞・アウオ段
-0.633146	こんなに/副詞/* 肩/名詞/*
-0.633146	ござい/助動詞/五段・ラ行特殊 ます/助動詞/特殊・マス
-0.934176	ごつい/形容詞/形容詞・アウオ段 か/助詞/*
-0.934176	ごつい/形容詞/形容詞・アウオ段 ねん/名詞/*
-0.633146	ごと/名詞/* やん/助動詞/特殊・ヤ
-0.633146	ごはん/名詞/* の/助詞/*
-0.934176	ごめん/感動詞/* めっちゃ/副詞/*
-0.934176	ごめん/感動詞/* 俺/名詞/*
-1.110267	ご飯/名詞/* に/助詞/*
-1.110267	ご飯/名詞/* 食べ/動詞/一段
-1.110267	ご飯/名詞/* 食べる/動詞/一段
-1.462843	さ/助詞/* </s>
-0.2397603	さ/助詞/* 、/記号/*
-0.7486207	さ/助詞/* 。/記号/*	2.050186
-2.15166	さ/助詞/* あんまり/副詞/*
-2.15166	さ/助詞/* タレント/名詞/*
-2.15166	さ/助詞/* マスコミ/名詞/*
-2.15166	さ/助詞/* 友達/名詞/*
-2.15166	さ/助詞/* 昔/名詞/*
-0.2496709	さ/動詞/サ変・スル れ/動詞/一段	-0.1463255
-1.478244	さあ/感動詞/* </s>
-0.6176477	さあ/感動詞/* 、/記号/*
-0.6176477	さあ/感動詞/* 。/記号/*	2.585102
-0.633146	さけ/動詞/一段 じゃ/助動詞/特殊・ジャ
-0.2453592	さすが/副詞/* や/助動詞/特殊・ヤ	-0.1380487
-0.633146	させ/動詞/一段 たい/助動詞/特殊・タイ
-1.235206	さっき/名詞/* えみ/名詞/*
-1.235206	さっき/名詞/* そういえば/接続詞/*
-1.235206	さっき/名詞/* 太郎/名詞/*
-1.235206	さっき/名詞/* 見/動詞/一段
-0.633146	さらに/副詞/* アメ/名詞/*
-0.934176	さん/名詞/* じゃん/助動詞/不変化型
-0.934176	さん/名詞/* 最近/名詞/*
-0.9924809	し/助詞/* </s>
-0.5351132	し/助詞/* 、/記号/*
-0.5672979	し/助詞/* 。/記号/*	1.807148
-2.314387	し/助詞/* さ/助詞/*
-2.314387	し/助詞/* さあ/感動詞/*
-2.314387	し/助詞/* だから/接続詞/*
-0.6812412	し/助詞/* な/助詞/*	0.3588715
-2.314387	し/助詞/* ね/助詞/*
-2.314387	し/助詞/* アメリカ/名詞/*
-2.314387	し/助詞/* 普通/名詞/*
-1.57873	し/動詞/サ変・スル 、/記号/*
-1.036287	し/動詞/サ変・スル た/助動詞/特殊・タ	-0.0130296
-0.90309	し/動詞/サ変・スル たい/助動詞/特殊・タイ	-0.01679553
-2.439326	し/動詞/サ変・スル たげよ/動詞/一段
-2.439326	し/動詞/サ変・スル たら/助動詞/特殊・タ
-2.439326	し/動詞/サ変・スル たん/助動詞/特殊・タ
-2.439326	し/動詞/サ変・スル ちゃう/動詞/五段・ワ行促音便
-0.3590219	し/動詞/サ変・スル て/助詞/*	-0.04679738
-1.57873	し/動詞/サ変・スル てん/動詞/一段撥音便	-0.07326484
-2.439326	し/動詞/サ変・スル とか/動詞/五段・カ行イ音便
-1.57873	し/動詞/サ変・スル とっ/動詞/五段・ラ行	0.1701096
-1.750509	し/動詞/サ変・スル とん/動詞/五段・ラ行撥音便
-1.57873	し/動詞/サ変・スル ない/助動詞/特殊・ナイ
-2.439326	し/動詞/サ変・スル なきゃ/助動詞/特殊・ナイ
-2.439326	し/動詞/サ変・スル ます/助動詞/特殊・マス
-0.633146	し/動詞/五段・サ行 て/助詞/*
-0.7224804	しか/助詞/* し/動詞/サ変・スル	-0.2088464
-1.411297	しか/助詞/* でき/動詞/一段
-0.7224804	しか/助詞/* 思わ/動詞/五段・ワ行促音便	-0.07183362
-1.411297	しか/助詞/* 見/動詞/一段
-0.633146	しかも/接続詞/* やっぱ/副詞/*
-0.934176	したら/接続詞/* </s>
-0.934176	したら/接続詞/* いい/形容詞/形容詞・イイ
-0.633146	しば/名詞/* ちゃん/名詞/*
-0.633146	しまい/動詞/五段・ワ行促音便 そう/名詞/*
-1.110267	しまう/動詞/五段・ワ行促音便 。/記号/*
-1.110267	しまう/動詞/五段・ワ行促音便 し/助詞/*
-1.110267	しまう/動詞/五段・ワ行促音便 全体/名詞/*
-0.934176	しまっ/動詞/五段・ワ行促音便 た/助動詞/特殊・タ
-0.934176	しまっ/動詞/五段・ワ行促音便 とっ/動詞/五段・ラ行
-0.633146	しゃあない/形容詞/形容詞・アウオ段 よ/助詞/*
-0.633146	しゃけ/名詞/* フレーク/名詞/*
-1.110267	しゃべっ/動詞/五段・ラ行 た/助動詞/特殊・タ
-1.110267	しゃべっ/動詞/五段・ラ行 たら/助動詞/特殊・タ
-1.110267	しゃべっ/動詞/五段・ラ行 て/助詞/*
-0.633146	しゃべれる/動詞/一段 よう/名詞/*
-0.633146	しょう/名詞/* が/助詞/*
-0.633146	しょうゆ/名詞/* 顔/名詞/*
-0.2453592	しよ/動詞/サ変・スル う/助動詞/不変化型
-0.2453592	しら/動詞/五段・ラ行 ん/助動詞/特殊・ナイ
-1.411297	しれ/動詞/一段 ない/助動詞/特殊・ナイ
-0.08939097	しれ/動詞/一段 ん/助動詞/特殊・ナイ	-0.1358232
-1.235206	しんどい/形容詞/形容詞・アウオ段 かも/助詞/*
-1.235206	しんどい/形容詞/形容詞・アウオ段 だろ/助動詞/特殊・タ
-1.235206	しんどい/形容詞/形容詞・アウオ段 とか/助詞/*
-1.235206	しんどい/形容詞/形容詞・アウオ段 な/助詞/*
-1.110267	じいさん/名詞/* 。/記号/*
-1.110267	じいさん/名詞/* が/助詞/*
-1.110267	じいさん/名詞/* どう/副詞/*
-0.1119738	じゃ/助動詞/特殊・ジャ ない/助動詞/特殊・ナイ	0.030677
-1.416002	じゃ/助動詞/特殊・ジャ なかっ/助動詞/特殊・ナイ	0.3268957
-0.8735595	じゃ/助動詞/特殊・ジャ なく/助動詞/特殊・ナイ	-0.4259687
-0.934176	じゃ/接続詞/* とりあえず/副詞/*
-0.934176	じゃ/接続詞/* ねー/助詞/*
-1.332116	じゃあ/接続詞/* </s>
-0.6432992	じゃあ/接続詞/* 、/記号/*
-1.332116	じゃあ/接続詞/* あの/連体詞/*
-1.332116	じゃあ/接続詞/* し/動詞/サ変・スル
-0.633146	じゃろ/助動詞/特殊・ジャ 。/記号/*
-1.332116	じゃん/助動詞/不変化型 </s>
-1.332116	じゃん/助動詞/不変化型 。/記号/*
-1.332116	じゃん/助動詞/不変化型 それ/名詞/*
-1.332116	じゃん/助動詞/不変化型 そんな/連体詞/*
-1.332116	じゃん/助動詞/不変化型 なんか/フィラー/*
-0.633146	す/動詞/サ変・スル べき/助動詞/文語・ベシ
-0.633146	すいません/感動詞/* って/助詞/*
-0.633146	すぎ/動詞/一段 て/助詞/*
-0.633146	すく/動詞/五段・カ行イ音便 くない/助詞/特殊・ナイ
-0.633146	すぐ/副詞/* イラって/副詞/*
-0.633146	すげえ/感動詞/* って/助詞/*
-1.332116	すごい/形容詞/形容詞・アウオ段 。/記号/*
-1.332116	すごい/形容詞/形容詞・アウオ段 いい/形容詞/形容詞・イイ
-1.332116	すごい/形容詞/形容詞・アウオ段 と/助詞/*
-0.6432992	すごい/形容詞/形容詞・アウオ段 よ/助詞/*
-0.633146	すごかっ/形容詞/形容詞・アウオ段 た/助動詞/特殊・タ
-0.633146	すっご/形容詞/形容詞・アウオ段 、/記号/*
-0.633146	すべて/名詞/* でっちあげ/名詞/*
-0.633146	すら/助詞/* 知ら/動詞/五段・ラ行
-2.048119	する/動詞/サ変・スル 、/記号/*
-0.726213	する/動詞/サ変・スル 。/記号/*	2.175125
-2.048119	する/動詞/サ変・スル か/助詞/*
-1.187523	する/動詞/サ変・スル から/助詞/*
-2.048119	する/動詞/サ変・スル けど/助詞/*
-2.048119	する/動詞/サ変・スル こと/名詞/*
-1.187523	する/動詞/サ変・スル し/助詞/*
-1.359303	する/動詞/サ変・スル と/助詞/*
-2.048119	する/動詞/サ変・スル の/助詞/*
-2.048119	する/動詞/サ変・スル もん/名詞/*
-2.048119	する/動詞/サ変・スル よ/助詞/*
-2.048119	する/動詞/サ変・スル ん/名詞/*
-0.9743157	する/動詞/サ変・スル 人/名詞/*
-2.048119	する/動詞/サ変・スル ？/記号/*
-0.633146	すると/接続詞/* 、/記号/*
-1.332116	ず/助動詞/特殊・ヌ な/助詞/*
-0.4715197	ず/助動詞/特殊・ヌ に/助詞/*
-1.332116	ず/助動詞/特殊・ヌ ね/助詞/*
-1.110267	ずっと/副詞/* やっ/動詞/五段・ラ行
-1.110267	ずっと/副詞/* 危険/名詞/*
-1.110267	ずっと/副詞/* 友達/名詞/*
-0.2496709	せ/副詞/* や/助動詞/特殊・ヤ	-0.02940343
-0.3746097	せ/動詞/サ変・スル ん/助動詞/特殊・ナイ
-1.235206	せ/動詞/サ変・スル んく/助動詞/特殊・ナイ
-0.633146	せ/動詞/一段 んかっ/助動詞/特殊・ナイ
-0.1614024	せえ/動詞/サ変・スル へん/助動詞/特殊・ナイ	-0.02534535
-0.2496709	そ/副詞/* や/助動詞/特殊・ヤ	-0.03752131
-1.330477	そう/副詞/* 、/記号/*
-0.7386427	そう/副詞/* 。/記号/*	1.573065
-2.733516	そう/副詞/* かも/助詞/*
-2.733516	そう/副詞/* じゃ/助動詞/特殊・ジャ
-0.4771213	そう/副詞/* そう/副詞/*	-0.7643498
-1.146128	そう/副詞/* だ/助動詞/特殊・ダ	0.03346485
-2.733516	そう/副詞/* だって/接続詞/*
-0.845098	そう/副詞/* な/助動詞/特殊・ダ	-0.9845041
-2.733516	そう/副詞/* なっ/動詞/五段・ラ行
-2.733516	そう/副詞/* なる/動詞/五段・ラ行
-1.146128	そう/副詞/* や/助動詞/特殊・ヤ	0.05871776
-2.733516	そう/副詞/* やっ/動詞/五段・ラ行
-2.733516	そう/副詞/* ゆう/動詞/五段・ワ行促音便
-1.197281	そう/副詞/* よ/助詞/*	-0.6372244
-2.733516	そう/副詞/* 全然/副詞/*
-2.733516	そう/副詞/* 思っ/動詞/五段・ワ行促音便
-2.733516	そう/副詞/* ！/記号/*
-0.6756397	そう/名詞/* 。/記号/*	2.585102
-1.536236	そう/名詞/* だ/助動詞/特殊・ダ
-0.8474192	そう/名詞/* な/助動詞/特殊・ダ
-1.536236	そう/名詞/* 古着/名詞/*
-1.536236	そう/名詞/* 指/名詞/*
-1.536236	そういう/連体詞/* こと/名詞/*
-0.8474192	そういう/連体詞/* の/助詞/*
-1.536236	そういう/連体詞/* わけ/名詞/*
-1.536236	そういう/連体詞/* 揚げ/名詞/*
-0.8474192	そういう/連体詞/* 訳/名詞/*
-1.536236	そういう/連体詞/* 顔/名詞/*
-0.934176	そういえば/接続詞/* ML/名詞/*
-0.934176	そういえば/接続詞/* 、/記号/*
-0.633146	そうそう/副詞/* 喋る/動詞/五段・ラ行
-1.090457	そこ/名詞/* 。/記号/*	2.702523
-1.090457	そこ/名詞/* が/助詞/*
-1.779274	そこ/名詞/* に/助詞/*
-1.779274	そこ/名詞/* の/助詞/*
-0.7054704	そこ/名詞/* は/助詞/*
-1.090457	そこ/名詞/* まで/助詞/*
-1.090457	そこ/名詞/* よ/助詞/*	0.01511259
-0.633146	そこで/接続詞/* 女/名詞/*
-0.934176	そして/接続詞/* 今/名詞/*
-0.934176	そして/接続詞/* 今まで/副詞/*
-0.633146	そっかー/感動詞/* </s>
-0.633146	その/フィラー/* さ/助詞/*
-1.888419	その/連体詞/* </s>
-1.027822	その/連体詞/* 、/記号/*
-1.888419	その/連体詞/* さ/助詞/*
-1.888419	その/連体詞/* ディレクター/名詞/*
-1.888419	その/連体詞/* 全然/副詞/*
-1.199602	その/連体詞/* 子/名詞/*
-1.888419	その/連体詞/* 彼女/名詞/*
-1.888419	その/連体詞/* 日/名詞/*
-1.888419	その/連体詞/* 旦那/名詞/*
-1.888419	その/連体詞/* 自分/名詞/*
-1.888419	その/連体詞/* 話/名詞/*
-1.888419	その/連体詞/* 辺/名詞/*
-1.888419	その/連体詞/* 週/名詞/*
-1.199602	その/連体詞/* 霊/名詞/*	0.09765936
-0.633146	そもそも/接続詞/* 日本人/名詞/*
-1.616427	それ/名詞/* 、/記号/*
-0.7690079	それ/名詞/* 。/記号/*	1.999034
-2.305244	それ/名詞/* か/助詞/*
-1.23144	それ/名詞/* が/助詞/*
-1.616427	それ/名詞/* ぐらい/助詞/*
-2.305244	それ/名詞/* こそ/助詞/*
-2.305244	それ/名詞/* それ/名詞/*
-2.305244	それ/名詞/* って/助詞/*
-2.305244	それ/名詞/* で/助詞/*
-0.5929166	それ/名詞/* は/助詞/*	-0.05925373
-2.305244	それ/名詞/* ばっかり/助詞/*
-2.305244	それ/名詞/* まで/助詞/*
-2.305244	それ/名詞/* みんな/名詞/*
-2.305244	それ/名詞/* や/助動詞/特殊・ヤ
-2.305244	それ/名詞/* やっ/助動詞/特殊・ヤ
-1.444648	それ/名詞/* を/助詞/*
-2.305244	それ/名詞/* 事実/名詞/*
-2.305244	それ/名詞/* 大きい/形容詞/形容詞・イ段
-2.305244	それ/名詞/* 好き/名詞/*
-2.305244	それ/名詞/* 日本語/名詞/*
-2.305244	それ/名詞/* 総政/名詞/*
-2.305244	それ/名詞/* 見/動詞/一段
-0.633146	それからも/接続詞/* ずっと/副詞/*
-1.478244	それで/接続詞/* 、/記号/*
-1.478244	それで/接続詞/* 。/記号/*
-1.478244	それで/接続詞/* あの/連体詞/*
-1.478244	それで/接続詞/* な/助詞/*
-1.478244	それで/接続詞/* 信じる/動詞/一段
-1.478244	それで/接続詞/* 友達/名詞/*
-1.478244	それで/接続詞/* 自分/名詞/*
-0.633146	それでいて/接続詞/* みんな/名詞/*
-0.633146	それでも/接続詞/* 彼氏/名詞/*
-0.633146	それなり/名詞/* に/助詞/*
-0.633146	そんだけ/副詞/* 。/記号/*
-1.934176	そんな/連体詞/* 「/記号/*
-1.245359	そんな/連体詞/* こと/名詞/*
-1.07358	そんな/連体詞/* もん/名詞/*	-0.08437451
-1.934176	そんな/連体詞/* ゆっ/動詞/五段・ワ行促音便
-1.934176	そんな/連体詞/* 一/名詞/*
-1.934176	そんな/連体詞/* 不細工/名詞/*
-1.934176	そんな/連体詞/* 初めて/副詞/*
-0.5311368	そんな/連体詞/* 感じ/名詞/*	0.006491571
-1.934176	そんな/連体詞/* 死/名詞/*
-1.934176	そんな/連体詞/* 続か/動詞/五段・カ行イ音便
-1.934176	そんな/連体詞/* 金/名詞/*
-1.110267	そんなに/副詞/* うち/名詞/*
-1.110267	そんなに/副詞/* お金/名詞/*
-1.110267	そんなに/副詞/* 知り合い/動詞/五段・ワ行促音便
-1.332116	そんなん/名詞/* 。/記号/*
-1.332116	そんなん/名詞/* じゃ/助動詞/特殊・ジャ
-1.332116	そんなん/名詞/* イラって/副詞/*
-1.332116	そんなん/名詞/* 急ぐ/動詞/五段・ガ行
-1.332116	そんなん/名詞/* 相手/名詞/*
-2.81499	た/助動詞/特殊・タ </s>
-2.126173	た/助動詞/特殊・タ 、/記号/*
-0.5286311	た/助動詞/特殊・タ 。/記号/*	1.290519
-2.81499	た/助動詞/特殊・タ あか/動詞/五段・カ行イ音便
-2.81499	た/助動詞/特殊・タ あたし/名詞/*
-2.126173	た/助動詞/特殊・タ か/助詞/*	-0.02890424
-2.81499	た/助動詞/特殊・タ かも/助詞/*
-1.0679	た/助動詞/特殊・タ から/助詞/*	-0.006448001
-2.81499	た/助動詞/特殊・タ くない/助詞/特殊・ナイ
-0.9777236	た/助動詞/特殊・タ けど/助詞/*	0.1419672
-1.005752	た/助動詞/特殊・タ こと/名詞/*	-0.1854594
-2.81499	た/助動詞/特殊・タ ころ/名詞/*
-1.741186	た/助動詞/特殊・タ し/助詞/*	-0.006067303
-2.81499	た/助動詞/特殊・タ だけ/助詞/*
-2.126173	た/助動詞/特殊・タ って/助詞/*
-2.126173	た/助動詞/特殊・タ で/助詞/*	-0.1771756
-2.81499	た/助動詞/特殊・タ と/助詞/*
-2.81499	た/助動詞/特殊・タ とか/助詞/*
-2.81499	た/助動詞/特殊・タ とこ/名詞/*
-1.493083	た/助動詞/特殊・タ な/助詞/*	0.2469
-2.81499	た/助動詞/特殊・タ なあ/助詞/*
-2.81499	た/助動詞/特殊・タ なー/助詞/*
-2.126173	た/助動詞/特殊・タ ね/助詞/*
-2.81499	た/助動詞/特殊・タ の/名詞/*
-2.81499	た/助動詞/特殊・タ のに/助詞/*
-2.126173	た/助動詞/特殊・タ みたい/名詞/*
-2.126173	た/助動詞/特殊・タ もん/助詞/*
-2.81499	た/助動詞/特殊・タ もん/名詞/*
-2.81499	た/助動詞/特殊・タ やつ/名詞/*
-2.81499	た/助動詞/特殊・タ やろ/助動詞/特殊・ヤ
-2.126173	た/助動詞/特殊・タ よ/助詞/*
-2.81499	た/助動詞/特殊・タ らしい/助動詞/形容詞・イ段
-1.493143	た/助動詞/特殊・タ ん/名詞/*	-0.03636164
-2.81499	た/助動詞/特殊・タ 人/名詞/*
-2.81499	た/助動詞/特殊・タ 人々/名詞/*
-2.81499	た/助動詞/特殊・タ 今/名詞/*
-2.81499	た/助動詞/特殊・タ 割/名詞/*
-2.126173	た/助動詞/特殊・タ 子/名詞/*	-0.2053274
-2.81499	た/助動詞/特殊・タ 感じ/名詞/*
-2.81499	た/助動詞/特殊・タ 生活/名詞/*
-2.81499	た/助動詞/特殊・タ 自分/名詞/*
-2.81499	た/助動詞/特殊・タ 親/名詞/*
-2.81499	た/助動詞/特殊・タ 霊/名詞/*
-1.954393	た/助動詞/特殊・タ ？/記号/*	1.36422
-2.201348	たい/助動詞/特殊・タイ 。/記号/*
-1.127544	たい/助動詞/特殊・タイ か/助詞/*	-0.02130033
-2.201348	たい/助動詞/特殊・タイ ぐらい/助詞/*
-1.127544	たい/助動詞/特殊・タイ こと/名詞/*	-0.1470916
-2.201348	たい/助動詞/特殊・タイ って/助詞/*
-1.340751	たい/助動詞/特殊・タイ と/助詞/*
-2.201348	たい/助動詞/特殊・タイ とか/助詞/*
-0.6139592	たい/助動詞/特殊・タイ な/助詞/*	0.202323
-2.201348	たい/助動詞/特殊・タイ なあ/助詞/*
-2.201348	たい/助動詞/特殊・タイ なー/助詞/*
-2.201348	たい/助動詞/特殊・タイ ねん/助詞/*
-2.201348	たい/助動詞/特殊・タイ の/名詞/*
-1.127544	たい/助動詞/特殊・タイ みたい/名詞/*	0.0067284
-1.512531	たい/助動詞/特殊・タイ もん/助詞/*
-2.201348	たい/助動詞/特殊・タイ よ/助詞/*
-1.512531	たい/助動詞/特殊・タイ ん/名詞/*
-1.411297	たかっ/助動詞/特殊・タイ た/助動詞/特殊・タ
-0.550701	たかっ/助動詞/特殊・タイ たら/助動詞/特殊・タ
-1.411297	たかっ/助動詞/特殊・タイ て/助詞/*
-1.411297	たかっ/助動詞/特殊・タイ てん/助動詞/特殊・タ
-1.110267	たく/助動詞/特殊・タイ て/助詞/*
-1.110267	たく/助動詞/特殊・タイ ない/助動詞/特殊・ナイ
-1.110267	たく/助動詞/特殊・タイ なかっ/助動詞/特殊・ナイ
-0.2453592	たげよ/動詞/一段 う/助動詞/不変化型
-0.2453592	たしなむ/動詞/五段・マ行 程度/名詞/*	0.1141481
-1.110267	ただ/接続詞/* さ/助詞/*
-1.110267	ただ/接続詞/* で/助詞/*
-1.110267	ただ/接続詞/* 嫌い/名詞/*
-0.633146	たった/副詞/* 一つ/名詞/*
-0.633146	たどり着い/動詞/五段・カ行イ音便 た/助動詞/特殊・タ
-1.235206	たぶん/副詞/* それ/名詞/*
-1.235206	たぶん/副詞/* 先生/名詞/*
-1.235206	たぶん/副詞/* 無理/名詞/*
-1.235206	たぶん/副詞/* 衝撃/名詞/*
-0.633146	たま/名詞/* に/助詞/*
-0.633146	たまに/副詞/* 日本語/名詞/*
-0.633146	たまらなく/形容詞/形容詞・アウオ段 好き/動詞/五段・カ行イ音便
-1.62557	たら/助動詞/特殊・タ </s>
-2.314387	たら/助動詞/特殊・タ 、/記号/*
-1.240584	たら/助動詞/特殊・タ 。/記号/*	2.685811
-2.314387	たら/助動詞/特殊・タ あの/連体詞/*
-2.314387	たら/助動詞/特殊・タ あんま/副詞/*
-1.240584	たら/助動詞/特殊・タ いい/形容詞/形容詞・イイ
-2.314387	たら/助動詞/特殊・タ かかる/連体詞/*
-2.314387	たら/助動詞/特殊・タ かっこよく/形容詞/形容詞・アウオ段
-2.314387	たら/助動詞/特殊・タ それなり/名詞/*
-2.314387	たら/助動詞/特殊・タ たぶん/副詞/*
-2.314387	たら/助動詞/特殊・タ だれ/名詞/*
-1.62557	たら/助動詞/特殊・タ どう/副詞/*
-2.314387	たら/助動詞/特殊・タ な/助詞/*
-2.314387	たら/助動詞/特殊・タ なんか/フィラー/*
-2.314387	たら/助動詞/特殊・タ ね/助詞/*
-2.314387	たら/助動詞/特殊・タ まあ/フィラー/*
-2.314387	たら/助動詞/特殊・タ まだ/副詞/*
-2.314387	たら/助動詞/特殊・タ みんな/名詞/*
-1.62557	たら/助動詞/特殊・タ もう/副詞/*
-1.62557	たら/助動詞/特殊・タ やっぱ/副詞/*
-2.314387	たら/助動詞/特殊・タ 一/名詞/*
-2.314387	たら/助動詞/特殊・タ 一緒/名詞/*
-2.314387	たら/助動詞/特殊・タ 中国語/名詞/*
-2.314387	たら/助動詞/特殊・タ 二/名詞/*
-2.314387	たら/助動詞/特殊・タ 今/名詞/*
-2.314387	たら/助動詞/特殊・タ 信じる/動詞/一段
-2.314387	たら/助動詞/特殊・タ 全然/副詞/*
-2.314387	たら/助動詞/特殊・タ 判ら/動詞/五段・ラ行
-2.314387	たら/助動詞/特殊・タ 大人/名詞/*
-2.314387	たら/助動詞/特殊・タ 嫌われる/動詞/一段
-2.314387	たら/助動詞/特殊・タ 学校/名詞/*
-2.314387	たら/助動詞/特殊・タ 悪い/形容詞/形容詞・アウオ段
-2.314387	たら/助動詞/特殊・タ 日本語/名詞/*
-2.314387	たら/助動詞/特殊・タ 治る/動詞/五段・ラ行
-2.314387	たら/助動詞/特殊・タ 絶対/副詞/*
-2.314387	たら/助動詞/特殊・タ 良かっ/形容詞/形容詞・アウオ段
-2.314387	たら/助動詞/特殊・タ 莫大/名詞/*
-2.314387	たら/助動詞/特殊・タ 言わ/動詞/五段・ワ行促音便
-1.110267	たり/助詞/* する/動詞/サ変・スル
-0.4214504	たり/助詞/* とか/助詞/*
-0.633146	たろ/助動詞/特殊・タ 。/記号/*
-0.6432992	たん/助動詞/特殊・タ 。/記号/*	2.702523
-1.332116	たん/助動詞/特殊・タ か/助詞/*
-1.332116	たん/助動詞/特殊・タ て/助詞/*
-1.332116	たん/助動詞/特殊・タ よ/助詞/*
-1.587389	だ/助動詞/特殊・タ 。/記号/*
-0.7267922	だ/助動詞/特殊・タ から/助詞/*
-0.8985717	だ/助動詞/特殊・タ こと/名詞/*
-1.587389	だ/助動詞/特殊・タ と/助詞/*
-1.587389	だ/助動詞/特殊・タ とこ/名詞/*
-1.587389	だ/助動詞/特殊・タ ね/助詞/*
-1.395799	だ/助動詞/特殊・ダ 。/記号/*	2.585102
-1.567578	だ/助動詞/特殊・ダ から/助詞/*
-0.934489	だ/助動詞/特殊・ダ けど/助詞/*	0.06234339
-1.567578	だ/助動詞/特殊・ダ っけ/助詞/*	0.1141481
-2.256395	だ/助動詞/特殊・ダ と/助詞/*
-2.256395	だ/助動詞/特殊・ダ とか/助詞/*
-1.182592	だ/助動詞/特殊・ダ な/助詞/*	0.1786212
-0.934489	だ/助動詞/特殊・ダ ね/助詞/*	-0.3180633
-1.182592	だ/助動詞/特殊・ダ もん/助詞/*	0.1513129
-2.256395	だ/助動詞/特殊・ダ もん/名詞/*
-0.5818566	だ/助動詞/特殊・ダ よ/助詞/*	-0.02491831
-2.256395	だ/助動詞/特殊・ダ わ/助詞/*
-2.256395	だ/助動詞/特殊・ダ 別に/副詞/*
-2.256395	だ/助動詞/特殊・ダ 彼/名詞/*
-1.090457	だから/接続詞/* 、/記号/*
-1.779274	だから/接続詞/* あえて/副詞/*
-1.779274	だから/接続詞/* うち/名詞/*
-1.779274	だから/接続詞/* そこ/名詞/*
-1.779274	だから/接続詞/* それで/接続詞/*
-1.090457	だから/接続詞/* なんか/フィラー/*
-1.779274	だから/接続詞/* ほんまに/副詞/*
-1.779274	だから/接続詞/* 全然/副詞/*
