
\data\
ngram 1=1529
ngram 2=5354
ngram 3=661

\1-grams:
-0.9859859	</s>
-99	<s>	-1.180728
-3.708208	Anything/英語/*	-0.3175582
-4.009238	B/名詞/*	-0.06770939
-4.009238	BUMPOFCHICKEN/名詞/*	-0.1127504
-4.009238	Berber/英語/*	-0.1150098
-4.009238	EC/名詞/*	-0.1080664
-4.009238	Give/英語/*	-0.06770939
-4.009238	Justin/英語/*	-0.06770939
-4.009238	ML/名詞/*	-0.1149672
-4.009238	NANA/名詞/*	-0.06770939
-4.009238	OK/英語/*	-0.1149672
-3.231087	OPA/名詞/*	-0.1837008
-4.009238	Of/英語/*	-0.06770939
-4.009238	SS/名詞/*	-0.1080664
-3.708208	Soy/英語/*	-0.3175582
-4.009238	THANK/英語/*	-0.06770939
-4.009238	Tシャツ/名詞/*	-0.1080664
-3.708208	YEAH/英語/*	-0.3175582
-4.009238	YES/英語/*	-0.06770939
-4.009238	YOU/英語/*	-0.1150098
-4.009238	another/英語/*	-0.1150098
-4.009238	course/英語/*	-0.1150098
-4.009238	give/英語/*	-0.09606394
-4.009238	me/英語/*	-0.1150098
-4.009238	ok/英語/*	-0.1149672
-4.009238	question/英語/*	-0.1150098
-4.009238	yeah/英語/*	-0.06770939
-1.368757	、/記号/*	-0.4030411
-1.055962	。/記号/*	-0.4892566
-2.967846	「/記号/*	-0.03954539
-2.967846	」/記号/*	-0.07534627
-4.009238	あ/フィラー/*	-0.09606394
-2.54684	あ/感動詞/*	-1.07543
-3.532117	ああ/感動詞/*	-0.3119448
-4.009238	ああゆう/連体詞/*	-0.1146695
-4.009238	あえ/動詞/一段	-0.09606394
-3.708208	あえて/副詞/*	-0.06704511
-3.532117	あか/動詞/五段・カ行イ音便	-0.05583781
-4.009238	あくまでも/副詞/*	-0.06770939
-4.009238	あげ/動詞/一段	-0.1024569
-3.310268	あそこ/名詞/*	-0.08554433
-2.930057	あたし/名詞/*	-0.1170371
-4.009238	あたり/名詞/*	-0.1149672
-3.16414	あっ/動詞/五段・ラ行	-0.1390025
-4.009238	あっこ/名詞/*	-0.09606394
-3.231087	あっち/名詞/*	-0.1570788
-2.805118	あと/名詞/*	-0.6756644
-4.009238	あと/接続詞/*	-0.06770939
-3.708208	あなた/名詞/*	-0.04647979
-3.532117	あの/フィラー/*	-0.1962269
-2.687019	あの/連体詞/*	-0.3523599
-4.009238	あのー/フィラー/*	-0.06770939
-2.967846	あり/動詞/五段・ラ行	-0.1975513
-3.532117	ありえ/動詞/一段	-0.06642736
-3.407178	ありがとう/感動詞/*	-0.1742923
-2.517877	ある/動詞/五段・ラ行	-0.1782999
-4.009238	ある程度/副詞/*	-0.1094037
-2.833147	あれ/名詞/*	-0.2362726
-4.009238	あん/動詞/五段・ラ行撥音便	-0.1130922
-4.009238	あんた/名詞/*	-0.1141159
-3.708208	あんだけ/副詞/*	-0.3175582
-4.009238	あんな/連体詞/*	-0.09606394
-4.009238	あんね/フィラー/*	-0.06770939
-3.16414	あんま/副詞/*	-0.03122914
-3.231087	あんまり/副詞/*	-0.1498541
-2.753966	あー/フィラー/*	-1.011491
-4.009238	あー/感動詞/*	-0.06770939
-4.009238	あーあ/感動詞/*	-0.06770939
-3.106148	い/動詞/一段	-0.1029587
-2.319042	いい/形容詞/形容詞・イイ	-0.2155993
-2.708208	いう/動詞/五段・ワ行促音便	-0.8732582
-4.009238	いえ/動詞/一段	-0.1104362
-3.532117	いか/動詞/五段・カ行促音便	-0.09539719
-4.009238	いかつい/形容詞/形容詞・アウオ段	-0.1149672
-4.009238	いき/動詞/五段・カ行促音便	-0.06770939
-3.708208	いきなり/副詞/*	-0.06742483
-3.708208	いく/動詞/五段・カ行促音便	-0.1134764
-3.708208	いけ/動詞/一段	-0.1061178
-4.009238	いけ/動詞/五段・カ行促音便	-0.1024569
-4.009238	いける/動詞/一段	-0.1135617
-4.009238	いたる/動詞/五段・ラ行	-0.1149672
-3.310268	いっ/動詞/五段・ワ行促音便	-0.1819498
-4.009238	いっか/感動詞/*	-0.1127504
-3.407178	いっつも/副詞/*	-0.2604006
-3.708208	いっぱい/副詞/*	-0.1095329
-4.009238	いつも/副詞/*	-0.06770939
-3.708208	いま/名詞/*	-0.06690264
-4.009238	いま/接頭詞/*	-0.1135617
-4.009238	いや/名詞/*	-0.06770939
-3.407178	いや/感動詞/*	-0.21564
-3.532117	いる/動詞/一段	-0.09530821
-3.708208	いれ/動詞/一段	-0.1059008
-4.009238	いろいろ/副詞/*	-0.1080664
-3.708208	いろんな/連体詞/*	-0.1104362
-2.833147	う/助動詞/不変化型	-0.3298575
-3.310268	ううん/感動詞/*	-1.586522
-2.46517	うち/名詞/*	-0.3914142
-4.009238	うどん/名詞/*	-0.06770939
-4.009238	うまい/形容詞/形容詞・アウオ段	-0.06770939
-4.009238	うまく/形容詞/形容詞・アウオ段	-0.1149672
-4.009238	うわ/感動詞/*	-0.09606394
-3.708208	うん/フィラー/*	-0.04647979
-2.276845	うん/感動詞/*	-1.69302
-3.532117	うーん/感動詞/*	-0.3119448
-3.310268	え/フィラー/*	-1.586522
-3.054996	え/感動詞/*	-0.9526571
-4.009238	ええ/形容詞/形容詞・イイ	-0.06770939
-4.009238	えっ/感動詞/*	-0.06770939
-3.532117	えっと/フィラー/*	-0.3119448
-3.532117	えっとね/フィラー/*	-0.3119448
-3.708208	えみ/名詞/*	-0.1144141
-3.708208	えらい/形容詞/形容詞・アウオ段	-0.3175582
-3.532117	えー/フィラー/*	-0.1962269
-4.009238	えーと/フィラー/*	-0.06770939
-3.310268	お/接頭詞/*	-0.345631
-3.708208	おい/動詞/一段	-0.1149672
-3.407178	おいしい/形容詞/形容詞・イ段	-0.2328208
-4.009238	おいしく/形容詞/形容詞・イ段	-0.1114234
-4.009238	おかず/名詞/*	-0.06770939
-3.708208	おじいちゃん/名詞/*	-0.0887632
-4.009238	おじけ/動詞/一段	-0.1080664
-3.310268	おっ/動詞/五段・ラ行	-0.1844167
-4.009238	おねえちゃん/名詞/*	-0.06770939
-3.708208	おば/名詞/*	-0.3579152
-4.009238	おもろい/形容詞/形容詞・アウオ段	-0.1100923
-4.009238	おもろかっ/形容詞/形容詞・アウオ段	-0.1137749
-4.009238	おら/動詞/五段・ラ行	-0.1114234
-3.16414	おる/動詞/五段・ラ行	-0.06761453
-4.009238	おれ/名詞/*	-0.06770939
-4.009238	お前/名詞/*	-0.1094037
-3.708208	お母さん/名詞/*	-0.06737738
-4.009238	お洒落/名詞/*	-0.1114234
-4.009238	お稽古/名詞/*	-0.09606394
-4.009238	お腹/名詞/*	-0.06770939
-3.532117	お金/名詞/*	-0.09521922
-2.009238	か/助詞/*	-0.1753587
-3.708208	かかる/動詞/五段・ラ行	-0.1099633
-4.009238	かかる/連体詞/*	-0.1130067
-3.532117	かけ/動詞/一段	-0.1042912
-3.407178	かっこいい/形容詞/不変化型	-0.1042476
-4.009238	かっこよかっ/形容詞/形容詞・アウオ段	-0.1149247
-3.708208	かっこよく/形容詞/形容詞・アウオ段	-0.1128786
-4.009238	かつ/接続詞/*	-0.1149672
-3.708208	かなり/副詞/*	-0.3592525
-3.054996	かも/助詞/*	-0.1658008
-2.079819	から/助詞/*	-0.26046
-4.009238	から/名詞/*	-0.1024569
-4.009238	かわいい/形容詞/形容詞・イ段	-0.06770939
-1.94478	が/助詞/*	-0.2407775
-4.009238	がい/名詞/*	-0.1150098
-3.708208	がっつり/副詞/*	-0.101098
-4.009238	がらみ/名詞/*	-0.1149672
-3.310268	き/動詞/カ変・クル	-1.62127
-4.009238	き/動詞/一段	-0.1147971
-4.009238	きらい/名詞/*	-0.1150098
-3.231087	きれい/名詞/*	-0.1262336
-4.009238	くそ/接頭詞/*	-0.06770939
-4.009238	ください/動詞/五段・ラ行特殊	-0.1024569
-3.708208	くない/助詞/特殊・ナイ	-0.1084982
-3.708208	くらい/助詞/*	-0.1148822
-3.231087	くる/動詞/カ変・クル	-0.7175635
-4.009238	くれ/動詞/一段	-0.1150098
-3.310268	くれ/動詞/一段・クレル	-1.62127
-3.532117	くれる/動詞/一段・クレル	-0.3466923
-4.009238	くれれ/動詞/一段・クレル	-0.1024569
-4.009238	くん/名詞/*	-0.1150098
-2.86311	ぐらい/助詞/*	-0.1218638
-4.009238	け/助詞/*	-0.06770939
-2.122748	けど/助詞/*	-0.6453357
-3.407178	こう/副詞/*	-0.08568082
-4.009238	こういう/連体詞/*	-0.1142863
-3.231087	ここ/名詞/*	-0.3023721
-4.009238	こそ/助詞/*	-0.1130494
-4.009238	こたつ/名詞/*	-0.06770939
-3.310268	こっち/名詞/*	-0.1718495
-2.346481	こと/名詞/*	-0.4083566
-3.708208	こないだ/名詞/*	-0.3175582
-3.407178	この/連体詞/*	-0.03400485
-4.009238	このあいだ/名詞/*	-0.06770939
-3.231087	これ/名詞/*	-0.2658392
-3.708208	これから/副詞/*	-0.06514156
-3.708208	ころ/名詞/*	-0.1014491
-4.009238	こん/動詞/五段・マ行	-0.1150098
-4.009238	こんな/連体詞/*	-0.1100923
-4.009238	こんなに/副詞/*	-0.1114234
-4.009238	ござい/助動詞/五段・ラ行特殊	-0.1148822
-3.708208	ごつい/形容詞/形容詞・アウオ段	-0.06766198
-4.009238	ごと/名詞/*	-0.1150098
-4.009238	ごはん/名詞/*	-0.1109944
-3.708208	ごめん/感動詞/*	-0.04647979
-3.532117	ご飯/名詞/*	-0.08835648
-2.490724	さ/助詞/*	-0.2585956
-3.532117	さ/動詞/サ変・スル	-0.106031
-3.16414	さあ/感動詞/*	-0.5552899
-4.009238	さけ/動詞/一段	-0.06770939
-3.708208	さすが/副詞/*	-0.04647979
-4.009238	させ/動詞/一段	-0.1127504
-3.407178	さっき/名詞/*	-0.4607362
-4.009238	さらに/副詞/*	-0.1114234
-3.708208	さん/名詞/*	-0.1146695
-2.327997	し/助詞/*	-0.3816613
-2.203058	し/動詞/サ変・スル	-0.1754717
-4.009238	し/動詞/五段・サ行	-0.1150098
-3.231087	しか/助詞/*	-0.255257
-4.009238	しかも/接続詞/*	-0.06770939
-3.708208	したら/接続詞/*	-0.09182385
-4.009238	しば/名詞/*	-0.06770939
-4.009238	しまい/動詞/五段・ワ行促音便	-0.1024569
-3.532117	しまう/動詞/五段・ワ行促音便	-0.3466923
-3.708208	しまっ/動詞/五段・ワ行促音便	-0.3523057
-4.009238	しゃあない/形容詞/形容詞・アウオ段	-0.09606394
-4.009238	しゃけ/名詞/*	-0.09606394
-3.532117	しゃべっ/動詞/五段・ラ行	-0.06490301
-4.009238	しゃべれる/動詞/一段	-0.1144992
-4.009238	しょう/名詞/*	-0.1094037
-4.009238	しょうゆ/名詞/*	-0.09606394
-3.708208	しよ/動詞/サ変・スル	-0.3643481
-3.708208	しら/動詞/五段・ラ行	-0.113391
-3.231087	しれ/動詞/一段	-0.729776
-3.407178	しんどい/形容詞/形容詞・アウオ段	-0.2026858
-3.532117	じいさん/名詞/*	-0.2134077
-2.365786	じゃ/助動詞/特殊・ジャ	-0.1270588
-3.708208	じゃ/接続詞/*	-0.04647979
-3.310268	じゃあ/接続詞/*	-0.2330983
-4.009238	じゃろ/助動詞/特殊・ジャ	-0.1136897
-3.310268	じゃん/助動詞/不変化型	-0.1142863
-4.009238	す/動詞/サ変・スル	-0.1147971
-4.009238	すいません/感動詞/*	-0.06770939
-4.009238	すぎ/動詞/一段	-0.1148397
-4.009238	すく/動詞/五段・カ行イ音便	-0.1150098
-4.009238	すぐ/副詞/*	-0.1145844
-4.009238	すげえ/感動詞/*	-0.1147971
-3.310268	すごい/形容詞/形容詞・アウオ段	-0.1410296
-4.009238	すごかっ/形容詞/形容詞・アウオ段	-0.1100923
-4.009238	すっご/形容詞/形容詞・アウオ段	-0.06770939
-4.009238	すべて/名詞/*	-0.1094037
-4.009238	すら/助詞/*	-0.1130922
-2.594265	する/動詞/サ変・スル	-0.06983933
-4.009238	すると/接続詞/*	-0.1114234
-3.310268	ず/助動詞/特殊・ヌ	-0.1137323
-3.532117	ずっと/副詞/*	-0.1021504
-3.532117	せ/副詞/*	-0.1962269
-3.407178	せ/動詞/サ変・スル	-0.2345878
-4.009238	せ/動詞/一段	-0.1149672
-3.407178	せえ/動詞/サ変・スル	-0.2219968
-3.532117	そ/副詞/*	-0.2148887
-1.908868	そう/副詞/*	-0.8492659
-3.106148	そう/名詞/*	-0.1138602
-3.106148	そういう/連体詞/*	-0.1751606
-3.708208	そういえば/接続詞/*	-0.09588625
-4.009238	そうそう/副詞/*	-0.06770939
-2.86311	そこ/名詞/*	-0.3448293
-4.009238	そこで/接続詞/*	-0.09606394
-3.708208	そして/接続詞/*	-0.3175582
-4.009238	そっかー/感動詞/*	-0.1142863
-4.009238	その/フィラー/*	-0.1143715
-2.753966	その/連体詞/*	-0.244791
-4.009238	そもそも/接続詞/*	-0.06770939
-2.337141	それ/名詞/*	-0.5293589
-4.009238	それからも/接続詞/*	-0.09606394
-3.16414	それで/接続詞/*	-0.3325775
-4.009238	それでいて/接続詞/*	-0.06770939
-4.009238	それでも/接続詞/*	-0.113263
-4.009238	それなり/名詞/*	-0.1130067
-4.009238	そんだけ/副詞/*	-0.06770939
-2.708208	そんな/連体詞/*	-0.3281996
-3.532117	そんなに/副詞/*	-0.0437829
-3.310268	そんなん/名詞/*	-0.2286901
-1.827395	た/助動詞/特殊・タ	-0.5072264
-2.441037	たい/助動詞/特殊・タイ	-0.4602613
-3.231087	たかっ/助動詞/特殊・タイ	-0.3086703
-3.532117	たく/助動詞/特殊・タイ	-0.1145843
-3.708208	たげよ/動詞/一段	-0.11228
-3.708208	たしなむ/動詞/五段・マ行	-0.09365886
-3.532117	ただ/接続詞/*	-0.0437829
-4.009238	たった/副詞/*	-0.06770939
-4.009238	たどり着い/動詞/五段・カ行イ音便	-0.1080664
-3.407178	たぶん/副詞/*	-0.1662899
-4.009238	たま/名詞/*	-0.06770939
-4.009238	たまに/副詞/*	-0.06770939
-4.009238	たまらなく/形容詞/形容詞・アウオ段	-0.1100923
-2.327997	たら/助動詞/特殊・タ	-0.2845975
-3.532117	たり/助詞/*	-0.2632662
-4.009238	たろ/助動詞/特殊・タ	-0.1150098
-3.310268	たん/助動詞/特殊・タ	-0.1940174
-3.054996	だ/助動詞/特殊・タ	-0.157604
-2.385989	だ/助動詞/特殊・ダ	-0.4675795
-2.86311	だから/接続詞/*	-0.7573117
-3.16414	だけ/助詞/*	-0.113532
-2.833147	だっ/助動詞/特殊・ダ	-0.1323485
-4.009238	だって/助詞/*	-0.1141159
-3.054996	だって/接続詞/*	-0.456507
-4.009238	だらけ/名詞/*	-0.1150098
-3.310268	だれ/名詞/*	-0.1061178
-3.532117	だろ/助動詞/特殊・タ	-0.1126649
-3.16414	だろ/助動詞/特殊・ダ	-0.2917481
-4.009238	ちっちゃい/形容詞/形容詞・アウオ段	-0.1147971
-4.009238	ちっちゃく/形容詞/形容詞・イ段	-0.1137749
-4.009238	ちゃい/動詞/五段・ワ行促音便	-0.1144567
-3.231087	ちゃう/動詞/五段・ワ行促音便	-0.1791021
-3.009238	ちゃう/動詞/五段・特殊	-0.8057383
-3.407178	ちゃっ/動詞/五段・ワ行促音便	-0.112964
-3.231087	ちゃん/名詞/*	-0.1831206
-3.708208	ちゃんと/副詞/*	-0.06723501
-4.009238	ちょ/接頭詞/*	-0.1150098
-4.009238	ちょいと/副詞/*	-0.114712
-4.009238	ちょう/接頭詞/*	-0.06770939
-3.009238	ちょっと/副詞/*	-0.2431508
-4.009238	っ/助詞/*	-0.1150098
-4.009238	っきれ/名詞/*	-0.1150098
-3.708208	っけ/助詞/*	-0.3631118
-1.975815	って/助詞/*	-0.0420763
-4.009238	つ/名詞/*	-0.1148397
-4.009238	つい/動詞/五段・カ行イ音便	-0.1080664
-4.009238	ついては/接続詞/*	-0.1061612
-4.009238	つく/動詞/五段・カ行イ音便	-0.1150098
-3.310268	つつ/助詞/*	-0.197782
-4.009238	つながり/名詞/*	-0.06770939
-4.009238	つぶれ/動詞/一段	-0.1117662
-4.009238	つらい/形容詞/形容詞・アウオ段	-0.06770939
-4.009238	つるむ/動詞/五段・マ行	-0.1061612
-1.543856	て/助詞/*	-0.4078412
-4.009238	ていう/助詞/*	-0.1147971
-3.708208	てか/接続詞/*	-0.06737738
-3.532117	てん/助動詞/特殊・タ	-0.2636926
-3.16414	てん/動詞/一段撥音便	-0.1980278
-2.687019	で/助動詞/特殊・ダ	-0.2475995
-2.122748	で/助詞/*	-0.09165231
-2.666816	で/接続詞/*	-0.9990796
-4.009238	でかい/形容詞/形容詞・アウオ段	-0.06770939
-3.407178	でき/動詞/一段	-0.1143715
-3.106148	できる/動詞/一段	-0.1279931
-3.310268	でしょ/助動詞/特殊・デス	-0.1123655
-3.009238	です/助動詞/特殊・デス	-0.1667284
-3.708208	でっかく/形容詞/形容詞・アウオ段	-0.3175582
-4.009238	でっちあげ/名詞/*	-0.1150098
-4.009238	でっち上げ/名詞/*	-0.09606394
-3.310268	では/助詞/*	-0.1117233
-2.611298	でも/助詞/*	-0.1938246
-2.385989	でも/接続詞/*	-0.6400399
-4.009238	でん/動詞/一段撥音便	-0.1150098
-4.009238	と/フィラー/*	-0.09606394
-2.031515	と/助詞/*	-0.1362503
-2.203058	とか/助詞/*	-0.05070413
-4.009238	とか/動詞/五段・カ行イ音便	-0.1123227
-3.708208	とき/名詞/*	-0.1143715
-4.009238	ときゃ/動詞/五段・カ行イ音便	-0.1140307
-4.009238	とけ/動詞/五段・カ行イ音便	-0.1135617
-3.16414	とこ/名詞/*	-0.1612307
-3.310268	ところ/名詞/*	-0.2367184
-3.407178	として/助詞/*	-0.1723412
-2.647511	とっ/動詞/五段・ラ行	-0.2928866
-4.009238	とも/助詞/*	-0.1147971
-3.407178	とりあえず/副詞/*	-0.09294367
-3.054996	とる/動詞/五段・ラ行	-0.2077558
-3.532117	とん/動詞/五段・ラ行撥音便	-0.2619843
-2.895295	どう/副詞/*	-0.05609176
-4.009238	どうにか/副詞/*	-0.09606394
-3.054996	どこ/名詞/*	-0.1824586
-4.009238	どこか/名詞/*	-0.1150098
-4.009238	どちら/名詞/*	-0.09606394
-3.708208	どっか/名詞/*	-0.0536396
-3.532117	どっち/名詞/*	-0.1962269
-3.708208	どの/連体詞/*	-0.06756713
-4.009238	どる/動詞/五段・ラ行	-0.1149672
-3.708208	どれ/名詞/*	-0.0667126
-3.708208	どんどん/副詞/*	-0.1093175
-2.022467	な/助動詞/特殊・ダ	-0.5169581
-1.623632	な/助詞/*	-0.6094608
-3.708208	なぁ/助詞/*	-0.1143289
-3.16414	なあ/助詞/*	-0.1100563
-2.022467	ない/助動詞/特殊・ナイ	-0.4362447
-2.895295	ない/形容詞/形容詞・アウオ段	-0.3152034
-2.930057	なかっ/助動詞/特殊・ナイ	-0.4083398
-4.009238	なかなか/副詞/*	-0.06770939
-3.708208	ながら/助詞/*	-0.1149247
-4.009238	なきゃ/助動詞/特殊・ナイ	-0.1123227
-2.833147	なく/助動詞/特殊・ナイ	-0.3849103
-3.708208	なく/形容詞/形容詞・アウオ段	-0.1130495
-4.009238	なさ/助動詞/特殊・ナイ	-0.1150098
-4.009238	なさい/動詞/五段・ラ行特殊	-0.1149672
-4.009238	なし/助動詞/特殊・ナイ	-0.1150098
-4.009238	なぜか/副詞/*	-0.1143289
-2.629027	なっ/動詞/五段・ラ行	-0.6385329
-3.407178	なに/名詞/*	-0.04548289
-4.009238	なにか/副詞/*	-0.1100923
-4.009238	なら/動詞/五段・ラ行	-0.1094037
-3.708208	なら/接続詞/*	-0.1146695
-3.16414	なり/動詞/五段・ラ行	-0.7897075
-3.16414	なる/動詞/五段・ラ行	-0.2560421
-4.009238	なるほど/感動詞/*	-0.06770939
-4.009238	なれ/動詞/一段	-0.1061612
-3.708208	なれる/動詞/一段	-0.1061178
-4.009238	なん/動詞/五段・ラ行撥音便	-0.1144992
-2.666816	なん/名詞/*	-0.2953647
-2.253364	なんか/フィラー/*	-0.576694
-3.708208	なんだかんだ/副詞/*	-0.09504119
-4.009238	なんて/副詞/*	-0.1148822
-3.708208	なんて/助詞/*	-0.113519
-3.009238	なんで/副詞/*	-0.2606836
-4.009238	なんとも/副詞/*	-0.1114234
-2.77879	なー/助詞/*	-0.2913671
-1.693268	に/助詞/*	-0.2630385
-4.009238	にとって/助詞/*	-0.1146695
-4.009238	によって/助詞/*	-0.1149672
-2.134177	ね/助詞/*	-0.2674106
-3.708208	ね/名詞/*	-0.1099633
-4.009238	ねぇ/助動詞/特殊・ナイ	-0.1148822
-4.009238	ねぇ/助詞/*	-0.06770939
-4.009238	ねえ/助詞/*	-0.1094037
-2.517877	ねん/助詞/*	-0.7219495
-3.708208	ねん/名詞/*	-0.1119803
-3.708208	ねー/助詞/*	-0.06761456
-1.797051	の/助詞/*	-0.14759
-2.687019	の/名詞/*	-0.1689828
-3.532117	のに/助詞/*	-0.108196
-3.708208	のん/名詞/*	-0.0949076
-1.888664	は/助詞/*	-0.263355
-2.967846	はい/感動詞/*	-0.9928399
-4.009238	はいっ/動詞/五段・ラ行	-0.1109944
-4.009238	はいる/動詞/五段・ラ行	-0.1104362
-4.009238	はー/感動詞/*	-0.06770939
-3.106148	ば/助詞/*	-0.1117234
-4.009238	ばっか/助詞/*	-0.1150098
-3.708208	ばっかり/助詞/*	-0.1111661
-4.009238	ぱって/副詞/*	-0.09606394
-4.009238	ひかれる/動詞/一段	-0.1150098
-4.009238	ひたすら/副詞/*	-0.1149672
-4.009238	ひょいひょい/副詞/*	-0.1144141
-3.708208	ひん/助動詞/特殊・ナイ	-0.1147971
-3.708208	びっくり/名詞/*	-0.09504119
-4.009238	へ/助詞/*	-0.06770939
-4.009238	へえ/感動詞/*	-0.06770939
-2.805118	へん/助動詞/特殊・ナイ	-0.275609
-3.708208	へん/名詞/*	-0.1139881
-4.009238	へんかっ/助動詞/特殊・ナイ	-0.1149247
-4.009238	へー/感動詞/*	-0.06770939
-4.009238	べき/助動詞/文語・ベシ	-0.1150098
-4.009238	ぺらぺら/副詞/*	-0.1144992
-3.532117	ほしい/形容詞/形容詞・イ段	-0.2519852
-4.009238	ほとんど/副詞/*	-0.1145418
-3.708208	ほど/助詞/*	-0.1147546
-4.009238	ほんで/接続詞/*	-0.06770939
-3.532117	ほんと/感動詞/*	-0.2126893
-3.532117	ほんとに/副詞/*	-0.05617876
-3.231087	ほんま/副詞/*	-0.280197
-4.009238	ほんま/感動詞/*	-0.112066
-3.054996	ほんまに/副詞/*	-0.07975017
-4.009238	ぼーっと/副詞/*	-0.1145418
-4.009238	ぽく/形容詞/形容詞・アウオ段	-0.1147971
-4.009238	ま/フィラー/*	-0.09606394
-4.009238	ま/感動詞/*	-0.06770939
-2.967846	まぁ/感動詞/*	-0.2663816
-2.276845	まあ/フィラー/*	-0.7786633
-4.009238	まさしく/副詞/*	-0.1114234
-3.708208	まし/助動詞/特殊・マス	-0.114712
-4.009238	まじ/副詞/*	-0.1061612
-4.009238	まじで/感動詞/*	-0.1148822
-3.310268	ます/助動詞/特殊・マス	-0.1830969
-3.708208	まず/副詞/*	-0.09088095
-3.532117	ませ/助動詞/特殊・マス	-0.3588197
-3.532117	また/接続詞/*	-0.1962269
-3.407178	まだ/副詞/*	-0.1006148
-3.009238	まで/助詞/*	-0.1942321
-4.009238	まとめ/動詞/一段	-0.06770939
-3.708208	まま/名詞/*	-0.1078935
-3.16414	み/動詞/一段	-0.7860032
-2.327997	みたい/名詞/*	-0.1635342
-2.647511	みんな/名詞/*	-0.1857071
-3.532117	むしろ/副詞/*	-0.1962269
-3.708208	むっちゃ/副詞/*	-0.04647979
-4.009238	めちゃ/副詞/*	-0.1100923
-4.009238	めちゃめちゃ/名詞/*	-0.1094037
-2.532117	めっちゃ/副詞/*	-0.2537745
-4.009238	めんどうくせえ/形容詞/形容詞・アウオ段	-0.1024569
-4.009238	めんどくさい/形容詞/形容詞・アウオ段	-0.1126221
-2.079819	も/助詞/*	-0.2185494
-2.594265	もう/副詞/*	-0.4997429
-3.708208	もうすぐ/副詞/*	-0.06742483
-4.009238	もし/副詞/*	-0.113263
-4.009238	もっさい/形容詞/形容詞・アウオ段	-0.1061612
-3.708208	もっさく/形容詞/形容詞・アウオ段	-0.06756713
-3.532117	もっと/副詞/*	-0.05855792
-3.708208	もの/名詞/*	-0.1091883
-4.009238	もらえ/動詞/五段・ワ行促音便	-0.1024569
-4.009238	もらえる/動詞/一段	-0.1024569
-4.009238	もらわ/動詞/五段・ワ行促音便	-0.1024569
-2.647511	もん/助詞/*	-0.2446604
-2.930057	もん/名詞/*	-0.1852318
-2.16414	や/助動詞/特殊・ヤ	-0.1975761
-3.231087	や/助詞/*	-0.2169794
-3.708208	やさしい/形容詞/形容詞・イ段	-0.3639221
-4.009238	やすい/形容詞/形容詞・アウオ段	-0.1142011
-2.708208	やっ/助動詞/特殊・ヤ	-0.1409933
-2.629027	やっ/動詞/五段・ラ行	-0.1077905
-4.009238	やっす/形容詞/形容詞・アウオ段	-0.09606394
-2.805118	やっぱ/副詞/*	-0.2843043
-4.009238	やっぱり/副詞/*	-0.113263
-3.16414	やつ/名詞/*	-0.1852246
-3.054996	やばい/形容詞/形容詞・アウオ段	-0.4534752
-4.009238	やばく/形容詞/形容詞・アウオ段	-0.06770939
-4.009238	やべー/感動詞/*	-0.06770939
-3.708208	やめ/動詞/一段	-0.0536396
-3.708208	やら/動詞/五段・ラ行	-0.1043348
-4.009238	やられ/動詞/一段	-0.1146269
-3.310268	やり/動詞/五段・ラ行	-0.1935015
-2.833147	やろ/助動詞/特殊・ヤ	-0.2088116
-2.687019	やん/助動詞/特殊・ヤ	-0.05048376
-3.532117	ゆ/動詞/五段・ワ行促音便	-0.3466923
-3.532117	ゆう/動詞/五段・ワ行促音便	-0.2466542
-4.009238	ゆうこ/名詞/*	-0.06770939
-3.054996	ゆっ/動詞/五段・ワ行促音便	-0.379529
-3.708208	ゆっくり/副詞/*	-0.06723501
-4.009238	ゆっこ/名詞/*	-0.1126221
-2.09016	よ/助詞/*	-0.3198311
-3.16414	よう/名詞/*	-0.1682939
-3.231087	よかっ/形容詞/形容詞・アウオ段	-0.1918054
-3.310268	よく/形容詞/形容詞・アウオ段	-0.05710284
-4.009238	よさ/形容詞/形容詞・アウオ段	-0.1139881
-4.009238	よら/動詞/五段・ラ行	-0.1061612
-3.106148	より/助詞/*	-0.1590146
-3.310268	ら/名詞/*	-0.2408129
-3.310268	らしい/助動詞/形容詞・イ段	-0.1044655
-4.009238	らしくっ/助動詞/形容詞・イ段	-0.1150098
-3.407178	られ/動詞/一段	-0.1142863
-2.504088	る/動詞/一段	-1.371338
-2.708208	れ/動詞/一段	-0.3249942
-3.231087	れる/動詞/一段	-0.333902
-3.16414	わ/助詞/*	-0.1027194
-4.009238	わかっ/動詞/五段・ラ行	-0.1104362
-3.054996	わから/動詞/五段・ラ行	-0.2412395
-4.009238	わかる/動詞/五段・ラ行	-0.1145418
-3.708208	わかん/動詞/五段・ラ行	-0.1133057
-4.009238	わがまま/名詞/*	-0.114712
-3.708208	わけ/名詞/*	-0.1100923
-3.532117	わざわざ/副詞/*	-0.09356951
-3.532117	わり/名詞/*	-0.04896203
-2.385989	を/助詞/*	-0.1774538
-2.327997	ん/助動詞/特殊・ナイ	-0.4860718
-2.594265	ん/助詞/*	-0.2936513
-2.122748	ん/名詞/*	-0.7467512
-3.532117	んかっ/助動詞/特殊・ナイ	-0.1139028
-3.532117	んく/助動詞/特殊・ナイ	-0.1147971
-4.009238	んち/名詞/*	-0.1149672
-3.407178	んー/フィラー/*	-0.1531314
-4.009238	アイ/感動詞/*	-0.06770939
-4.009238	アイアムカルロス/感動詞/*	-0.09606394
-4.009238	アウトゴーイング/名詞/*	-0.06770939
-4.009238	アクターズ/名詞/*	-0.06770939
-3.708208	アクティブ/名詞/*	-0.11228
-4.009238	アップ/名詞/*	-0.1061612
-4.009238	アナザークエスチョン/感動詞/*	-0.09606394
-3.532117	アメ/名詞/*	-0.06747225
-3.708208	アメリカ/名詞/*	-0.112066
-4.009238	アン/名詞/*	-0.1126221
-4.009238	イグ/名詞/*	-0.06770939
-3.407178	イケメン/名詞/*	-0.05676262
-4.009238	イチゴ/名詞/*	-0.1145844
-3.708208	イッチー/名詞/*	-0.04647979
-3.708208	イメージ/名詞/*	-0.1078071
-3.708208	イラって/副詞/*	-0.1147971
-4.009238	インターナショナル/名詞/*	-0.1149672
-4.009238	インド/名詞/*	-0.06770939
-4.009238	エンジョイ/名詞/*	-0.113263
-3.407178	オーストラリア/名詞/*	-0.1897761
-4.009238	カッコイイ/形容詞/不変化型	-0.1100923
-4.009238	カルロス/名詞/*	-0.1141159
-3.708208	カ月/名詞/*	-0.1143289
-4.009238	ガタイ/名詞/*	-0.1137749
-3.708208	ガチ/名詞/*	-0.06747226
-4.009238	ガンジス/名詞/*	-0.06770939
-4.009238	キムタク/名詞/*	-0.1127504
-4.009238	キムヒキム・ヒョンジュン/名詞/*	-0.09606394
-4.009238	キムヒョンジュン/名詞/*	-0.1148822
-3.708208	キャンパス/名詞/*	-0.364731
-4.009238	キュウリ/名詞/*	-0.1094037
-4.009238	キョーコ/名詞/*	-0.1138176
-4.009238	クソ/接頭詞/*	-0.1150098
-3.16414	ケント/名詞/*	-0.09759147
-3.708208	コウタ/名詞/*	-0.1076774
-3.708208	コナミ/名詞/*	-0.04647979
-4.009238	コミュニティー/名詞/*	-0.1142011
-4.009238	コロッケ/名詞/*	-0.1149672
-4.009238	コンピュータ/名詞/*	-0.1148822
-3.708208	ゴキブリ/名詞/*	-0.3175582
-4.009238	ゴスペル/名詞/*	-0.1135617
-3.708208	ゴリラ/名詞/*	-0.1068116
-4.009238	サムワン/感動詞/*	-0.1150098
-3.231087	サークル/名詞/*	-0.1505233
-3.708208	ザ/名詞/*	-0.04647979
-3.708208	シューズ/名詞/*	-0.1075909
-3.708208	ショパン/名詞/*	-0.0536396
-4.009238	シン/名詞/*	-0.1149672
-3.708208	ジブリアニメ/名詞/*	-0.3175582
-4.009238	ジャズ/名詞/*	-0.06770939
-4.009238	スクリプト/名詞/*	-0.1147971
-4.009238	スター/名詞/*	-0.1149672
-4.009238	ストライク/名詞/*	-0.1149672
-4.009238	ストライクゾーン/名詞/*	-0.1149672
-4.009238	ストリート/名詞/*	-0.1141159
-3.407178	スペイン/名詞/*	-0.04142192
-4.009238	スラムダンク/名詞/*	-0.1109944
-3.708208	センス/名詞/*	-0.3175582
-4.009238	ゼミ/名詞/*	-0.1080664
-4.009238	ゼロ/名詞/*	-0.1148397
-4.009238	ソナチネ/名詞/*	-0.1139455
-4.009238	ソース/名詞/*	-0.1139881
-3.106148	タイプ/名詞/*	-0.6001009
-4.009238	タカラヅカ/名詞/*	-0.09606394
-4.009238	タレント/名詞/*	-0.113647
-4.009238	ダサい/形容詞/形容詞・アウオ段	-0.1147971
-4.009238	ダメ/名詞/*	-0.1100923
-4.009238	ダンサー/名詞/*	-0.1127504
-3.231087	ダンス/名詞/*	-0.04473373
-4.009238	チュチュ/名詞/*	-0.1143289
-4.009238	チョンて/副詞/*	-0.06770939
-4.009238	テニ/名詞/*	-0.1109944
-4.009238	テレビ/名詞/*	-0.09606394
-4.009238	テロン/名詞/*	-0.1061612
-3.708208	テロンアイランド/名詞/*	-0.0630859
-3.708208	ディレクター/名詞/*	-0.09526373
-3.708208	デレキ/名詞/*	-0.102019
-3.708208	トイレ/名詞/*	-0.04647979
-3.16414	トゥシューズ/名詞/*	-0.2426073
-3.708208	ド/接頭詞/*	-0.09743865
-4.009238	ドストライク/名詞/*	-0.06770939
-4.009238	ドン/副詞/*	-0.1150098
-4.009238	ドンフレ/名詞/*	-0.06770939
-4.009238	ドーン/副詞/*	-0.06770939
-4.009238	ニロ/名詞/*	-0.06770939
-4.009238	ネイキ/名詞/*	-0.1045962
-3.708208	ノリ/名詞/*	-0.05991163
-3.708208	ハウス/名詞/*	-0.364816
-4.009238	ハッシー/名詞/*	-0.06770939
-3.532117	バイト/名詞/*	-0.1962269
-2.967846	バレエ/名詞/*	-0.1650731
-4.009238	バレエシューズ/名詞/*	-0.06770939
-3.532117	バレリーナ/名詞/*	-0.243406
-3.708208	パン/名詞/*	-0.1121516
-4.009238	ヒロ/名詞/*	-0.1150098
-3.231087	ピアノ/名詞/*	-0.240757
-4.009238	ピュア/名詞/*	-0.06770939
-4.009238	ピーピー/感動詞/*	-0.1045962
-4.009238	フランス/名詞/*	-0.1143715
-4.009238	フランス語/名詞/*	-0.1146695
-3.708208	フルーツ/名詞/*	-0.1046397
-4.009238	フレックス/名詞/*	-0.1150098
-3.708208	フレンドリー/名詞/*	-0.1101353
-3.708208	フレーク/名詞/*	-0.1149672
-3.708208	ブランコ/名詞/*	-0.09597511
-4.009238	プライド/名詞/*	-0.06770939
-3.708208	プラス/名詞/*	-0.06761456
-4.009238	プラスアルファ/名詞/*	-0.06770939
-3.708208	プロ/名詞/*	-0.09263042
-3.708208	ベスト/名詞/*	-0.0630859
-4.009238	ホゼ/名詞/*	-0.09606394
-4.009238	ボランティア/名詞/*	-0.09606394
-4.009238	ボリボリ/副詞/*	-0.09606394
-4.009238	ボロ/名詞/*	-0.1149672
-4.009238	ボロボロ/名詞/*	-0.06770939
-4.009238	ボールペン/名詞/*	-0.1061612
-3.708208	ポルトガル/名詞/*	-0.3175582
-3.708208	ポン/名詞/*	-0.09088095
-4.009238	マイミク/名詞/*	-0.06770939
-4.009238	マジシャン/名詞/*	-0.1109086
-3.407178	マスコミ/名詞/*	-0.04473371
-4.009238	マチュピチュ/名詞/*	-0.1094037
-4.009238	マンション/名詞/*	-0.1149672
-3.708208	ミカン/名詞/*	-0.08677123
-4.009238	メガネ/名詞/*	-0.1150098
-4.009238	メキシコ/名詞/*	-0.06770939
-3.708208	メディア/名詞/*	-0.09365886
-4.009238	メロン/名詞/*	-0.09606394
-4.009238	ヤクソン/名詞/*	-0.1145844
-4.009238	ライン/名詞/*	-0.1080664
-4.009238	ラコス/名詞/*	-0.06770939
-4.009238	ラブ/名詞/*	-0.1150098
-3.407178	リアリー/感動詞/*	-0.1746719
-4.009238	リハーサル/名詞/*	-0.09606394
-4.009238	リュック/名詞/*	-0.06770939
-4.009238	リンゴ/名詞/*	-0.1149672
-4.009238	ルイ/名詞/*	-0.09606394
-4.009238	ルカワ/名詞/*	-0.06770939
-3.532117	レッスン/名詞/*	-0.04712653
-4.009238	レベル/名詞/*	-0.1080664
-3.708208	ロッククライミング/名詞/*	-0.04647979
-3.708208	ローソン/名詞/*	-0.1055967
-4.009238	ワルツ/名詞/*	-0.06770939
-4.009238	ワントゥ/感動詞/*	-0.1148822
-2.805118	一/名詞/*	-0.0576818
-3.532117	一つ/名詞/*	-0.1140307
-3.009238	一人/名詞/*	-0.09991165
-4.009238	一人ひとり/名詞/*	-0.1135617
-4.009238	一分/名詞/*	-0.1024569
-3.708208	一応/副詞/*	-0.04647979
-4.009238	一旦/副詞/*	-0.1147971
-4.009238	一月/名詞/*	-0.1149247
-4.009238	一概/名詞/*	-0.1100923
-3.407178	一番/名詞/*	-0.1689417
-3.310268	一緒/名詞/*	-0.1380096
-3.407178	一般/名詞/*	-0.5079091
-4.009238	一足/名詞/*	-0.1114234
-4.009238	七/名詞/*	-0.1147546
-4.009238	万/名詞/*	-0.114712
-2.930057	三/名詞/*	-0.1765156
-3.708208	三つ/名詞/*	-0.3459128
-3.407178	三田/名詞/*	-0.08023348
-4.009238	三角形/名詞/*	-0.1150098
-4.009238	上/名詞/*	-0.1150098
-4.009238	上がら/動詞/五段・ラ行	-0.1094037
-3.407178	上が原/名詞/*	-0.1494268
-4.009238	上げ/動詞/一段	-0.1150098
-3.708208	上手く/形容詞/形容詞・アウオ段	-0.1142437
-4.009238	不可能/名詞/*	-0.1114234
-4.009238	不思議/名詞/*	-0.09606394
-3.407178	不細工/名詞/*	-0.09392674
-4.009238	不経済/名詞/*	-0.1149247
-4.009238	与え/動詞/一段	-0.113263
-4.009238	世/名詞/*	-0.1114234
-3.708208	世の中/名詞/*	-0.06499846
-3.532117	世界/名詞/*	-0.06595158
-4.009238	世界中/名詞/*	-0.1146695
-3.407178	世間/名詞/*	-0.191833
-4.009238	世間体/名詞/*	-0.09606394
-3.231087	中/名詞/*	-0.32264
-3.708208	中国/名詞/*	-0.0953972
-3.708208	中国語/名詞/*	-0.108714
-3.708208	中学/名詞/*	-0.09584181
-4.009238	中学校/名詞/*	-0.09606394
-4.009238	中断/名詞/*	-0.1147971
-4.009238	中途半端/名詞/*	-0.1137749
-4.009238	中間/名詞/*	-0.06770939
-4.009238	乗せれる/動詞/一段・可能	-0.1127504
-4.009238	乗っ/動詞/五段・ラ行	-0.1150098
-4.009238	乗り移る/動詞/五段・ラ行	-0.1100923
-4.009238	予定/名詞/*	-0.1148397
-4.009238	事務所/名詞/*	-0.1080664
-4.009238	事実/名詞/*	-0.1130494
-2.930057	二/名詞/*	-0.09735351
-4.009238	二人/名詞/*	-0.1141585
-3.407178	五/名詞/*	-0.1133483
-4.009238	亜紀/名詞/*	-0.1148822
-4.009238	亡くなっ/動詞/五段・ラ行	-0.1149672
-2.365786	人/名詞/*	-0.3963912
-3.708208	人々/名詞/*	-0.1084982
-4.009238	人嫌い/名詞/*	-0.1137749
-4.009238	人数/名詞/*	-0.1149672
-3.231087	人生/名詞/*	-0.159495
-3.231087	人見知り/名詞/*	-0.05938034
-3.310268	人間/名詞/*	-0.08023348
-2.666816	今/名詞/*	-0.134341
-3.708208	今に/副詞/*	-0.3175582
-3.407178	今まで/副詞/*	-0.1535799
-3.708208	今年/名詞/*	-0.0577825
-4.009238	今後/副詞/*	-0.06770939
-3.407178	今日/名詞/*	-0.1708124
-4.009238	仕事/名詞/*	-0.06770939
-4.009238	仕立て/動詞/一段	-0.1061612
-3.708208	他/名詞/*	-0.1076341
-4.009238	以上/名詞/*	-0.06770939
-3.532117	以外/名詞/*	-0.06756712
-4.009238	仲/名詞/*	-0.06770939
-4.009238	仲良かっ/形容詞/形容詞・アウオ段	-0.09606394
-4.009238	仲良く/副詞/*	-0.1114234
-4.009238	仲良く/形容詞/形容詞・アウオ段	-0.1024569
-3.532117	伊丹/名詞/*	-0.1962269
-3.708208	会う/動詞/五段・ワ行促音便	-0.06714007
-4.009238	会話/名詞/*	-0.1117662
-4.009238	伝われ/動詞/五段・ラ行	-0.1061612
-4.009238	伸び/動詞/一段	-0.1149672
-4.009238	似/動詞/一段	-0.1100923
-4.009238	似合い/動詞/五段・ワ行促音便	-0.1100923
-4.009238	似合っ/動詞/五段・ワ行促音便	-0.1123227
-4.009238	低い/形容詞/形容詞・アウオ段	-0.114712
-4.009238	住ん/動詞/五段・マ行	-0.1061612
-3.708208	体/名詞/*	-0.09472943
-4.009238	体重/名詞/*	-0.1150098
-2.594265	何/名詞/*	-0.3325169
-4.009238	何で/副詞/*	-0.06770939
-4.009238	何とか/名詞/*	-0.1094037
-4.009238	作為/名詞/*	-0.1080664
-4.009238	使い/動詞/五段・ワ行促音便	-0.1149247
-4.009238	使い方/名詞/*	-0.1080664
-4.009238	使う/動詞/五段・ワ行促音便	-0.1149247
-3.532117	使える/動詞/一段	-0.0663798
-4.009238	使わ/動詞/五段・ワ行促音便	-0.113263
-4.009238	例/名詞/*	-0.06770939
-3.532117	例えば/接続詞/*	-0.06135734
-3.708208	信じ/動詞/一段	-0.1125794
-3.708208	信じる/動詞/一段	-0.1127076
-4.009238	俺/名詞/*	-0.1149672
-4.009238	個性/名詞/*	-0.1126221
-4.009238	候補/名詞/*	-0.1127504
-4.009238	値上がり/名詞/*	-0.1135617
-4.009238	停止/名詞/*	-0.1150098
-4.009238	健太/名詞/*	-0.1150098
-3.708208	側/名詞/*	-0.1145418
-4.009238	働い/動詞/五段・カ行イ音便	-0.1117662
-4.009238	働く/動詞/五段・カ行イ音便	-0.1150098
-4.009238	優しい/形容詞/形容詞・イ段	-0.06770939
-4.009238	優遇/名詞/*	-0.09606394
-4.009238	元気/名詞/*	-0.1146269
-3.708208	兄さん/名詞/*	-0.1078503
-4.009238	先/名詞/*	-0.1141585
-4.009238	先に/副詞/*	-0.1114234
-3.16414	先生/名詞/*	-0.03793237
-4.009238	先輩/名詞/*	-0.1150098
-4.009238	先週/名詞/*	-0.06770939
-2.708208	入っ/動詞/五段・ラ行	-0.3100424
-4.009238	入ら/動詞/五段・ラ行	-0.1061612
-3.532117	入り/動詞/五段・ラ行	-0.3503966
-4.009238	入り/名詞/*	-0.1139455
-4.009238	入る/動詞/五段・ラ行	-0.06770939
-3.532117	入れ/動詞/一段	-0.2430486
-4.009238	入れる/動詞/一段	-0.1114234
-4.009238	全/名詞/*	-0.1061612
-3.407178	全く/副詞/*	-0.05447134
-4.009238	全て/名詞/*	-0.06770939
-3.532117	全体/名詞/*	-0.06126111
-2.46517	全然/副詞/*	-0.364235
-3.106148	全部/名詞/*	-0.2280917
-3.532117	八/名詞/*	-0.1115091
-4.009238	公用/名詞/*	-0.1149247
-3.310268	公立/名詞/*	-0.2154187
-4.009238	六/名詞/*	-0.1143715
-4.009238	共通/名詞/*	-0.1149247
-4.009238	具合/名詞/*	-0.1150098
-3.407178	円/名詞/*	-0.3644758
-4.009238	冬/名詞/*	-0.06770939
-3.054996	出/動詞/一段	-0.1385204
-4.009238	出る/動詞/一段	-0.1149672
-4.009238	出会う/動詞/五段・ワ行促音便	-0.1149672
-4.009238	出会え/動詞/一段	-0.1109944
-3.708208	出会っ/動詞/五段・ワ行促音便	-0.1059876
-4.009238	出口/名詞/*	-0.1080664
-4.009238	出産/名詞/*	-0.1109944
-4.009238	出身/名詞/*	-0.1148822
-3.532117	分/名詞/*	-0.1144566
-4.009238	分/接頭詞/*	-0.1147971
-4.009238	分から/動詞/五段・ラ行	-0.06770939
-4.009238	分かん/動詞/五段・ラ行	-0.1135617
-3.708208	分野/名詞/*	-0.364816
-4.009238	切れ/動詞/一段	-0.1149672
-4.009238	初め/動詞/一段	-0.1100923
-3.708208	初めて/副詞/*	-0.1118947
-4.009238	判ら/動詞/五段・ラ行	-0.1130067
-2.967846	別に/副詞/*	-0.2040253
-4.009238	別れ/動詞/一段	-0.06770939
-4.009238	制/名詞/*	-0.1150098
-3.407178	前/名詞/*	-0.1073313
-4.009238	割/名詞/*	-0.1085414
-3.106148	力/名詞/*	-0.1840729
-4.009238	勇気/名詞/*	-0.1150098
-3.532117	勉強/名詞/*	-0.2447883
-4.009238	勘弁/名詞/*	-0.1094037
-3.708208	勝手/名詞/*	-0.06718755
-4.009238	化/名詞/*	-0.1150098
-4.009238	化し/動詞/五段・サ行	-0.1150098
-3.106148	十/名詞/*	-0.2317162
-3.708208	十字路/名詞/*	-0.3579152
-3.310268	千/名詞/*	-0.1978671
-4.009238	半分/名詞/*	-0.09606394
-3.708208	協力/名詞/*	-0.09182385
-4.009238	南/名詞/*	-0.1080664
-4.009238	危険/名詞/*	-0.1149247
-3.708208	原因/名詞/*	-0.06217447
-4.009238	友/名詞/*	-0.1094037
-4.009238	友子/名詞/*	-0.1150098
-2.86311	友達/名詞/*	-0.06188981
-3.708208	受け/動詞/一段	-0.106031
-4.009238	受け入れる/動詞/一段	-0.1137749
-4.009238	受験/名詞/*	-0.1147971
-4.009238	古着/名詞/*	-0.114712
-4.009238	台湾/名詞/*	-0.1094037
-3.532117	右/名詞/*	-0.3574983
-3.708208	右側/名詞/*	-0.3459128
-4.009238	合コン/名詞/*	-0.09606394
-4.009238	同じ/名詞/*	-0.1080664
-3.708208	同じ/連体詞/*	-0.09182385
-4.009238	名/名詞/*	-0.1148822
-3.708208	名前/名詞/*	-0.1139881
-4.009238	向い/動詞/五段・カ行イ音便	-0.1061612
-4.009238	向こう/名詞/*	-0.113263
-4.009238	君/名詞/*	-0.1149672
-4.009238	否定/名詞/*	-0.1135617
-4.009238	吹き替え/動詞/一段	-0.1145844
-4.009238	告ら/動詞/五段・ラ行	-0.1061612
-4.009238	呑ん/動詞/五段・マ行	-0.1061612
-4.009238	周り/名詞/*	-0.1080664
-4.009238	呼ぶ/動詞/五段・バ行	-0.113263
-4.009238	呼ん/動詞/五段・バ行	-0.1104362
-4.009238	唇/名詞/*	-0.06770939
-3.708208	問題/名詞/*	-0.1065516
-4.009238	喋っ/動詞/五段・ラ行	-0.1061612
-3.407178	喋る/動詞/五段・ラ行	-0.1059876
-4.009238	喋ろ/動詞/五段・ラ行	-0.06770939
-4.009238	喜べる/動詞/一段	-0.1061612
-3.708208	嘘/名詞/*	-0.1121516
-4.009238	噛ま/動詞/五段・マ行	-0.06770939
-3.310268	四/名詞/*	-0.2929518
-4.009238	四月/名詞/*	-0.06770939
-3.532117	回/名詞/*	-0.3586068
-3.708208	回生/名詞/*	-0.1143289
-3.407178	図書館/名詞/*	-0.07866446
-3.708208	国/名詞/*	-0.0887632
-4.009238	国外/名詞/*	-0.09606394
-4.009238	地味/名詞/*	-0.06770939
-3.708208	地球/名詞/*	-0.04647979
-4.009238	型/名詞/*	-0.1150098
-3.310268	基本/名詞/*	-0.1266192
-4.009238	場合/名詞/*	-0.1080664
-4.009238	場所/名詞/*	-0.1147971
-3.16414	塩/名詞/*	-0.2458619
-3.708208	塾/名詞/*	-0.1036806
-4.009238	増え/動詞/一段	-0.1100923
-3.708208	壁/名詞/*	-0.09597511
-4.009238	声/名詞/*	-0.1148822
-3.708208	声変わり/名詞/*	-0.06294212
-4.009238	変/名詞/*	-0.06770939
-3.708208	外人/名詞/*	-0.1065516
-4.009238	外国/名詞/*	-0.1139881
-4.009238	多い/形容詞/形容詞・アウオ段	-0.1100923
-2.77879	多分/副詞/*	-0.2059028
-4.009238	夜/名詞/*	-0.1148822
-4.009238	夢/名詞/*	-0.1100923
-4.009238	大/名詞/*	-0.09606394
-4.009238	大き/形容詞/形容詞・イ段	-0.1143715
-4.009238	大きい/形容詞/形容詞・イ段	-0.1130494
-4.009238	大っ/接頭詞/*	-0.06770939
-3.532117	大丈夫/名詞/*	-0.2033868
-3.708208	大事/名詞/*	-0.06217447
-3.532117	大人/名詞/*	-0.06533228
-4.009238	大変/名詞/*	-0.06770939
-4.009238	大好き/名詞/*	-0.1148822
-4.009238	大嫌い/名詞/*	-0.1100923
-3.231087	大学/名詞/*	-0.3058392
-4.009238	大敵/名詞/*	-0.1104362
-4.009238	大自然/名詞/*	-0.06770939
-3.708208	太郎/名詞/*	-0.09588625
-3.708208	夫婦/名詞/*	-0.1059442
-3.532117	奈美恵/名詞/*	-0.3591175
-4.009238	奥/名詞/*	-0.1150098
-3.231087	女/名詞/*	-0.0432315
-4.009238	好/名詞/*	-0.1100923
-4.009238	好き/動詞/五段・カ行イ音便	-0.1150098
-2.504088	好き/名詞/*	-0.3025307
-4.009238	妄想/名詞/*	-0.1061612
-4.009238	姉さん/名詞/*	-0.1080664
-3.708208	姉ちゃん/名詞/*	-0.3646885
-4.009238	始め/動詞/一段	-0.1135617
-3.310268	嫌/名詞/*	-0.1704456
-3.231087	嫌い/動詞/五段・ワ行促音便	-0.1012736
-3.407178	嫌い/名詞/*	-0.1746719
-4.009238	嫌われる/動詞/一段	-0.1130067
-2.77879	子/名詞/*	-0.2550393
-4.009238	存在/名詞/*	-0.09606394
-4.009238	学問/名詞/*	-0.09606394
-3.231087	学校/名詞/*	-0.1071445
-4.009238	学生/名詞/*	-0.06770939
-3.231087	孫/名詞/*	-0.1473975
-3.708208	宇宙/名詞/*	-0.04647979
-4.009238	安く/形容詞/形容詞・アウオ段	-0.1137749
-3.407178	安室/名詞/*	-0.2358728
-4.009238	完ぺき/名詞/*	-0.1149247
-4.009238	完全/名詞/*	-0.1149247
-4.009238	実は/接続詞/*	-0.1143289
-3.708208	実家/名詞/*	-0.05991163
-4.009238	実現/名詞/*	-0.113263
-4.009238	実行/名詞/*	-0.09606394
-4.009238	害/名詞/*	-0.1147546
-3.708208	家/名詞/*	-0.3579152
-3.708208	家族/名詞/*	-0.1069849
-4.009238	対し/動詞/五段・サ行	-0.1061612
-3.708208	将来/名詞/*	-0.0955751
-4.009238	小/接頭詞/*	-0.1114234
-4.009238	小学校/名詞/*	-0.1148397
-4.009238	小池/名詞/*	-0.06770939
-3.708208	小１/名詞/*	-0.3175582
-4.009238	小２/名詞/*	-0.06770939
-4.009238	小３/名詞/*	-0.06770939
-4.009238	少ない/形容詞/形容詞・アウオ段	-0.1104362
-4.009238	少なく/形容詞/形容詞・アウオ段	-0.06770939
-4.009238	少年/名詞/*	-0.1149672
-4.009238	就活/名詞/*	-0.1150098
-4.009238	就職/名詞/*	-0.1148822
-4.009238	届か/動詞/五段・カ行イ音便	-0.1114234
-4.009238	履い/動詞/五段・カ行イ音便	-0.113263
-4.009238	履か/動詞/五段・カ行イ音便	-0.1145844
-3.532117	山口/名詞/*	-0.06130923
-4.009238	島/名詞/*	-0.06770939
-4.009238	嵌り/動詞/五段・ラ行	-0.1150098
-4.009238	川/名詞/*	-0.1150098
-4.009238	巨峰/名詞/*	-0.09606394
-4.009238	差/名詞/*	-0.1080664
-4.009238	巻き込ん/動詞/五段・マ行	-0.114712
-4.009238	市/名詞/*	-0.1149247
-4.009238	布/名詞/*	-0.1141585
-4.009238	希望/名詞/*	-0.1150098
-4.009238	師範/名詞/*	-0.1080664
-4.009238	帯/名詞/*	-0.1147971
-4.009238	帰ろ/動詞/五段・ラ行	-0.1024569
-4.009238	帰省/名詞/*	-0.1100923
-4.009238	干渉/名詞/*	-0.1061612
-4.009238	年/名詞/*	-0.1139455
-4.009238	年上/名詞/*	-0.1149247
-3.708208	年下/名詞/*	-0.06761456
-4.009238	年間/名詞/*	-0.1143715
-4.009238	年齢/名詞/*	-0.06770939
-3.407178	幼稚園/名詞/*	-0.2020627
-4.009238	広/形容詞/形容詞・アウオ段	-0.1061612
-4.009238	延長線/名詞/*	-0.06770939
-4.009238	引っ越す/動詞/五段・サ行	-0.1149672
-3.708208	強化/名詞/*	-0.1131776
-4.009238	弾い/動詞/五段・カ行イ音便	-0.1150098
-4.009238	弾く/動詞/五段・カ行イ音便	-0.1147971
-4.009238	弾け/動詞/一段	-0.06770939
-3.708208	弾ける/動詞/一段	-0.101098
-4.009238	当てはめる/動詞/一段	-0.1148397
-4.009238	彩香/名詞/*	-0.1109944
-4.009238	役/名詞/*	-0.1150098
-3.532117	彼/名詞/*	-0.1038988
-3.532117	彼女/名詞/*	-0.09960271
-3.310268	彼氏/名詞/*	-0.08640806
-3.532117	後/名詞/*	-0.2173617
-4.009238	後輩/名詞/*	-0.09606394
-4.009238	得る/動詞/一段	-0.1145844
-4.009238	御堂/名詞/*	-0.09606394
-4.009238	徴兵/名詞/*	-0.1143715
-4.009238	心/名詞/*	-0.1148822
-4.009238	心斎橋/名詞/*	-0.09606394
-4.009238	忍耐/名詞/*	-0.09606394
-3.310268	忘れ/動詞/一段	-0.04348222
-3.310268	怖い/形容詞/形容詞・アウオ段	-0.03808468
-4.009238	思いつく/動詞/五段・カ行イ音便	-0.1149672
-4.009238	思い出し/動詞/五段・サ行	-0.1150098
-2.407178	思う/動詞/五段・ワ行促音便	-1.089981
-3.708208	思え/動詞/一段	-0.360285
-2.86311	思っ/動詞/五段・ワ行促音便	-0.4499641
-3.310268	思わ/動詞/五段・ワ行促音便	-0.1938025
-4.009238	急ぐ/動詞/五段・ガ行	-0.1148397
-4.009238	性/名詞/*	-0.1150098
-4.009238	性別/名詞/*	-0.1104362
-3.532117	性格/名詞/*	-0.05520391
-3.708208	恋し/動詞/サ変・−スル	-0.1138176
-3.407178	恋愛/名詞/*	-0.1078071
-4.009238	恐れ/動詞/一段	-0.09606394
-4.009238	恥ずかしい/形容詞/形容詞・イ段	-0.09606394
-3.407178	悪い/形容詞/形容詞・アウオ段	-0.2144877
-4.009238	悪かっ/形容詞/形容詞・アウオ段	-0.1100923
-4.009238	悪く/形容詞/形容詞・アウオ段	-0.1114234
-3.708208	惹か/動詞/五段・カ行イ音便	-0.06499846
-3.407178	意外/名詞/*	-0.04036285
-4.009238	意見/名詞/*	-0.1080664
-3.407178	感じ/動詞/一段	-0.2030415
-2.647511	感じ/名詞/*	-0.6556323
-3.708208	感謝/名詞/*	-0.1061178
-3.708208	憧れ/動詞/一段	-0.35601
-3.532117	成功/名詞/*	-0.2590647
-3.532117	成長/名詞/*	-0.08704338
-4.009238	戦う/動詞/五段・ワ行促音便	-0.09606394
-4.009238	戻し/動詞/五段・サ行	-0.1150098
-3.708208	戻っ/動詞/五段・ラ行	-0.1052055
-4.009238	手/名詞/*	-0.1061612
-4.009238	手/接頭詞/*	-0.06770939
-4.009238	手芸/名詞/*	-0.06770939
-3.532117	才能/名詞/*	-0.2457222
-4.009238	才色兼備/名詞/*	-0.06770939
-4.009238	批判的/名詞/*	-0.06770939
-3.708208	抜き/名詞/*	-0.1142863
-4.009238	拒否ら/動詞/五段・ラ行	-0.1114234
-3.708208	持っ/動詞/五段・タ行	-0.06756713
-4.009238	持て/動詞/五段・タ行	-0.1100923
-4.009238	指/名詞/*	-0.114712
-4.009238	振り返る/動詞/五段・ラ行	-0.1147971
-3.532117	捏ね/動詞/一段	-0.2147456
-3.708208	接し/動詞/五段・サ行	-0.35601
-4.009238	接する/動詞/サ変・−スル	-0.1109944
-4.009238	揚げ/名詞/*	-0.114712
-3.708208	政治/名詞/*	-0.04647979
-4.009238	救い/動詞/五段・ワ行促音便	-0.1144141
-3.708208	教え/動詞/一段	-0.1113805
-4.009238	教員/名詞/*	-0.1143715
-3.407178	教室/名詞/*	-0.2146608
-4.009238	文/名詞/*	-0.1080664
-3.532117	料理/名詞/*	-0.05681124
-4.009238	新しく/形容詞/形容詞・イ段	-0.1061612
-4.009238	新た/名詞/*	-0.1149247
-3.708208	新聞/名詞/*	-0.04647979
-2.967846	方/名詞/*	-0.4024745
-4.009238	方向/名詞/*	-0.1149247
-3.708208	旅行/名詞/*	-0.09597511
-3.708208	日/名詞/*	-0.1136044
-3.407178	日本/名詞/*	-0.2363478
-3.708208	日本人/名詞/*	-0.1149247
-3.310268	日本語/名詞/*	-0.0416737
-3.532117	旦那/名詞/*	-0.05904187
-3.708208	早い/形容詞/形容詞・アウオ段	-0.06714007
-4.009238	早乙女/名詞/*	-0.1118519
-3.708208	昇格/名詞/*	-0.08677123
-4.009238	明るい/形容詞/形容詞・アウオ段	-0.1149672
-4.009238	明るく/形容詞/形容詞・アウオ段	-0.1150098
-4.009238	明子/名詞/*	-0.09606394
-3.16414	昔/名詞/*	-0.223706
-4.009238	昨日/名詞/*	-0.09606394
-4.009238	昼/名詞/*	-0.1126221
-4.009238	時/名詞/*	-0.1146695
-4.009238	時代/名詞/*	-0.1080664
-3.231087	時間/名詞/*	-0.211982
-4.009238	普通/副詞/*	-0.1143289
-2.666816	普通/名詞/*	-0.2223683
-4.009238	暮らし/動詞/五段・サ行	-0.1150098
-4.009238	暴い/動詞/五段・カ行イ音便	-0.113263
-4.009238	曲/名詞/*	-0.1137323
-4.009238	曲がり/動詞/五段・ラ行	-0.1061612
-4.009238	曲がる/動詞/五段・ラ行	-0.1061612
-3.708208	書い/動詞/五段・カ行イ音便	-0.1103502
-4.009238	書き初め/名詞/*	-0.06770939
-4.009238	書き換えん/動詞/一段撥音便	-0.1061612
-3.532117	最初/名詞/*	-0.2541691
-3.532117	最終/名詞/*	-0.1962269
-3.231087	最近/名詞/*	-0.1690223
-4.009238	月末/名詞/*	-0.1148822
-3.708208	月謝/名詞/*	-0.09472943
-4.009238	有名/名詞/*	-0.1080664
-4.009238	期待/名詞/*	-0.1061612
-4.009238	未来/名詞/*	-0.1150098
-4.009238	末/名詞/*	-0.1150098
-3.708208	本/名詞/*	-0.1082392
-4.009238	本当に/副詞/*	-0.06770939
-3.708208	本気/名詞/*	-0.09872074
-4.009238	本郷/名詞/*	-0.1143289
-4.009238	本間/名詞/*	-0.1100923
-3.532117	村/名詞/*	-0.3591601
-2.967846	来/動詞/カ変・来ル	-0.08776907
-4.009238	来る/動詞/カ変・来ル	-0.1061612
-4.009238	来ん/動詞/カ変・来ル撥音便	-0.1149672
-4.009238	松田/名詞/*	-0.06770939
-4.009238	染まっ/動詞/五段・ラ行	-0.1139455
-4.009238	柿/名詞/*	-0.09606394
-4.009238	校舎/名詞/*	-0.1150098
-4.009238	根性/名詞/*	-0.1094037
-4.009238	格好/名詞/*	-0.1150098
-4.009238	桃/名詞/*	-0.09606394
-4.009238	棟/名詞/*	-0.1144992
-4.009238	森山/名詞/*	-0.06770939
-3.708208	楽/名詞/*	-0.1064215
-3.407178	楽しい/形容詞/形容詞・イ段	-0.1024569
-4.009238	楽しかっ/形容詞/形容詞・イ段	-0.09606394
-4.009238	楽しく/形容詞/形容詞・イ段	-0.1024569
-4.009238	概念/名詞/*	-0.1126221
-4.009238	横/名詞/*	-0.1080664
-4.009238	機関/名詞/*	-0.1080664
-4.009238	次/接頭詞/*	-0.06770939
-4.009238	次に/接続詞/*	-0.06770939
-4.009238	欧米/名詞/*	-0.1061612
-4.009238	歌/名詞/*	-0.09606394
-4.009238	歌謡曲/名詞/*	-0.09606394
-4.009238	止め/動詞/一段	-0.1150098
-3.532117	正味/副詞/*	-0.05583781
-4.009238	正当/名詞/*	-0.1114234
-4.009238	武道/名詞/*	-0.06770939
-4.009238	歩い/動詞/五段・カ行イ音便	-0.1123227
-3.708208	歳/名詞/*	-0.3643906
-4.009238	死/名詞/*	-0.1142011
-4.009238	死に/動詞/五段・ナ行	-0.1114234
-4.009238	死にかけ/動詞/一段	-0.1148822
-3.231087	死ぬ/動詞/五段・ナ行	-0.2618854
-3.532117	死ん/動詞/五段・ナ行	-0.06504615
-3.708208	残念/名詞/*	-0.3175582
-3.532117	段/名詞/*	-0.06690262
-4.009238	殺さ/動詞/五段・サ行	-0.09606394
-3.532117	母親/名詞/*	-0.04638018
-4.009238	毒/名詞/*	-0.1045962
-3.708208	比べ/動詞/一段	-0.35601
-3.231087	気/名詞/*	-0.06073148
-4.009238	気さく/名詞/*	-0.1140733
-4.009238	気まずい/形容詞/形容詞・アウオ段	-0.06770939
-4.009238	気付い/動詞/五段・カ行イ音便	-0.1117662
-4.009238	気分/名詞/*	-0.1109086
-4.009238	気持ち/名詞/*	-0.1109086
-4.009238	水島/名詞/*	-0.1123227
-3.407178	水泳/名詞/*	-0.04031235
-3.708208	求め/動詞/一段	-0.05422688
-4.009238	汚く/形容詞/形容詞・アウオ段	-0.1149247
-4.009238	決め/動詞/一段	-0.1117662
-4.009238	治っ/動詞/五段・ラ行	-0.1061612
-4.009238	治る/動詞/五段・ラ行	-0.1130067
-4.009238	洋子/名詞/*	-0.1126221
-4.009238	洞窟/名詞/*	-0.06770939
-4.009238	津山/名詞/*	-0.06770939
-4.009238	活動/名詞/*	-0.1150098
-4.009238	派/名詞/*	-0.1149247
-4.009238	派手/名詞/*	-0.06770939
-4.009238	流/動詞/一段	-0.1148822
-3.532117	流/名詞/*	-0.3591175
-4.009238	流さ/動詞/五段・サ行	-0.1024569
-3.708208	流星/名詞/*	-0.3175582
-3.407178	浮気/名詞/*	-0.08713407
-4.009238	海外/名詞/*	-0.1150098
-3.532117	消え/動詞/一段	-0.05211876
-4.009238	深い/形容詞/形容詞・アウオ段	-0.06770939
-3.708208	深く/形容詞/形容詞・アウオ段	-0.04647979
-4.009238	清楚/名詞/*	-0.1126221
-4.009238	済まし/動詞/五段・サ行	-0.1141159
-4.009238	滑り/名詞/*	-0.1144141
-3.708208	漢字/名詞/*	-0.3459128
-4.009238	灰色/名詞/*	-0.06770939
-4.009238	炒め/動詞/一段	-0.06770939
-4.009238	無い/助動詞/形容詞・イ段	-0.09606394
-4.009238	無敵/名詞/*	-0.1123227
-3.231087	無理/名詞/*	-0.05162705
-4.009238	無理やり/副詞/*	-0.1127504
-4.009238	無難/名詞/*	-0.06770939
-4.009238	無駄/名詞/*	-0.1126221
-4.009238	熱心/名詞/*	-0.1149247
-4.009238	熱愛/名詞/*	-0.06770939
-4.009238	爪先/名詞/*	-0.06770939
-4.009238	片足/名詞/*	-0.06770939
-4.009238	片道/名詞/*	-0.09606394
-3.532117	版/名詞/*	-0.2645443
-3.708208	物/名詞/*	-0.1144992
-4.009238	状態/名詞/*	-0.1149672
-4.009238	珍しく/形容詞/形容詞・イ段	-0.06770939
-4.009238	現れる/動詞/一段	-0.1100923
-4.009238	理工/名詞/*	-0.1141159
-4.009238	理想/名詞/*	-0.1150098
-3.708208	理由/名詞/*	-0.06217447
-4.009238	環境/名詞/*	-0.1109086
-3.708208	瓶/名詞/*	-0.1141159
-3.708208	生き/動詞/一段	-0.1110802
-3.532117	生まれ/動詞/一段	-0.09249607
-3.708208	生徒/名詞/*	-0.1039424
-3.407178	生活/名詞/*	-0.05246263
-3.231087	男/名詞/*	-0.2129768
-3.532117	男の子/名詞/*	-0.3523017
-4.009238	男子/名詞/*	-0.114712
-4.009238	男性/名詞/*	-0.1109086
-4.009238	留学/名詞/*	-0.1140733
-4.009238	疑っ/動詞/五段・ラ行	-0.09606394
-4.009238	病院/名詞/*	-0.06770939
-3.708208	痛い/形容詞/形容詞・アウオ段	-0.06766198
-4.009238	痩せ/動詞/一段	-0.1094037
-4.009238	発表会/名詞/*	-0.1150098
-4.009238	登る/動詞/五段・ラ行	-0.1150098
-4.009238	登ん/動詞/五段・ラ行撥音便	-0.1149672
-4.009238	白い/形容詞/形容詞・アウオ段	-0.1100923
-3.708208	白く/形容詞/形容詞・アウオ段	-0.06217447
-3.310268	百/名詞/*	-0.05133173
-2.77879	的/名詞/*	-0.2372648
-4.009238	皿/名詞/*	-0.1114234
-3.407178	目/名詞/*	-0.221784
-4.009238	目指し/動詞/五段・サ行	-0.113263
-4.009238	目的/名詞/*	-0.1080664
-4.009238	直し/動詞/五段・サ行	-0.1061612
-3.708208	直進/名詞/*	-0.09419448
-3.231087	相手/名詞/*	-0.1957786
-3.708208	県/名詞/*	-0.3647735
-3.708208	着/名詞/*	-0.1142011
-3.532117	知っ/動詞/五段・ラ行	-0.06466436
-2.967846	知ら/動詞/五段・ラ行	-0.05301926
-4.009238	知らず/名詞/*	-0.1149672
-3.708208	知り/動詞/五段・ラ行	-0.04647979
-4.009238	知りあい/名詞/*	-0.1135617
-3.532117	知り合い/動詞/五段・ワ行促音便	-0.06742481
-4.009238	知り合い/名詞/*	-0.1140733
-4.009238	知れ/動詞/一段	-0.1146695
-4.009238	知識/名詞/*	-0.1139455
-3.708208	硬い/形容詞/形容詞・アウオ段	-0.1056402
-3.708208	確か/副詞/*	-0.1098772
-3.708208	確か/名詞/*	-0.3459128
-3.16414	確かに/感動詞/*	-0.2048673
-4.009238	確認/名詞/*	-0.1117662
-4.009238	社/名詞/*	-0.1149672
-3.708208	神/名詞/*	-0.04647979
-3.054996	私/名詞/*	-0.3490182
-4.009238	私立/名詞/*	-0.1061612
-4.009238	秒/名詞/*	-0.1145418
-4.009238	移さ/動詞/五段・サ行	-0.1114234
-4.009238	移り/動詞/五段・ラ行	-0.1061612
-3.708208	程度/名詞/*	-0.364816
-4.009238	空き/動詞/五段・カ行イ音便	-0.1061612
-4.009238	突然/副詞/*	-0.06770939
-4.009238	立つ/動詞/五段・タ行	-0.1117662
-4.009238	筋/名詞/*	-0.1150098
-4.009238	答え/動詞/一段	-0.09606394
-4.009238	範囲/名詞/*	-0.1149247
-3.708208	簡単/名詞/*	-0.3636238
-3.708208	粉/名詞/*	-0.3175582
-3.231087	系/名詞/*	-0.114712
-4.009238	系統的/名詞/*	-0.1127504
-4.009238	約束/名詞/*	-0.1126221
-4.009238	素直/名詞/*	-0.1127504
-4.009238	細く/形容詞/形容詞・アウオ段	-0.1147971
-4.009238	細め/動詞/一段	-0.1094037
-4.009238	終わっ/動詞/五段・ラ行	-0.1117662
-4.009238	終わり/動詞/五段・ラ行	-0.1094037
-4.009238	組/名詞/*	-0.1143715
-4.009238	経た/動詞/五段・タ行	-0.1107798
-3.532117	経済/名詞/*	-0.04438366
-3.708208	経験/名詞/*	-0.1103932
-3.231087	結婚/名詞/*	-0.1921251
-2.930057	結構/副詞/*	-0.179892
-4.009238	絞る/動詞/五段・ラ行	-0.1061612
-4.009238	絵/名詞/*	-0.1109944
-4.009238	絵画/名詞/*	-0.06770939
-2.967846	絶対/副詞/*	-0.3597606
-3.708208	絶対/名詞/*	-0.106855
-4.009238	続か/動詞/五段・カ行イ音便	-0.1142011
-3.532117	続け/動詞/一段	-0.1074611
-4.009238	続けよ/動詞/一段	-0.1147971
-4.009238	総政/名詞/*	-0.1130494
-4.009238	練/名詞/*	-0.1150098
-3.407178	練習/名詞/*	-0.05339465
-4.009238	置い/動詞/五段・カ行イ音便	-0.1061612
-3.532117	美しい/形容詞/形容詞・イ段	-0.2541255
-3.708208	美形/名詞/*	-0.1078071
-4.009238	美貌/名詞/*	-0.1141585
-3.708208	習い/動詞/五段・ワ行促音便	-0.1100493
-3.407178	習い事/名詞/*	-0.04573232
-4.009238	習う/動詞/五段・ワ行促音便	-0.1117662
-4.009238	習える/動詞/一段	-0.1150098
-3.708208	習っ/動詞/五段・ワ行促音便	-0.1130067
-3.054996	習字/名詞/*	-0.1527624
-4.009238	習得/名詞/*	-0.113263
-4.009238	考え/動詞/一段	-0.1148397
-4.009238	考え/名詞/*	-0.1150098
-4.009238	考えれる/動詞/一段・可能	-0.1130922
-3.310268	者/名詞/*	-0.3958063
-3.708208	聞い/動詞/五段・カ行イ音便	-0.08677123
-4.009238	聞か/動詞/五段・カ行イ音便	-0.1061612
-4.009238	聴講/名詞/*	-0.1144567
-4.009238	肌/名詞/*	-0.1149247
-4.009238	肩/名詞/*	-0.1150098
-4.009238	育ち/動詞/五段・タ行	-0.1149247
-3.407178	背/名詞/*	-0.1692781
-3.407178	能力/名詞/*	-0.5078665
-4.009238	脱い/動詞/五段・ガ行	-0.06770939
-3.708208	自体/名詞/*	-0.1130495
-2.895295	自分/名詞/*	-0.146079
-4.009238	自制心/名詞/*	-0.06770939
-4.009238	自由/名詞/*	-0.1114234
-3.407178	自立/名詞/*	-0.1659996
-4.009238	至る/動詞/五段・ラ行	-0.1149672
-4.009238	興味/名詞/*	-0.06770939
-4.009238	舞台/名詞/*	-0.1080664
-3.708208	良かっ/形容詞/形容詞・アウオ段	-0.1126649
-4.009238	色々/副詞/*	-0.1114234
-4.009238	色気/名詞/*	-0.1140733
-3.532117	色白/名詞/*	-0.05349264
-4.009238	色素/名詞/*	-0.1150098
-4.009238	花/名詞/*	-0.1141585
-3.708208	花園/名詞/*	-0.364816
-3.708208	若い/形容詞/形容詞・アウオ段	-0.3175582
-4.009238	若く/動詞/五段・カ行イ音便	-0.06770939
-4.009238	苦労/名詞/*	-0.1147971
-2.895295	英語/名詞/*	-0.2738398
-4.009238	茶色/名詞/*	-0.09606394
-4.009238	荒れ/動詞/一段	-0.1146269
-4.009238	莫大/名詞/*	-0.1130067
-3.708208	落ち/動詞/一段	-0.1110802
-3.708208	蒲焼き/名詞/*	-0.3175582
-3.532117	薄い/形容詞/形容詞・アウオ段	-0.1009663
-4.009238	薄く/形容詞/形容詞・アウオ段	-0.1144992
-4.009238	藤/名詞/*	-0.1080664
-4.009238	血/名詞/*	-0.1149247
-4.009238	行か/動詞/五段・カ行促音便	-0.1061612
-3.407178	行き/動詞/五段・カ行促音便	-0.2559315
-4.009238	行き方/名詞/*	-0.1080664
-3.532117	行く/動詞/五段・カ行促音便	-0.3503966
-4.009238	行ける/動詞/一段	-0.1117662
-3.106148	行っ/動詞/五段・カ行促音便	-0.09051196
-4.009238	衝撃/名詞/*	-0.1148822
-4.009238	衣装/名詞/*	-0.09606394
-4.009238	裕/名詞/*	-0.1150098
-4.009238	西北/名詞/*	-0.06770939
-4.009238	要するに/副詞/*	-0.1115091
-3.708208	要る/動詞/五段・ラ行	-0.06666507
-2.46517	見/動詞/一段	-0.1543844
-4.009238	見え/動詞/一段	-0.1061612
-4.009238	見える/動詞/一段	-0.1149672
-4.009238	見つかる/動詞/五段・ラ行	-0.1100923
-3.708208	見る/動詞/一段	-0.06404323
-4.009238	見出し/動詞/五段・サ行	-0.113263
-3.310268	覚え/動詞/一段	-0.1427735
-3.708208	親/名詞/*	-0.06044229
-4.009238	親しみ/動詞/五段・マ行	-0.1061612
-4.009238	解散/名詞/*	-0.06770939
-4.009238	解釈/名詞/*	-0.1061612
-3.708208	言い/動詞/五段・ワ行促音便	-0.1147971
-3.106148	言う/動詞/五段・ワ行促音便	-0.1621219
-4.009238	言え/動詞/一段	-0.1150098
-2.930057	言っ/動詞/五段・ワ行促音便	-0.1649804
-2.833147	言わ/動詞/五段・ワ行促音便	-0.276382
-3.532117	言語/名詞/*	-0.06666505
-4.009238	記憶/名詞/*	-0.1135617
-3.532117	訳/名詞/*	-0.2644166
-3.310268	話/名詞/*	-0.2356345
-3.708208	話題/名詞/*	-0.1079368
-4.009238	認識/名詞/*	-0.1150098
-3.054996	語/名詞/*	-0.24412
-4.009238	語っ/動詞/五段・ラ行	-0.113263
-4.009238	語彙/名詞/*	-0.09606394
-4.009238	読ん/動詞/五段・マ行	-0.1123227
-4.009238	読売新聞/名詞/*	-0.06770939
-3.532117	誰/名詞/*	-0.2134077
-4.009238	課外/名詞/*	-0.1144992
-4.009238	豆/名詞/*	-0.06770939
-4.009238	豊か/名詞/*	-0.1150098
-4.009238	豚汁/名詞/*	-0.1150098
-3.708208	貧乏/名詞/*	-0.1138602
-4.009238	責め/動詞/一段	-0.1114234
-4.009238	責める/動詞/一段	-0.113263
-3.708208	買っ/動詞/五段・ワ行促音便	-0.1113376
-4.009238	質問/名詞/*	-0.1146269
-4.009238	走っ/動詞/五段・ラ行	-0.09606394
-3.532117	超/接頭詞/*	-0.06034584
-4.009238	越し/動詞/五段・サ行	-0.114712
-3.310268	趣味/名詞/*	-0.03451693
-4.009238	足/名詞/*	-0.1061612
-3.532117	距離/名詞/*	-0.2487768
-4.009238	踊っ/動詞/五段・ラ行	-0.1117662
-3.708208	踊ら/動詞/五段・ラ行	-0.1060744
-3.708208	身近/名詞/*	-0.09124038
-4.009238	載っ/動詞/五段・ラ行	-0.1061612
-4.009238	輪/名詞/*	-0.1080664
-4.009238	辞め/動詞/一段	-0.1104362
-3.708208	辺/名詞/*	-0.113391
-4.009238	近い/名詞/*	-0.1149247
-3.532117	近い/形容詞/形容詞・アウオ段	-0.1023693
-4.009238	近所/名詞/*	-0.1137749
-4.009238	迷っ/動詞/五段・ワ行促音便	-0.1146269
-4.009238	逆/名詞/*	-0.09606394
-4.009238	逆/接頭詞/*	-0.1138176
-3.708208	逆に/接続詞/*	-0.06514156
-4.009238	透明/名詞/*	-0.114712
-3.708208	通っ/動詞/五段・ラ行	-0.1019314
-4.009238	連れ/動詞/一段	-0.1061612
-4.009238	連絡/名詞/*	-0.1146269
-3.708208	週/名詞/*	-0.09526373
-3.532117	週/接頭詞/*	-0.06732991
-4.009238	進ん/動詞/五段・マ行	-0.113263
-3.708208	遊び/動詞/五段・バ行	-0.3459128
-3.708208	遊ん/動詞/五段・バ行	-0.08677123
-4.009238	運動/名詞/*	-0.09606394
-3.708208	過ぎ/動詞/一段	-0.1142863
-4.009238	過去/名詞/*	-0.1147971
-3.532117	道/名詞/*	-0.07536958
-4.009238	道具/名詞/*	-0.1146695
-4.009238	道徳/名詞/*	-0.06770939
-4.009238	違い/動詞/五段・ワ行促音便	-0.1080664
-4.009238	違い/名詞/*	-0.1080664
-2.895295	違う/動詞/五段・ワ行促音便	-0.1418946
-3.708208	違う/感動詞/*	-0.09584181
-4.009238	違っ/動詞/五段・ワ行促音便	-0.1148822
-3.532117	遠い/形容詞/形容詞・アウオ段	-0.06327751
-3.532117	遺産/名詞/*	-0.3591601
-4.009238	部分/名詞/*	-0.1104362
-3.708208	部活/名詞/*	-0.06318173
-4.009238	醤油/名詞/*	-0.06770939
-3.532117	金/名詞/*	-0.09083598
-3.708208	金持ち/名詞/*	-0.1144141
-4.009238	長い/形容詞/形容詞・アウオ段	-0.1100923
-4.009238	閉め/動詞/一段	-0.1114234
-4.009238	開い/動詞/五段・カ行イ音便	-0.1150098
-3.708208	間/名詞/*	-0.06695013
-4.009238	間違え/動詞/一段	-0.06770939
-4.009238	間違っ/動詞/五段・ワ行促音便	-0.09606394
-4.009238	関し/動詞/五段・サ行	-0.1061612
-3.231087	関係/名詞/*	-0.302104
-3.708208	関学/名詞/*	-0.04647979
-4.009238	闘わ/動詞/五段・ワ行促音便	-0.06770939
-4.009238	限り/名詞/*	-0.1109086
-3.708208	陶芸/名詞/*	-0.04647979
-4.009238	隣/名詞/*	-0.1149672
-4.009238	離婚/名詞/*	-0.1114234
-4.009238	難い/形容詞/形容詞・アウオ段	-0.1149672
-4.009238	難しい/形容詞/形容詞・イ段	-0.1100923
-3.708208	雰囲気/名詞/*	-0.06413885
-3.310268	霊/名詞/*	-0.1902632
-4.009238	青/名詞/*	-0.09606394
-4.009238	青かっ/形容詞/形容詞・アウオ段	-0.1094037
-4.009238	青井/名詞/*	-0.06770939
-4.009238	面倒くさい/形容詞/形容詞・アウオ段	-0.1149247
-4.009238	面白く/形容詞/形容詞・アウオ段	-0.1146695
-3.407178	韓/名詞/*	-0.04433363
-3.310268	韓国/名詞/*	-0.121369
-3.708208	韓流/名詞/*	-0.3175582
-4.009238	音声/名詞/*	-0.1024569
-4.009238	音読み/名詞/*	-0.1080664
-4.009238	頃/名詞/*	-0.1141585
-3.708208	頑張っ/動詞/五段・ラ行	-0.06723501
-3.532117	頭/名詞/*	-0.0521679
-4.009238	頼り/名詞/*	-0.1150098
-2.895295	顔/名詞/*	-0.2374322
-4.009238	願う/動詞/五段・ワ行促音便	-0.113263
-4.009238	類/名詞/*	-0.06770939
-4.009238	風/名詞/*	-0.1109086
-4.009238	風景/名詞/*	-0.1139455
-3.532117	風邪/名詞/*	-0.3119448
-4.009238	飛ぶ/動詞/五段・バ行	-0.1148397
-4.009238	飛ん/動詞/五段・バ行	-0.1149672
-4.009238	食う/動詞/五段・ワ行促音便	-0.1150098
-3.231087	食べ/動詞/一段	-0.1321595
-3.532117	食べる/動詞/一段	-0.09213767
-4.009238	食べれ/動詞/一段・可能	-0.1145844
-4.009238	食べん/動詞/一段撥音便	-0.1117662
-3.532117	食べ物/名詞/*	-0.3551439
-3.407178	食堂/名詞/*	-0.03904803
-4.009238	食材/名詞/*	-0.1150098
-4.009238	駅/名詞/*	-0.1150098
-4.009238	騙す/動詞/五段・サ行	-0.113263
-3.231087	高い/形容詞/形容詞・アウオ段	-0.218604
-4.009238	高く/形容詞/形容詞・アウオ段	-0.1094037
-3.532117	高校/名詞/*	-0.04623076
-4.009238	髪/名詞/*	-0.09606394
-4.009238	髪の毛/名詞/*	-0.06770939
-3.708208	髪形/名詞/*	-0.04647979
-3.708208	魅力/名詞/*	-0.1108227
-4.009238	鮭/名詞/*	-0.06770939
-4.009238	鵜呑み/名詞/*	-0.113263
-4.009238	鶴/名詞/*	-0.06770939
-4.009238	黄色く/形容詞/形容詞・アウオ段	-0.1150098
-4.009238	黒/名詞/*	-0.06770939
-4.009238	黒め/動詞/一段	-0.06770939
-3.231087	！/記号/*	-0.09867659
-4.009238	％/名詞/*	-0.1148397
-4.009238	１月/名詞/*	-0.1150098
-2.284962	？/記号/*	-0.1187877

\2-grams:
-3.656399	<s> Soy/英語/*
-3.656399	<s> YEAH/英語/*
-3.656399	<s> YES/英語/*
-3.656399	<s> YOU/英語/*
-3.656399	<s> 、/記号/*
-0.07046001	<s> 。/記号/*	0.02482948
-3.656399	<s> いい/形容詞/形容詞・イイ
-2.967582	<s> か/助詞/*
-2.795802	<s> から/助詞/*
-3.656399	<s> が/助詞/*
-2.334552	<s> けど/助詞/*	0.04606904
-2.967582	<s> さ/助詞/*
-3.656399	<s> さあ/感動詞/*
-2.334492	<s> し/助詞/*
-3.656399	<s> したら/接続詞/*
-3.656399	<s> じゃあ/接続詞/*
-3.656399	<s> じゃん/助動詞/不変化型
-3.656399	<s> そっかー/感動詞/*
-3.656399	<s> その/連体詞/*
-3.656399	<s> た/助動詞/特殊・タ
-2.967582	<s> たら/助動詞/特殊・タ
-2.795802	<s> って/助詞/*
-3.656399	<s> つつ/助詞/*
-2.334552	<s> て/助詞/*
-3.656399	<s> できる/動詞/一段
-3.656399	<s> と/助詞/*
-2.582595	<s> な/助動詞/特殊・ダ	-0.1615077
-1.877124	<s> な/助詞/*	-0.01421613
-2.967582	<s> ない/助動詞/特殊・ナイ
-3.656399	<s> なんか/フィラー/*
-2.967582	<s> なー/助詞/*
-2.334492	<s> ね/助詞/*	-0.03169587
-3.656399	<s> ねん/助詞/*
-2.967582	<s> の/助詞/*
-2.967582	<s> は/助詞/*
-3.656399	<s> はい/感動詞/*
-3.656399	<s> ほんまに/副詞/*
-3.656399	<s> みんな/名詞/*
-3.656399	<s> もう/副詞/*
-3.656399	<s> もん/助詞/*
-3.656399	<s> や/助動詞/特殊・ヤ
-3.656399	<s> やん/助動詞/特殊・ヤ
-3.656399	<s> キュウリ/名詞/*
-3.656399	<s> ストライク/名詞/*
-3.656399	<s> ピーピー/感動詞/*
-3.656399	<s> 何/名詞/*
-3.656399	<s> 使える/動詞/一段
-3.656399	<s> 全然/副詞/*
-3.656399	<s> 前/名詞/*
-3.656399	<s> 場合/名詞/*
-3.656399	<s> 才能/名詞/*
-3.656399	<s> 未来/名詞/*
-3.656399	<s> 色白/名詞/*
-3.656399	<s> 違う/動詞/五段・ワ行促音便
-3.656399	<s> 髪/名詞/*
-2.334552	<s> ！/記号/*
-1.298977	<s> ？/記号/*	0.01499686
-0.2453592	Anything/英語/* </s>
-0.633146	B/名詞/* </s>
-0.633146	BUMPOFCHICKEN/名詞/* まあ/フィラー/*
-0.633146	Berber/英語/* Justin/英語/*
-0.633146	EC/名詞/* の/助詞/*
-0.633146	Give/英語/* </s>
-0.633146	Justin/英語/* </s>
-0.633146	ML/名詞/* そういえば/接続詞/*
-0.633146	NANA/名詞/* </s>
-0.633146	OK/英語/* Anything/英語/*
-0.7224804	OPA/名詞/* </s>
-0.7224804	OPA/名詞/* 、/記号/*
-1.411297	OPA/名詞/* から/助詞/*
-1.411297	OPA/名詞/* の/助詞/*
-0.633146	Of/英語/* </s>
-0.633146	SS/名詞/* の/助詞/*
-0.2453592	Soy/英語/* </s>
-0.633146	THANK/英語/* </s>
-0.633146	Tシャツ/名詞/* の/助詞/*
-0.2453592	YEAH/英語/* </s>
-0.633146	YES/英語/* </s>
-0.633146	YOU/英語/* THANK/英語/*
-0.633146	another/英語/* me/英語/*
-0.633146	course/英語/* Of/英語/*
-0.633146	give/英語/* 、/記号/*
-0.633146	me/英語/* give/英語/*
-0.633146	ok/英語/* Anything/英語/*
-0.633146	question/英語/* another/英語/*
-0.633146	yeah/英語/* </s>
-3.273628	、/記号/* Give/英語/*
-1.526538	、/記号/* あ/感動詞/*	0.3114193
-3.273628	、/記号/* ああ/感動詞/*
-2.199824	、/記号/* あと/名詞/*	0.2376841
-2.584811	、/記号/* あの/フィラー/*
-3.273628	、/記号/* ある/動詞/五段・ラ行
-2.584811	、/記号/* あれ/名詞/*
-3.273628	、/記号/* あんね/フィラー/*
-2.199824	、/記号/* あー/フィラー/*	0.6867766
-3.273628	、/記号/* あーあ/感動詞/*
-3.273628	、/記号/* いう/動詞/五段・ワ行促音便
-3.273628	、/記号/* いや/感動詞/*
-3.273628	、/記号/* う/助動詞/不変化型
-3.273628	、/記号/* ううん/感動詞/*
-3.273628	、/記号/* うち/名詞/*
-3.273628	、/記号/* うわ/感動詞/*
-1.686239	、/記号/* うん/感動詞/*	0.7403627
-2.413031	、/記号/* うーん/感動詞/*	-0.008886569
-1.951721	、/記号/* え/感動詞/*	0.2218487
-3.273628	、/記号/* えっと/フィラー/*
-2.584811	、/記号/* えっとね/フィラー/*	0.1085346
-2.584811	、/記号/* えー/フィラー/*	-0.0438993
-3.273628	、/記号/* えーと/フィラー/*
-1.951781	、/記号/* か/助詞/*
-1.686239	、/記号/* から/助詞/*	-0.01971878
-2.413031	、/記号/* が/助詞/*
-3.273628	、/記号/* きれい/名詞/*
-3.273628	、/記号/* け/助詞/*
-1.298059	、/記号/* けど/助詞/*	0.1047219
-2.584811	、/記号/* こう/副詞/*
-3.273628	、/記号/* こと/名詞/*
-1.361728	、/記号/* さ/助詞/*	0.003891325
-2.413031	、/記号/* さあ/感動詞/*	0.151235
-1.494353	、/記号/* し/助詞/*	-0.04125341
-2.413031	、/記号/* し/動詞/サ変・スル	-0.1310921
-2.584811	、/記号/* じゃあ/接続詞/*
-3.273628	、/記号/* すっご/形容詞/形容詞・アウオ段
-3.273628	、/記号/* する/動詞/サ変・スル
-3.273628	、/記号/* すると/接続詞/*
-1.870588	、/記号/* そう/副詞/*	0.3775928
-3.273628	、/記号/* そういえば/接続詞/*
-2.413031	、/記号/* その/連体詞/*	0.02179479
-2.584811	、/記号/* それ/名詞/*
-3.273628	、/記号/* それで/接続詞/*
-2.584811	、/記号/* た/助動詞/特殊・タ
-3.273628	、/記号/* たら/助動詞/特殊・タ
-2.584811	、/記号/* だから/接続詞/*	0.2933151
-3.273628	、/記号/* だって/接続詞/*
-3.273628	、/記号/* だろ/助動詞/特殊・ダ
-2.584811	、/記号/* っけ/助詞/*	0.1141481
-2.199824	、/記号/* って/助詞/*
-2.199824	、/記号/* つつ/助詞/*	0.004493954
-1.049417	、/記号/* て/助詞/*	-0.05044069
-3.273628	、/記号/* ていう/助詞/*
-3.273628	、/記号/* てか/接続詞/*
-1.737391	、/記号/* で/助動詞/特殊・ダ	0.01018164
-1.951721	、/記号/* で/助詞/*	-0.07732528
-1.46439	、/記号/* で/接続詞/*	-0.0496232
-3.273628	、/記号/* できる/動詞/一段
-2.584811	、/記号/* でも/助詞/*
-1.951721	、/記号/* と/助詞/*	-0.07855657
-1.951721	、/記号/* とか/助詞/*
-3.273628	、/記号/* とこ/名詞/*
-1.038421	、/記号/* な/助詞/*	0.2028981
-3.273628	、/記号/* なぁ/助詞/*
-2.584811	、/記号/* なあ/助詞/*
-2.413031	、/記号/* ない/助動詞/特殊・ナイ	0.03720558
-2.584811	、/記号/* なく/助動詞/特殊・ナイ
-3.273628	、/記号/* なに/名詞/*
-2.584811	、/記号/* なん/名詞/*
-1.737391	、/記号/* なんか/フィラー/*	-0.1172519
-2.584811	、/記号/* なー/助詞/*
-2.584811	、/記号/* に/助詞/*
-1.526538	、/記号/* ね/助詞/*	0.114315
-3.273628	、/記号/* ねん/助詞/*
-3.273628	、/記号/* の/助詞/*
-1.737391	、/記号/* は/助詞/*
-3.273628	、/記号/* はい/感動詞/*
-3.273628	、/記号/* はー/感動詞/*
-3.273628	、/記号/* ば/助詞/*
-3.273628	、/記号/* へん/助動詞/特殊・ナイ
-3.273628	、/記号/* ほど/助詞/*
-3.273628	、/記号/* ほんま/感動詞/*
-3.273628	、/記号/* ほんまに/副詞/*
-3.273628	、/記号/* ま/感動詞/*
-1.870588	、/記号/* まあ/フィラー/*	0.1676674
-3.273628	、/記号/* まず/副詞/*
-3.273628	、/記号/* めっちゃ/副詞/*
-2.413031	、/記号/* も/助詞/*	-0.2516686
-3.273628	、/記号/* もう/副詞/*
-3.273628	、/記号/* もん/助詞/*
-3.273628	、/記号/* もん/名詞/*
-2.413031	、/記号/* や/助動詞/特殊・ヤ
-3.273628	、/記号/* やろ/助動詞/特殊・ヤ
-3.273628	、/記号/* わ/助詞/*
-3.273628	、/記号/* を/助詞/*
-2.584811	、/記号/* ん/助動詞/特殊・ナイ
-2.413031	、/記号/* ん/助詞/*
-3.273628	、/記号/* んー/フィラー/*
-3.273628	、/記号/* オーストラリア/名詞/*
-2.584811	、/記号/* センス/名詞/*	0.1141481
-3.273628	、/記号/* マジシャン/名詞/*
-3.273628	、/記号/* メロン/名詞/*
-3.273628	、/記号/* リンゴ/名詞/*
-2.584811	、/記号/* 三/名詞/*
-3.273628	、/記号/* 世の中/名詞/*
-2.413031	、/記号/* 二/名詞/*
-3.273628	、/記号/* 人生/名詞/*
-3.273628	、/記号/* 今後/副詞/*
-3.273628	、/記号/* 以外/名詞/*
-3.273628	、/記号/* 先生/名詞/*
-2.584811	、/記号/* 入り/動詞/五段・ラ行	0.1085346
-2.584811	、/記号/* 円/名詞/*	-0.1055499
-3.273628	、/記号/* 分/名詞/*
-3.273628	、/記号/* 前/名詞/*
-3.273628	、/記号/* 十/名詞/*
-3.273628	、/記号/* 千/名詞/*
-3.273628	、/記号/* 右/名詞/*
-3.273628	、/記号/* 地味/名詞/*
-3.273628	、/記号/* 基本/名詞/*
-3.273628	、/記号/* 大丈夫/名詞/*
-3.273628	、/記号/* 巨峰/名詞/*
-3.273628	、/記号/* 文/名詞/*
-3.273628	、/記号/* 日本人/名詞/*
-3.273628	、/記号/* 曲がり/動詞/五段・ラ行
-3.273628	、/記号/* 桃/名詞/*
-3.273628	、/記号/* 機関/名詞/*
-3.273628	、/記号/* 正味/副詞/*
-3.273628	、/記号/* 段/名詞/*
-3.273628	、/記号/* 無理/名詞/*
-3.273628	、/記号/* 生まれ/動詞/一段
-3.273628	、/記号/* 直進/名詞/*
-3.273628	、/記号/* 系/名詞/*
-3.273628	、/記号/* 結構/副詞/*
-3.273628	、/記号/* 練習/名詞/*
-2.584811	、/記号/* 英語/名詞/*	-0.04619682
-3.273628	、/記号/* 荒れ/動詞/一段
-3.273628	、/記号/* 行き/動詞/五段・カ行促音便
-3.273628	、/記号/* 語/名詞/*
-3.273628	、/記号/* 貧乏/名詞/*
-2.584811	、/記号/* 遊び/動詞/五段・バ行	0.1141481
-3.273628	、/記号/* 道具/名詞/*
-2.584811	、/記号/* 関係/名詞/*	-0.10725
-3.273628	、/記号/* 黒/名詞/*
-3.586422	。/記号/* Soy/英語/*
-3.586422	。/記号/* course/英語/*
-3.586422	。/記号/* ok/英語/*
-3.586422	。/記号/* question/英語/*
-3.586422	。/記号/* yeah/英語/*
-3.586422	。/記号/* あ/感動詞/*
-2.725826	。/記号/* あたし/名詞/*
-2.897605	。/記号/* ありがとう/感動詞/*
-2.897605	。/記号/* ある/動詞/五段・ラ行
-3.586422	。/記号/* あれ/名詞/*
-3.586422	。/記号/* あー/感動詞/*
-3.586422	。/記号/* いい/形容詞/形容詞・イイ
-2.725826	。/記号/* いう/動詞/五段・ワ行促音便	0.4518344
-3.586422	。/記号/* いかつい/形容詞/形容詞・アウオ段
-3.586422	。/記号/* いきなり/副詞/*
-3.586422	。/記号/* いく/動詞/五段・カ行促音便
-3.586422	。/記号/* いける/動詞/一段
-3.586422	。/記号/* いたる/動詞/五段・ラ行
-3.586422	。/記号/* いっつも/副詞/*
-2.897605	。/記号/* う/助動詞/不変化型
-2.725826	。/記号/* ううん/感動詞/*	1.265691
-3.586422	。/記号/* うち/名詞/*
-1.351216	。/記号/* うん/感動詞/*	0.1275788
-1.591548	。/記号/* か/助詞/*	-0.0401089
-3.586422	。/記号/* かかる/動詞/五段・ラ行
-3.586422	。/記号/* かかる/連体詞/*
-3.586422	。/記号/* かっこいい/形容詞/不変化型
-3.586422	。/記号/* かなり/副詞/*
-1.698004	。/記号/* から/助詞/*	0.008348305
-3.586422	。/記号/* が/助詞/*
-2.897605	。/記号/* きれい/名詞/*	-0.159527
-3.586422	。/記号/* くない/助詞/特殊・ナイ
-3.586422	。/記号/* くらい/助詞/*
-3.586422	。/記号/* くる/動詞/カ変・クル
-2.897605	。/記号/* ぐらい/助詞/*
-1.722827	。/記号/* けど/助詞/*	0.04436189
-2.264516	。/記号/* こと/名詞/*	-0.1322095
-3.586422	。/記号/* これ/名詞/*
-2.183383	。/記号/* さ/助詞/*	-0.04172879
-2.725826	。/記号/* さあ/感動詞/*	0.3691836
-1.839333	。/記号/* し/助詞/*	-0.02212196
-3.586422	。/記号/* しまう/動詞/五段・ワ行促音便
-3.586422	。/記号/* じいさん/名詞/*
-3.586422	。/記号/* じゃろ/助動詞/特殊・ジャ
-3.586422	。/記号/* じゃん/助動詞/不変化型
-3.586422	。/記号/* すごい/形容詞/形容詞・アウオ段
-2.264516	。/記号/* する/動詞/サ変・スル	-0.06436893
-1.591548	。/記号/* そう/副詞/*	-0.0180687
-2.725826	。/記号/* そう/名詞/*
-2.897605	。/記号/* そこ/名詞/*
-2.050186	。/記号/* それ/名詞/*	-0.06581108
-3.586422	。/記号/* それで/接続詞/*
-3.586422	。/記号/* そんだけ/副詞/*
-3.586422	。/記号/* そんなん/名詞/*
-1.300064	。/記号/* た/助動詞/特殊・タ	0.06739156
-3.586422	。/記号/* たい/助動詞/特殊・タイ
-2.512619	。/記号/* たら/助動詞/特殊・タ
-3.586422	。/記号/* たろ/助動詞/特殊・タ
-2.897605	。/記号/* たん/助動詞/特殊・タ
-3.586422	。/記号/* だ/助動詞/特殊・タ
-2.725826	。/記号/* だ/助動詞/特殊・ダ	-0.1762887
-3.586422	。/記号/* だけ/助詞/*
-3.586422	。/記号/* だろ/助動詞/特殊・ダ
-3.586422	。/記号/* ちゃん/名詞/*
-2.183383	。/記号/* って/助詞/*
-3.586422	。/記号/* ついては/接続詞/*
-1.777185	。/記号/* て/助詞/*	-0.0534681
-2.897605	。/記号/* てん/助動詞/特殊・タ	-0.0438993
-2.183383	。/記号/* で/助動詞/特殊・ダ	0.05680475
-1.874095	。/記号/* で/助詞/*	-0.1237909
-2.512619	。/記号/* でしょ/助動詞/特殊・デス
-2.725826	。/記号/* です/助動詞/特殊・デス
-2.897605	。/記号/* でも/接続詞/*
-2.264516	。/記号/* とか/助詞/*
-3.586422	。/記号/* ところ/名詞/*
-3.586422	。/記号/* として/助詞/*
-2.897605	。/記号/* とん/動詞/五段・ラ行撥音便
-3.586422	。/記号/* な/助動詞/特殊・ダ
-0.7601517	。/記号/* な/助詞/*	-0.02241543
-3.586422	。/記号/* なぁ/助詞/*
-2.512619	。/記号/* なあ/助詞/*	-0.03056419
-1.698004	。/記号/* ない/助動詞/特殊・ナイ	-0.0009012453
-3.586422	。/記号/* ない/形容詞/形容詞・アウオ段
-3.586422	。/記号/* なく/助動詞/特殊・ナイ
-3.586422	。/記号/* なし/助動詞/特殊・ナイ
-3.586422	。/記号/* なん/名詞/*
-3.586422	。/記号/* なんか/フィラー/*
-2.725826	。/記号/* なんで/副詞/*	-0.01005999
-2.264576	。/記号/* なー/助詞/*	0.0008962157
-1.777185	。/記号/* に/助詞/*	-0.134071
-1.26308	。/記号/* ね/助詞/*	-0.000161452
-1.874095	。/記号/* ねん/助詞/*	-0.2568263
-1.953276	。/記号/* の/助詞/*
-1.674523	。/記号/* は/助詞/*	-0.05476158
-2.725826	。/記号/* はい/感動詞/*	0.1046873
-3.586422	。/記号/* ば/助詞/*
-2.725826	。/記号/* へん/助動詞/特殊・ナイ
-3.586422	。/記号/* へん/名詞/*
-3.586422	。/記号/* へー/感動詞/*
-3.586422	。/記号/* ほんとに/副詞/*
-2.897605	。/記号/* ほんまに/副詞/*
-3.586422	。/記号/* まぁ/感動詞/*
-3.586422	。/記号/* まじで/感動詞/*
-2.725826	。/記号/* ます/助動詞/特殊・マス	-0.0382067
-3.586422	。/記号/* また/接続詞/*
-3.586422	。/記号/* まで/助詞/*
-3.586422	。/記号/* まま/名詞/*
-3.586422	。/記号/* めっちゃ/副詞/*
-2.050186	。/記号/* もん/助詞/*	0.005039807
-2.725826	。/記号/* や/助動詞/特殊・ヤ	-0.1327656
-2.897605	。/記号/* や/助詞/*
-3.586422	。/記号/* やさしい/形容詞/形容詞・イ段
-2.512619	。/記号/* やつ/名詞/*
-2.725826	。/記号/* やばい/形容詞/形容詞・アウオ段
-2.512619	。/記号/* やろ/助動詞/特殊・ヤ
-1.953276	。/記号/* やん/助動詞/特殊・ヤ	-0.01570565
-1.999034	。/記号/* よ/助詞/*	0.01720533
-2.897605	。/記号/* らしい/助動詞/形容詞・イ段
-2.264576	。/記号/* る/動詞/一段	0.5791264
-2.725826	。/記号/* れる/動詞/一段	-0.1007821
-2.512619	。/記号/* わ/助詞/*
-3.586422	。/記号/* を/助詞/*
-2.050186	。/記号/* ん/助動詞/特殊・ナイ	-0.1437205
-1.953276	。/記号/* ん/助詞/*	0.002085469
-1.777185	。/記号/* ん/名詞/*	-0.8227792
-3.586422	。/記号/* アナザークエスチョン/感動詞/*
-3.586422	。/記号/* イメージ/名詞/*
-3.586422	。/記号/* ケント/名詞/*
-3.586422	。/記号/* サムワン/感動詞/*
-3.586422	。/記号/* シューズ/名詞/*
-3.586422	。/記号/* スラムダンク/名詞/*
-3.586422	。/記号/* テロンアイランド/名詞/*
-3.586422	。/記号/* ドストライク/名詞/*
-3.586422	。/記号/* ドーン/副詞/*
-3.586422	。/記号/* バレエシューズ/名詞/*
-3.586422	。/記号/* ピュア/名詞/*
-3.586422	。/記号/* フレンドリー/名詞/*
-2.897605	。/記号/* フレーク/名詞/*
-3.586422	。/記号/* メキシコ/名詞/*
-2.897605	。/記号/* ロッククライミング/名詞/*
-3.586422	。/記号/* 三角形/名詞/*
-3.586422	。/記号/* 二/名詞/*
-2.512619	。/記号/* 人/名詞/*
-3.586422	。/記号/* 人生/名詞/*
-3.586422	。/記号/* 以上/名詞/*
-3.586422	。/記号/* 例えば/接続詞/*
-3.586422	。/記号/* 先週/名詞/*
-2.897605	。/記号/* 全然/副詞/*
-3.586422	。/記号/* 全部/名詞/*
-3.586422	。/記号/* 出産/名詞/*
-2.897605	。/記号/* 別に/副詞/*
-3.586422	。/記号/* 前/名詞/*
-3.586422	。/記号/* 力/名詞/*
-2.050186	。/記号/* 多分/副詞/*	-0.03092372
-3.586422	。/記号/* 夢/名詞/*
-3.586422	。/記号/* 奥/名詞/*
-3.586422	。/記号/* 好き/動詞/五段・カ行イ音便
-3.586422	。/記号/* 好き/名詞/*
-2.897605	。/記号/* 嫌/名詞/*
-2.897605	。/記号/* 嫌い/動詞/五段・ワ行促音便
-2.725826	。/記号/* 子/名詞/*	-0.1201684
-3.586422	。/記号/* 孫/名詞/*
-3.586422	。/記号/* 少年/名詞/*
-3.586422	。/記号/* 島/名詞/*
-2.897605	。/記号/* 怖い/形容詞/形容詞・アウオ段
-1.807148	。/記号/* 思う/動詞/五段・ワ行促音便	-0.1760912
-3.586422	。/記号/* 意外/名詞/*
-2.725826	。/記号/* 感じ/名詞/*
-2.897605	。/記号/* 感謝/名詞/*
-3.586422	。/記号/* 才能/名詞/*
-3.586422	。/記号/* 才色兼備/名詞/*
-2.897605	。/記号/* 方/名詞/*
-3.586422	。/記号/* 旦那/名詞/*
-3.586422	。/記号/* 早い/形容詞/形容詞・アウオ段
-3.586422	。/記号/* 時間/名詞/*
-3.586422	。/記号/* 普通/副詞/*
-3.586422	。/記号/* 書き初め/名詞/*
-3.586422	。/記号/* 最初/名詞/*
-3.586422	。/記号/* 期待/名詞/*
-3.586422	。/記号/* 来る/動詞/カ変・来ル
-3.586422	。/記号/* 正味/副詞/*
-3.586422	。/記号/* 武道/名詞/*
-3.586422	。/記号/* 死ぬ/動詞/五段・ナ行
-3.586422	。/記号/* 毒/名詞/*
-3.586422	。/記号/* 気さく/名詞/*
-3.586422	。/記号/* 水泳/名詞/*
-3.586422	。/記号/* 流/名詞/*
-3.586422	。/記号/* 清楚/名詞/*
-3.586422	。/記号/* 熱心/名詞/*
-3.586422	。/記号/* 版/名詞/*
-3.586422	。/記号/* 物/名詞/*
-3.586422	。/記号/* 瓶/名詞/*
-3.586422	。/記号/* 男の子/名詞/*
-3.586422	。/記号/* 痛い/形容詞/形容詞・アウオ段
-3.586422	。/記号/* 的/名詞/*
-3.586422	。/記号/* 県/名詞/*
-3.586422	。/記号/* 着/名詞/*
-2.897605	。/記号/* 確か/副詞/*
-2.264576	。/記号/* 確かに/感動詞/*	-0.02122031
-3.586422	。/記号/* 突然/副詞/*
-3.586422	。/記号/* 結構/副詞/*
-3.586422	。/記号/* 絶対/名詞/*
-3.586422	。/記号/* 至る/動詞/五段・ラ行
-3.586422	。/記号/* 色白/名詞/*
-3.586422	。/記号/* 若い/形容詞/形容詞・アウオ段
-3.586422	。/記号/* 英語/名詞/*
-3.586422	。/記号/* 蒲焼き/名詞/*
-3.586422	。/記号/* 行く/動詞/五段・カ行促音便
-3.586422	。/記号/* 要するに/副詞/*
-3.586422	。/記号/* 言語/名詞/*
-2.897605	。/記号/* 語/名詞/*
-3.586422	。/記号/* 読売新聞/名詞/*
-3.586422	。/記号/* 豆/名詞/*
-3.586422	。/記号/* 豊か/名詞/*
-3.586422	。/記号/* 貧乏/名詞/*
-3.586422	。/記号/* 違う/感動詞/*
-3.586422	。/記号/* 限り/名詞/*
-3.586422	。/記号/* 陶芸/名詞/*
-3.586422	。/記号/* 青/名詞/*
-3.586422	。/記号/* 面倒くさい/形容詞/形容詞・アウオ段
-2.725826	。/記号/* 顔/名詞/*
-3.586422	。/記号/* 願う/動詞/五段・ワ行促音便
-3.586422	。/記号/* 高い/形容詞/形容詞・アウオ段
-3.586422	。/記号/* 髪形/名詞/*
-1.674539	「/記号/* </s>
-1.674539	「/記号/* 、/記号/*
-1.674539	「/記号/* が/助詞/*
-1.674539	「/記号/* けど/助詞/*
-1.674539	「/記号/* そんな/連体詞/*
-1.674539	「/記号/* な/助詞/*
-0.9857219	「/記号/* なんか/フィラー/*
-1.674539	「/記号/* に/助詞/*
-1.674539	「/記号/* も/助詞/*
-1.674539	「/記号/* やっぱ/副詞/*
-0.9857219	」/記号/* </s>
-1.674539	」/記号/* か/助詞/*
-1.674539	」/記号/* ない/助動詞/特殊・ナイ
-1.674539	」/記号/* なん/名詞/*
-1.674539	」/記号/* ねん/助詞/*
-1.674539	」/記号/* の/助詞/*
-1.674539	」/記号/* ます/助動詞/特殊・マス
-1.674539	」/記号/* よ/助詞/*
-1.674539	」/記号/* ん/名詞/*
-1.674539	」/記号/* ヤクソン/名詞/*
-0.633146	あ/フィラー/* 、/記号/*
-0.06445799	あ/感動詞/* </s>
-1.234948	あ/感動詞/* 、/記号/*
-2.095544	あ/感動詞/* 「/記号/*
-0.2496709	ああ/感動詞/* </s>
-0.633146	ああゆう/連体詞/* ほんまに/副詞/*
-0.633146	あえ/動詞/一段 、/記号/*
-0.934176	あえて/副詞/* </s>
-0.934176	あえて/副詞/* だから/接続詞/*
-1.110267	あか/動詞/五段・カ行イ音便 </s>
-1.110267	あか/動詞/五段・カ行イ音便 た/助動詞/特殊・タ
-1.110267	あか/動詞/五段・カ行イ音便 と/助詞/*
-0.633146	あくまでも/副詞/* </s>
-0.633146	あげ/動詞/一段 て/助詞/*
-1.332116	あそこ/名詞/* 、/記号/*
-1.332116	あそこ/名詞/* だって/接続詞/*
-1.332116	あそこ/名詞/* なー/助詞/*
-1.332116	あそこ/名詞/* に/助詞/*
-1.332116	あそこ/名詞/* 次/接頭詞/*
-0.6385236	あたし/名詞/* </s>
-1.712327	あたし/名詞/* 、/記号/*
-1.712327	あたし/名詞/* か/助詞/*
-1.712327	あたし/名詞/* た/助動詞/特殊・タ
-1.712327	あたし/名詞/* でも/接続詞/*
-1.712327	あたし/名詞/* ね/助詞/*
-1.712327	あたし/名詞/* ねん/助詞/*
-1.712327	あたし/名詞/* やろ/助動詞/特殊・ヤ
-1.712327	あたし/名詞/* よ/助詞/*
-0.633146	あたり/名詞/* 信じる/動詞/一段
-1.478244	あっ/動詞/五段・ラ行 ある程度/副詞/*
-1.478244	あっ/動詞/五段・ラ行 が/助詞/*
-1.478244	あっ/動詞/五段・ラ行 て/助詞/*
-1.478244	あっ/動詞/五段・ラ行 で/助詞/*
-0.7894272	あっ/動詞/五段・ラ行 に/助詞/*
-1.478244	あっ/動詞/五段・ラ行 ん/名詞/*
-0.633146	あっこ/名詞/* 、/記号/*
-0.7224804	あっち/名詞/* 、/記号/*
-1.411297	あっち/名詞/* だって/接続詞/*
-1.411297	あっち/名詞/* は/助詞/*
-1.411297	あっち/名詞/* より/助詞/*
-1.411297	あっち/名詞/* 多分/副詞/*
-0.1627273	あと/名詞/* </s>
-0.9766697	あと/名詞/* 、/記号/*
-1.837266	あと/名詞/* と/助詞/*
-1.837266	あと/名詞/* なー/助詞/*
-0.633146	あと/接続詞/* </s>
-0.934176	あなた/名詞/* </s>
-0.934176	あなた/名詞/* 、/記号/*
-0.4214504	あの/フィラー/* </s>
-1.110267	あの/フィラー/* 、/記号/*
-0.3679768	あの/連体詞/* </s>
-1.094769	あの/連体詞/* 、/記号/*
-1.955365	あの/連体詞/* うち/名詞/*
-1.955365	あの/連体詞/* じゃあ/接続詞/*
-1.955365	あの/連体詞/* それで/接続詞/*
-1.955365	あの/連体詞/* たら/助動詞/特殊・タ
-1.955365	あの/連体詞/* でも/接続詞/*
-1.955365	あの/連体詞/* とか/助詞/*
-1.266549	あの/連体詞/* な/助詞/*
-1.955365	あの/連体詞/* なー/助詞/*
-0.633146	あのー/フィラー/* </s>
-1.674539	あり/動詞/五段・ラ行 </s>
-0.9857219	あり/動詞/五段・ラ行 が/助詞/*
-1.674539	あり/動詞/五段・ラ行 で/助詞/*
-1.674539	あり/動詞/五段・ラ行 は/助詞/*
-1.674539	あり/動詞/五段・ラ行 まあ/フィラー/*
-0.6007351	あり/動詞/五段・ラ行 も/助詞/*
-1.674539	あり/動詞/五段・ラ行 興味/名詞/*
-1.110267	ありえ/動詞/一段 </s>
-1.110267	ありえ/動詞/一段 でも/助詞/*
-1.110267	ありえ/動詞/一段 なんて/助詞/*
-0.5463892	ありがとう/感動詞/* </s>
-1.235206	ありがとう/感動詞/* 「/記号/*
-1.235206	ありがとう/感動詞/* 協力/名詞/*
-1.263911	ある/動詞/五段・ラ行 </s>
-2.124508	ある/動詞/五段・ラ行 ある/動詞/五段・ラ行
-2.124508	ある/動詞/五段・ラ行 いっぱい/副詞/*
-2.124508	ある/動詞/五段・ラ行 お金/名詞/*
-1.435691	ある/動詞/五段・ラ行 が/助詞/*
-2.124508	ある/動詞/五段・ラ行 けど/助詞/*
-1.050704	ある/動詞/五段・ラ行 こと/名詞/*	-0.09606972
-1.435691	ある/動詞/五段・ラ行 って/助詞/*
-2.124508	ある/動詞/五段・ラ行 て/助詞/*
-2.124508	ある/動詞/五段・ラ行 とか/助詞/*
-2.124508	ある/動詞/五段・ラ行 な/助詞/*
-2.124508	ある/動詞/五段・ラ行 に/助詞/*
-0.8026014	ある/動詞/五段・ラ行 の/助詞/*	-0.08074526
-2.124508	ある/動詞/五段・ラ行 は/助詞/*
-1.435691	ある/動詞/五段・ラ行 も/助詞/*
-2.124508	ある/動詞/五段・ラ行 力/名詞/*
-2.124508	ある/動詞/五段・ラ行 才能/名詞/*
-2.124508	ある/動詞/五段・ラ行 絶対/副詞/*
-2.124508	ある/動詞/五段・ラ行 色気/名詞/*
-0.633146	ある程度/副詞/* は/助詞/*
-0.406198	あれ/名詞/* </s>
-1.809237	あれ/名詞/* 、/記号/*
-1.809237	あれ/名詞/* いつも/副詞/*
-1.809237	あれ/名詞/* って/助詞/*
-1.809237	あれ/名詞/* でしょ/助動詞/特殊・デス
-1.809237	あれ/名詞/* なん/名詞/*
-1.809237	あれ/名詞/* ね/助詞/*
-1.809237	あれ/名詞/* 奈美恵/名詞/*
-1.809237	あれ/名詞/* 片道/名詞/*
-0.633146	あん/動詞/五段・ラ行撥音便 こと/名詞/*
-0.633146	あんた/名詞/* なん/名詞/*
-0.2453592	あんだけ/副詞/* </s>
-0.633146	あんな/連体詞/* 、/記号/*
-0.633146	あんね/フィラー/* </s>
-1.478244	あんま/副詞/* </s>
-1.478244	あんま/副詞/* 、/記号/*
-1.478244	あんま/副詞/* が/助詞/*
-1.478244	あんま/副詞/* たら/助動詞/特殊・タ
-1.478244	あんま/副詞/* は/助詞/*
-1.478244	あんま/副詞/* フルーツ/名詞/*
-1.478244	あんま/副詞/* 距離/名詞/*
-0.550701	あんまり/副詞/* </s>
-1.411297	あんまり/副詞/* 、/記号/*
-1.411297	あんまり/副詞/* さ/助詞/*
-1.411297	あんまり/副詞/* 例えば/接続詞/*
-0.05115252	あー/フィラー/* </s>
-1.888419	あー/フィラー/* 「/記号/*
-1.888419	あー/フィラー/* に/助詞/*
-0.633146	あー/感動詞/* </s>
-0.633146	あーあ/感動詞/* </s>
-1.536236	い/動詞/一段 </s>
-1.536236	い/動詞/一段 、/記号/*
-1.536236	い/動詞/一段 が/助詞/*
-0.6756397	い/動詞/一段 に/助詞/*
-1.536236	い/動詞/一段 まあ/フィラー/*
-1.536236	い/動詞/一段 友達/名詞/*
-1.249538	いい/形容詞/形容詞・イイ </s>
-1.462746	いい/形容詞/形容詞・イイ 、/記号/*
-2.323342	いい/形容詞/形容詞・イイ あー/フィラー/*
-2.323342	いい/形容詞/形容詞・イイ から/助詞/*
-1.249538	いい/形容詞/形容詞・イイ が/助詞/*
-2.323342	いい/形容詞/形容詞・イイ したら/接続詞/*
-2.323342	いい/形容詞/形容詞・イイ すごい/形容詞/形容詞・アウオ段
-1.249538	いい/形容詞/形容詞・イイ たら/助動詞/特殊・タ
-2.323342	いい/形容詞/形容詞・イイ て/助詞/*
-1.462746	いい/形容詞/形容詞・イイ で/助詞/*
-1.001495	いい/形容詞/形容詞・イイ でも/助詞/*
-1.462746	いい/形容詞/形容詞・イイ は/助詞/*	-0.1088329
-1.462746	いい/形容詞/形容詞・イイ ば/助詞/*
-2.323342	いい/形容詞/形容詞・イイ ほんと/感動詞/*
-1.462746	いい/形容詞/形容詞・イイ まあ/フィラー/*	0.1197702
-2.323342	いい/形容詞/形容詞・イイ まだ/副詞/*
-1.634525	いい/形容詞/形容詞・イイ めっちゃ/副詞/*
-1.634525	いい/形容詞/形容詞・イイ も/助詞/*	-0.1342474
-2.323342	いい/形容詞/形容詞・イイ よ/助詞/*
-2.323342	いい/形容詞/形容詞・イイ インド/名詞/*
-2.323342	いい/形容詞/形容詞・イイ ガタイ/名詞/*
-2.323342	いい/形容詞/形容詞・イイ 一番/名詞/*
-2.323342	いい/形容詞/形容詞・イイ 仲/名詞/*
-0.1249387	いう/動詞/五段・ワ行促音便 って/助詞/*	-0.006078325
-1.245359	いう/動詞/五段・ワ行促音便 て/助詞/*
-1.245359	いう/動詞/五段・ワ行促音便 と/助詞/*
-1.934176	いう/動詞/五段・ワ行促音便 に/助詞/*
-0.633146	いえ/動詞/一段 って/助詞/*
-1.110267	いか/動詞/五段・カ行促音便 な/助詞/*
-1.110267	いか/動詞/五段・カ行促音便 に/助詞/*
-1.110267	いか/動詞/五段・カ行促音便 上手く/形容詞/形容詞・アウオ段
-0.633146	いかつい/形容詞/形容詞・アウオ段 イッチー/名詞/*
-0.633146	いき/動詞/五段・カ行促音便 </s>
-0.934176	いきなり/副詞/* </s>
-0.934176	いきなり/副詞/* あんまり/副詞/*
-0.934176	いく/動詞/五段・カ行促音便 いく/動詞/五段・カ行促音便
-0.934176	いく/動詞/五段・カ行促音便 全然/副詞/*
-0.934176	いけ/動詞/一段 なきゃ/助動詞/特殊・ナイ
-0.934176	いけ/動詞/一段 に/助詞/*
-0.633146	いけ/動詞/五段・カ行促音便 て/助詞/*
-0.633146	いける/動詞/一段 全然/副詞/*
-0.633146	いたる/動詞/五段・ラ行 今に/副詞/*
-1.332116	いっ/動詞/五段・ワ行促音便 あー/フィラー/*
-1.332116	いっ/動詞/五段・ワ行促音便 ちょっと/副詞/*
-0.6432992	いっ/動詞/五段・ワ行促音便 て/助詞/*
-1.332116	いっ/動詞/五段・ワ行促音便 とか/助詞/*
-0.633146	いっか/感動詞/* まあ/フィラー/*
-1.235206	いっつも/副詞/* 、/記号/*
-0.3746097	いっつも/副詞/* って/助詞/*
-0.934176	いっぱい/副詞/* が/助詞/*
-0.934176	いっぱい/副詞/* 自分/名詞/*
-0.633146	いつも/副詞/* </s>
-0.934176	いま/名詞/* </s>
-0.934176	いま/名詞/* 多分/副詞/*
-0.633146	いま/接頭詞/* うち/名詞/*
-0.633146	いや/名詞/* </s>
-0.3746097	いや/感動詞/* </s>
-1.235206	いや/感動詞/* 、/記号/*
-1.110267	いる/動詞/一段 て/助詞/*
-1.110267	いる/動詞/一段 で/助詞/*
-1.110267	いる/動詞/一段 も/助詞/*
-0.934176	いれ/動詞/一段 これ/名詞/*
-0.934176	いれ/動詞/一段 に/助詞/*
-0.633146	いろいろ/副詞/* の/助詞/*
-0.934176	いろんな/連体詞/* から/助詞/*
-0.934176	いろんな/連体詞/* みんな/名詞/*
-1.12042	う/助動詞/不変化型 しよ/動詞/サ変・スル	0.1141481
-1.12042	う/助動詞/不変化型 たげよ/動詞/一段
-1.12042	う/助動詞/不変化型 だろ/助動詞/特殊・タ
-0.7354336	う/助動詞/不変化型 だろ/助動詞/特殊・ダ	-0.0255805
-1.12042	う/助動詞/不変化型 やろ/助動詞/特殊・ヤ
-1.809237	う/助動詞/不変化型 喋ろ/動詞/五段・ラ行
-1.809237	う/助動詞/不変化型 帰ろ/動詞/五段・ラ行
-1.809237	う/助動詞/不変化型 続けよ/動詞/一段
-0.01020972	ううん/感動詞/* </s>
-0.5026754	うち/名詞/* </s>
-1.10341	うち/名詞/* 、/記号/*
-2.177214	うち/名詞/* あなた/名詞/*
-2.177214	うち/名詞/* あんまり/副詞/*
-2.177214	うち/名詞/* が/助詞/*
-2.177214	うち/名詞/* そんなに/副詞/*
-2.177214	うち/名詞/* だから/接続詞/*
-2.177214	うち/名詞/* で/助詞/*
-1.316618	うち/名詞/* に/助詞/*	-0.3263617
-1.488397	うち/名詞/* は/助詞/*
-2.177214	うち/名詞/* ほんで/接続詞/*
-2.177214	うち/名詞/* まぁ/感動詞/*
-0.8553078	うち/名詞/* まあ/フィラー/*	0.0875783
-2.177214	うち/名詞/* 全然/副詞/*
-2.177214	うち/名詞/* 別に/副詞/*
-0.633146	うどん/名詞/* </s>
-0.633146	うまい/形容詞/形容詞・アウオ段 </s>
-0.633146	うまく/形容詞/形容詞・アウオ段 ほど/助詞/*
-0.633146	うわ/感動詞/* 、/記号/*
-0.934176	うん/フィラー/* </s>
-0.934176	うん/フィラー/* 、/記号/*
-0.00796893	うん/感動詞/* </s>
-0.2496709	うーん/感動詞/* </s>
-0.01020972	え/フィラー/* </s>
-0.04575749	え/感動詞/* </s>
-0.633146	ええ/形容詞/形容詞・イイ </s>
-0.633146	えっ/感動詞/* </s>
-0.2496709	えっと/フィラー/* </s>
-0.2496709	えっとね/フィラー/* </s>
-0.934176	えみ/名詞/* 「/記号/*
-0.934176	えみ/名詞/* さっき/名詞/*
-0.2453592	えらい/形容詞/形容詞・アウオ段 </s>
-0.4214504	えー/フィラー/* </s>
-1.110267	えー/フィラー/* 、/記号/*
-0.633146	えーと/フィラー/* </s>
-0.2583124	お/接頭詞/* </s>
-1.332116	お/接頭詞/* とか/助詞/*
-0.934176	おい/動詞/一段 手/名詞/*
-0.934176	おい/動詞/一段 足/名詞/*
-1.235206	おいしい/形容詞/形容詞・イ段 </s>
-0.3746097	おいしい/形容詞/形容詞・イ段 も/助詞/*	-0.2516686
-0.633146	おいしく/形容詞/形容詞・イ段 も/助詞/*
-0.633146	おかず/名詞/* </s>
-0.934176	おじいちゃん/名詞/* 、/記号/*
-0.934176	おじいちゃん/名詞/* の/助詞/*
-0.633146	おじけ/動詞/一段 の/助詞/*
-0.6432992	おっ/動詞/五段・ラ行 が/助詞/*
-1.332116	おっ/動詞/五段・ラ行 に/助詞/*
-1.332116	おっ/動詞/五段・ラ行 人数/名詞/*
-1.332116	おっ/動詞/五段・ラ行 今日/名詞/*
-0.633146	おねえちゃん/名詞/* </s>
-0.2453592	おば/名詞/* の/助詞/*	-0.2462312
-0.633146	おもろい/形容詞/形容詞・アウオ段 が/助詞/*
-0.633146	おもろかっ/形容詞/形容詞・アウオ段 めっちゃ/副詞/*
-0.633146	おら/動詞/五段・ラ行 も/助詞/*
-1.478244	おる/動詞/五段・ラ行 、/記号/*
-1.478244	おる/動詞/五段・ラ行 おねえちゃん/名詞/*
-1.478244	おる/動詞/五段・ラ行 って/助詞/*
-1.478244	おる/動詞/五段・ラ行 て/助詞/*
-1.478244	おる/動詞/五段・ラ行 どこ/名詞/*
-1.478244	おる/動詞/五段・ラ行 に/助詞/*
-1.478244	おる/動詞/五段・ラ行 彼女/名詞/*
-0.633146	おれ/名詞/* </s>
-0.633146	お前/名詞/* は/助詞/*
-0.934176	お母さん/名詞/* </s>
-0.934176	お母さん/名詞/* 昔/名詞/*
-0.633146	お洒落/名詞/* も/助詞/*
-0.633146	お稽古/名詞/* 、/記号/*
-0.633146	お腹/名詞/* </s>
-1.110267	お金/名詞/* 、/記号/*
-1.110267	お金/名詞/* そんなに/副詞/*
-1.110267	お金/名詞/* やっぱ/副詞/*
-2.633146	か/助詞/* </s>
-2.633146	か/助詞/* OPA/名詞/*
-1.944329	か/助詞/* 、/記号/*
-2.633146	か/助詞/* あり/動詞/五段・ラ行
-2.633146	か/助詞/* ある/動詞/五段・ラ行
-1.944329	か/助詞/* いう/動詞/五段・ワ行促音便	0.351307
-1.944329	か/助詞/* う/助動詞/不変化型
-1.944329	か/助詞/* ぐらい/助詞/*
-1.77255	か/助詞/* こと/名詞/*
-2.633146	か/助詞/* ごつい/形容詞/形容詞・アウオ段
-2.633146	か/助詞/* する/動詞/サ変・スル
-2.633146	か/助詞/* それ/名詞/*
-1.944329	か/助詞/* た/助動詞/特殊・タ
-1.559342	か/助詞/* たい/助動詞/特殊・タイ	-0.08724182
-2.633146	か/助詞/* たん/助動詞/特殊・タ
-1.944329	か/助詞/* だれ/名詞/*
-2.633146	か/助詞/* ちゃう/動詞/五段・特殊
-2.633146	か/助詞/* できる/動詞/一段
-1.77255	か/助詞/* です/助動詞/特殊・デス	-0.06991532
-2.633146	か/助詞/* どちら/名詞/*
-1.944329	か/助詞/* どっち/名詞/*
-2.633146	か/助詞/* どれ/名詞/*
-1.31124	か/助詞/* ない/助動詞/特殊・ナイ
-2.633146	か/助詞/* なる/動詞/五段・ラ行
-1.77255	か/助詞/* なん/名詞/*	-0.1155491
-1.559342	か/助詞/* の/助詞/*
-2.633146	か/助詞/* ほんと/感動詞/*
-2.633146	か/助詞/* ます/助動詞/特殊・マス
-2.633146	か/助詞/* まで/助詞/*
-1.77255	か/助詞/* もん/名詞/*	-0.08437451
-1.31124	か/助詞/* やん/助動詞/特殊・ヤ
-1.944329	か/助詞/* ゆ/動詞/五段・ワ行促音便	0.1085346
-1.77255	か/助詞/* る/動詞/一段	0.6598545
-1.230107	か/助詞/* ん/助詞/*	-0.0836822
-2.633146	か/助詞/* ん/名詞/*
-2.633146	か/助詞/* フランス/名詞/*
-2.633146	か/助詞/* マチュピチュ/名詞/*
-2.633146	か/助詞/* 中国語/名詞/*
-2.633146	か/助詞/* 側/名詞/*
-2.633146	か/助詞/* 声変わり/名詞/*
-2.633146	か/助詞/* 好き/名詞/*
-2.633146	か/助詞/* 年/名詞/*
-2.633146	か/助詞/* 思う/動詞/五段・ワ行促音便
-2.633146	か/助詞/* 感じ/動詞/一段
-1.944329	か/助詞/* 感じ/名詞/*	-0.1223516
-2.633146	か/助詞/* 方向/名詞/*
-2.633146	か/助詞/* 普通/名詞/*
-1.944329	か/助詞/* 楽/名詞/*
-2.633146	か/助詞/* 死ぬ/動詞/五段・ナ行
-2.633146	か/助詞/* 経済/名詞/*
-2.633146	か/助詞/* 絵/名詞/*
-2.633146	か/助詞/* 練/名詞/*
-2.633146	か/助詞/* 英語/名詞/*
-2.633146	か/助詞/* 見る/動詞/一段
-2.633146	か/助詞/* 語/名詞/*
-2.633146	か/助詞/* 違う/動詞/五段・ワ行促音便
-2.633146	か/助詞/* 韓流/名詞/*
-2.633146	か/助詞/* 風邪/名詞/*
-2.633146	か/助詞/* 食べる/動詞/一段
-2.633146	か/助詞/* １月/名詞/*
-0.934176	かかる/動詞/五段・ラ行 お金/名詞/*
-0.934176	かかる/動詞/五段・ラ行 が/助詞/*
-0.633146	かかる/連体詞/* たら/助動詞/特殊・タ
-1.110267	かけ/動詞/一段 に/助詞/*
-1.110267	かけ/動詞/一段 を/助詞/*
-1.110267	かけ/動詞/一段 声/名詞/*
-1.235206	かっこいい/形容詞/不変化型 に/助詞/*
-1.235206	かっこいい/形容詞/不変化型 ほんま/副詞/*
-1.235206	かっこいい/形容詞/不変化型 めっちゃ/副詞/*
-1.235206	かっこいい/形容詞/不変化型 より/助詞/*
-0.633146	かっこよかっ/形容詞/形容詞・アウオ段 超/接頭詞/*
-0.934176	かっこよく/形容詞/形容詞・アウオ段 たら/助動詞/特殊・タ
-0.934176	かっこよく/形容詞/形容詞・アウオ段 ほんとに/副詞/*
-0.633146	かつ/接続詞/* 年下/名詞/*
-0.2453592	かなり/副詞/* は/助詞/*
-1.587389	かも/助詞/* しんどい/形容詞/形容詞・アウオ段
-1.587389	かも/助詞/* そう/副詞/*
-1.587389	かも/助詞/* た/助動詞/特殊・タ
-1.587389	かも/助詞/* できる/動詞/一段
-1.587389	かも/助詞/* なる/動詞/五段・ラ行
-1.587389	かも/助詞/* れる/動詞/一段
-0.7267922	かも/助詞/* ん/名詞/*	0.2311151
-2.562565	から/助詞/* </s>
-1.488761	から/助詞/* ある/動詞/五段・ラ行
-2.562565	から/助詞/* いい/形容詞/形容詞・イイ
-2.562565	から/助詞/* いう/動詞/五段・ワ行促音便
-2.562565	から/助詞/* うち/名詞/*
-2.562565	から/助詞/* おる/動詞/五段・ラ行
-2.562565	から/助詞/* くる/動詞/カ変・クル
-1.701969	から/助詞/* する/動詞/サ変・スル
-0.8154756	から/助詞/* た/助動詞/特殊・タ	-0.06992428
-1.701969	から/助詞/* だ/助動詞/特殊・タ	-0.09158433
-1.873748	から/助詞/* だ/助動詞/特殊・ダ
-2.562565	から/助詞/* ちっちゃい/形容詞/形容詞・アウオ段
-2.562565	から/助詞/* ちゃう/動詞/五段・ワ行促音便
-1.240718	から/助詞/* て/助詞/*	-0.1279624
-2.562565	から/助詞/* できる/動詞/一段
-1.240718	から/助詞/* ない/助動詞/特殊・ナイ	0.04124393
-1.873748	から/助詞/* ない/形容詞/形容詞・アウオ段	-0.04616092
-1.488761	から/助詞/* へん/助動詞/特殊・ナイ	-0.02534535
-2.562565	から/助詞/* ほしい/形容詞/形容詞・イ段
-1.488761	から/助詞/* や/助動詞/特殊・ヤ
-2.562565	から/助詞/* や/助詞/*
-2.562565	から/助詞/* やすい/形容詞/形容詞・アウオ段
-2.562565	から/助詞/* る/動詞/一段
-1.873748	から/助詞/* ん/助動詞/特殊・ナイ
-2.562565	から/助詞/* ブランコ/名詞/*
-2.562565	から/助詞/* 一/名詞/*
-2.562565	から/助詞/* 中/名詞/*
-2.562565	から/助詞/* 中国/名詞/*
-1.701969	から/助詞/* 今/名詞/*
-2.562565	から/助詞/* 今年/名詞/*
-2.562565	から/助詞/* 出口/名詞/*
-2.562565	から/助詞/* 向こう/名詞/*
-2.562565	から/助詞/* 嫌われる/動詞/一段
-2.562565	から/助詞/* 小１/名詞/*
-2.562565	から/助詞/* 幼稚園/名詞/*
-1.701969	から/助詞/* 思う/動詞/五段・ワ行促音便	0.08775776
-2.562565	から/助詞/* 恥ずかしい/形容詞/形容詞・イ段
-2.562565	から/助詞/* 方/名詞/*
-2.562565	から/助詞/* 村/名詞/*
-2.562565	から/助詞/* 歳/名詞/*
-2.562565	から/助詞/* 筋/名詞/*
-2.562565	から/助詞/* 西北/名詞/*
-2.562565	から/助詞/* 違う/動詞/五段・ワ行促音便
-0.633146	から/名詞/* て/助詞/*
-0.633146	かわいい/形容詞/形容詞・イ段 </s>
-2.697604	が/助詞/* あたり/名詞/*
-2.697604	が/助詞/* あっち/名詞/*
-2.008787	が/助詞/* うち/名詞/*
-2.697604	が/助詞/* おじいちゃん/名詞/*
-2.697604	が/助詞/* から/助詞/*
-2.697604	が/助詞/* ぐらい/助詞/*
-2.008787	が/助詞/* こっち/名詞/*
-1.837008	が/助詞/* こと/名詞/*
-2.697604	が/助詞/* しょう/名詞/*
-2.697604	が/助詞/* じいさん/名詞/*
-2.008787	が/助詞/* そこ/名詞/*
-1.6238	が/助詞/* それ/名詞/*	-0.01820925
-2.697604	が/助詞/* だれ/名詞/*
-1.837008	が/助詞/* とか/助詞/*
-2.697604	が/助詞/* とこ/名詞/*
-2.697604	が/助詞/* ところ/名詞/*
-1.6238	が/助詞/* の/名詞/*	-0.04636852
-2.008787	が/助詞/* もん/名詞/*	-0.2075309
-2.697604	が/助詞/* やつ/名詞/*
-2.697604	が/助詞/* よう/名詞/*
-2.697604	が/助詞/* アン/名詞/*
-2.697604	が/助詞/* キャンパス/名詞/*
-2.697604	が/助詞/* テニ/名詞/*
-2.008787	が/助詞/* ディレクター/名詞/*
-2.697604	が/助詞/* トイレ/名詞/*
-2.697604	が/助詞/* マスコミ/名詞/*
-2.697604	が/助詞/* メガネ/名詞/*
-2.697604	が/助詞/* ライン/名詞/*
-2.697604	が/助詞/* ルカワ/名詞/*
-2.697604	が/助詞/* 一人/名詞/*
-2.697604	が/助詞/* 一般/名詞/*
-2.697604	が/助詞/* 中国語/名詞/*
-1.6238	が/助詞/* 人/名詞/*
-2.008787	が/助詞/* 人見知り/名詞/*
-2.697604	が/助詞/* 体/名詞/*
-1.6238	が/助詞/* 何/名詞/*	-0.004266993
-2.697604	が/助詞/* 先生/名詞/*
-2.008787	が/助詞/* 力/名詞/*
-2.697604	が/助詞/* 友達/名詞/*
-2.697604	が/助詞/* 唇/名詞/*
-2.697604	が/助詞/* 太郎/名詞/*
-2.008787	が/助詞/* 子/名詞/*
-2.697604	が/助詞/* 年上/名詞/*
-2.697604	が/助詞/* 彼女/名詞/*
-2.697604	が/助詞/* 心/名詞/*
-2.008787	が/助詞/* 感じ/名詞/*
-1.375757	が/助詞/* 方/名詞/*	0.1737309
-2.697604	が/助詞/* 曲/名詞/*
-2.697604	が/助詞/* 校舎/名詞/*
-2.697604	が/助詞/* 根性/名詞/*
-2.697604	が/助詞/* 母親/名詞/*
-2.008787	が/助詞/* 気/名詞/*
-2.697604	が/助詞/* 気持ち/名詞/*
-2.697604	が/助詞/* 水泳/名詞/*
-2.697604	が/助詞/* 流/名詞/*
-2.697604	が/助詞/* 理由/名詞/*
-2.697604	が/助詞/* 相手/名詞/*
-2.697604	が/助詞/* 私/名詞/*
-2.697604	が/助詞/* 範囲/名詞/*
-2.697604	が/助詞/* 約束/名詞/*
-2.008787	が/助詞/* 者/名詞/*	0.09765936
-2.697604	が/助詞/* 肌/名詞/*
-1.837008	が/助詞/* 自分/名詞/*
-2.697604	が/助詞/* 花園/名詞/*
-2.008787	が/助詞/* 英語/名詞/*
-2.697604	が/助詞/* 話題/名詞/*
-2.008787	が/助詞/* 誰/名詞/*	-0.0438993
-2.697604	が/助詞/* 辺/名詞/*
-2.697604	が/助詞/* 金/名詞/*
-2.697604	が/助詞/* 金持ち/名詞/*
-2.697604	が/助詞/* 間/名詞/*
-2.008787	が/助詞/* 雰囲気/名詞/*
-2.697604	が/助詞/* 霊/名詞/*
-1.375698	が/助詞/* 顔/名詞/*	0.1208074
-2.697604	が/助詞/* 食材/名詞/*
-0.633146	がい/名詞/* 頼り/名詞/*
-0.934176	がっつり/副詞/* が/助詞/*
-0.934176	がっつり/副詞/* に/助詞/*
-0.633146	がらみ/名詞/* 外人/名詞/*
-0.01020972	き/動詞/カ変・クル て/助詞/*
-0.633146	き/動詞/一段 学校/名詞/*
-0.633146	きらい/名詞/* 大っ/接頭詞/*
-1.411297	きれい/名詞/* </s>
-0.7224804	きれい/名詞/* が/助詞/*
-1.411297	きれい/名詞/* なんか/フィラー/*
-1.411297	きれい/名詞/* まだ/副詞/*
-1.411297	きれい/名詞/* めっちゃ/副詞/*
-0.633146	くそ/接頭詞/* </s>
-0.633146	ください/動詞/五段・ラ行特殊 て/助詞/*
-0.934176	くない/助詞/特殊・ナイ すく/動詞/五段・カ行イ音便
-0.934176	くない/助詞/特殊・ナイ た/助動詞/特殊・タ
-0.934176	くらい/助詞/* 中学校/名詞/*
-0.934176	くらい/助詞/* 段/名詞/*
-0.08945063	くる/動詞/カ変・クル て/助詞/*	-0.1388631
-0.633146	くれ/動詞/一段 連絡/名詞/*
-0.01020972	くれ/動詞/一段・クレル て/助詞/*
-0.2496709	くれる/動詞/一段・クレル て/助詞/*	-0.3243953
-0.633146	くれれ/動詞/一段・クレル て/助詞/*
-0.633146	くん/名詞/* 藤/名詞/*
-1.779274	ぐらい/助詞/* ある/動詞/五段・ラ行
-1.779274	ぐらい/助詞/* う/助動詞/不変化型
-1.090457	ぐらい/助詞/* それ/名詞/*
-1.779274	ぐらい/助詞/* たい/助動詞/特殊・タイ
-1.779274	ぐらい/助詞/* て/助詞/*
-1.779274	ぐらい/助詞/* ショパン/名詞/*
-1.779274	ぐらい/助詞/* 一/名詞/*
-1.779274	ぐらい/助詞/* 三/名詞/*
-1.779274	ぐらい/助詞/* 中学/名詞/*
-1.779274	ぐらい/助詞/* 半分/名詞/*
-1.779274	ぐらい/助詞/* 普通/名詞/*
-1.779274	ぐらい/助詞/* 語/名詞/*
-1.779274	ぐらい/助詞/* 食う/動詞/五段・ワ行促音便
-0.633146	け/助詞/* </s>
-1.83082	けど/助詞/* ある/動詞/五段・ラ行
-1.65904	けど/助詞/* いい/形容詞/形容詞・イイ	-0.104634
-2.519637	けど/助詞/* いる/動詞/一段
-2.519637	けど/助詞/* おる/動詞/五段・ラ行
-2.519637	けど/助詞/* する/動詞/サ変・スル
-0.6823707	けど/助詞/* た/助動詞/特殊・タ	-0.01168583
-1.19773	けど/助詞/* だ/助動詞/特殊・ダ	-0.5862657
-2.519637	けど/助詞/* です/助動詞/特殊・デス
-2.519637	けど/助詞/* でん/動詞/一段撥音便
-1.19779	けど/助詞/* ない/助動詞/特殊・ナイ	-0.06259476
-1.65904	けど/助詞/* ない/形容詞/形容詞・アウオ段
-1.19773	けど/助詞/* ねん/助詞/*	-0.06755981
-2.519637	けど/助詞/* へん/助動詞/特殊・ナイ
-1.116598	けど/助詞/* や/助動詞/特殊・ヤ	-0.02674793
-2.519637	けど/助詞/* る/動詞/一段
-0.8073095	けど/助詞/* ん/助動詞/特殊・ナイ	0.06461859
-2.519637	けど/助詞/* 引っ越す/動詞/五段・サ行
-1.19779	けど/助詞/* 思う/動詞/五段・ワ行促音便	0.2969469
-2.519637	けど/助詞/* 硬い/形容詞/形容詞・アウオ段
-2.519637	けど/助詞/* 要る/動詞/五段・ラ行
-2.519637	けど/助詞/* 難い/形容詞/形容詞・アウオ段
-2.519637	けど/助詞/* 飛ぶ/動詞/五段・バ行
-1.235206	こう/副詞/* 、/記号/*
-1.235206	こう/副詞/* でも/接続詞/*
-1.235206	こう/副詞/* なんか/フィラー/*
-1.235206	こう/副詞/* は/助詞/*
-0.633146	こういう/連体詞/* あー/フィラー/*
-0.3374936	ここ/名詞/* 、/記号/*
-1.411297	ここ/名詞/* て/助詞/*
-1.411297	ここ/名詞/* なに/名詞/*
-0.633146	こそ/助詞/* それ/名詞/*
-0.633146	こたつ/名詞/* </s>
-0.6432992	こっち/名詞/* 、/記号/*
-1.332116	こっち/名詞/* けど/助詞/*
-1.332116	こっち/名詞/* も/助詞/*
-1.332116	こっち/名詞/* 絶対/副詞/*
-2.295904	こと/名詞/* いい/形容詞/形容詞・イイ
-2.295904	こと/名詞/* いう/動詞/五段・ワ行促音便
-2.295904	こと/名詞/* する/動詞/サ変・スル
-2.295904	こと/名詞/* そういう/連体詞/*
-1.607087	こと/名詞/* そんな/連体詞/*
-0.4866666	こと/名詞/* た/助動詞/特殊・タ	-0.04078523
-1.2221	こと/名詞/* たい/助動詞/特殊・タイ	-0.1188999
-1.607087	こと/名詞/* だ/助動詞/特殊・タ	-0.1921117
-1.2221	こと/名詞/* って/助詞/*
-2.295904	こと/名詞/* つく/動詞/五段・カ行イ音便
-2.295904	こと/名詞/* とる/動詞/五段・ラ行
-1.607087	こと/名詞/* な/助動詞/特殊・ダ
-2.295904	こと/名詞/* ない/助動詞/特殊・ナイ
-1.435308	こと/名詞/* の/助詞/*
-1.607087	こと/名詞/* ゆう/動詞/五段・ワ行促音便
-2.295904	こと/名詞/* ん/助動詞/特殊・ナイ
-2.295904	こと/名詞/* 弾く/動詞/五段・カ行イ音便
-2.295904	こと/名詞/* 現れる/動詞/一段
-2.295904	こと/名詞/* 言う/動詞/五段・ワ行促音便
-2.295904	こと/名詞/* 騙す/動詞/五段・サ行
-0.2453592	こないだ/名詞/* </s>
-1.235206	この/連体詞/* </s>
-1.235206	この/連体詞/* 、/記号/*
-1.235206	この/連体詞/* な/助詞/*
-1.235206	この/連体詞/* 全く/副詞/*
-0.633146	このあいだ/名詞/* </s>
-0.3374936	これ/名詞/* </s>
-1.411297	これ/名詞/* 、/記号/*
-1.411297	これ/名詞/* 最近/名詞/*
-0.934176	これから/副詞/* </s>
-0.934176	これから/副詞/* まあ/フィラー/*
-0.934176	ころ/名詞/* た/助動詞/特殊・タ
-0.934176	ころ/名詞/* の/助詞/*
-0.633146	こん/動詞/五段・マ行 めちゃ/副詞/*
-0.633146	こんな/連体詞/* が/助詞/*
-0.633146	こんなに/副詞/* も/助詞/*
-0.633146	ござい/助動詞/五段・ラ行特殊 ありがとう/感動詞/*
-0.934176	ごつい/形容詞/形容詞・アウオ段 </s>
-0.934176	ごつい/形容詞/形容詞・アウオ段 肩/名詞/*
-0.633146	ごと/名詞/* お稽古/名詞/*
-0.633146	ごはん/名詞/* と/助詞/*
-0.934176	ごめん/感動詞/* </s>
-0.934176	ごめん/感動詞/* 、/記号/*
-1.110267	ご飯/名詞/* 、/記号/*
-1.110267	ご飯/名詞/* で/助詞/*
-1.110267	ご飯/名詞/* と/助詞/*
-0.7486207	さ/助詞/* から/助詞/*
-2.15166	さ/助詞/* けど/助詞/*
-2.15166	さ/助詞/* こないだ/名詞/*
-2.15166	さ/助詞/* し/助詞/*
-2.15166	さ/助詞/* その/フィラー/*
-2.15166	さ/助詞/* その/連体詞/*
-2.15166	さ/助詞/* ただ/接続詞/*
-2.15166	さ/助詞/* だって/助詞/*
-0.8298133	さ/助詞/* て/助詞/*
-2.15166	さ/助詞/* で/助動詞/特殊・ダ
-2.15166	さ/助詞/* でも/接続詞/*
-2.15166	さ/助詞/* として/助詞/*
-2.15166	さ/助詞/* なんか/フィラー/*
-2.15166	さ/助詞/* に/助詞/*
-2.15166	さ/助詞/* の/助詞/*
-1.462843	さ/助詞/* は/助詞/*
-1.291064	さ/助詞/* も/助詞/*
-2.15166	さ/助詞/* もう/副詞/*
-2.15166	さ/助詞/* やっぱ/副詞/*
-1.110267	さ/動詞/サ変・スル に/助詞/*
-1.110267	さ/動詞/サ変・スル 優遇/名詞/*
-1.110267	さ/動詞/サ変・スル 強化/名詞/*
-1.478244	さあ/感動詞/* し/助詞/*
-0.1563974	さあ/感動詞/* て/助詞/*	-0.2211952
-0.633146	さけ/動詞/一段 </s>
-0.934176	さすが/副詞/* </s>
-0.934176	さすが/副詞/* 、/記号/*
-0.633146	させ/動詞/一段 まあ/フィラー/*
-0.1614024	さっき/名詞/* </s>
-0.633146	さらに/副詞/* も/助詞/*
-0.934176	さん/名詞/* えみ/名詞/*
-0.934176	さん/名詞/* 塩/名詞/*
-1.62557	し/助詞/* ある/動詞/五段・ラ行
-0.9924809	し/助詞/* いい/形容詞/形容詞・イイ	-0.2548
-1.453791	し/助詞/* おいしい/形容詞/形容詞・イ段	-0.1300452
-2.314387	し/助詞/* くる/動詞/カ変・クル
-2.314387	し/助詞/* しまう/動詞/五段・ワ行促音便
-1.453791	し/助詞/* する/動詞/サ変・スル
-1.240584	し/助詞/* た/助動詞/特殊・タ
-2.314387	し/助詞/* とる/動詞/五段・ラ行
-1.240584	し/助詞/* ない/助動詞/特殊・ナイ
-0.9925406	し/助詞/* や/助動詞/特殊・ヤ
-2.314387	し/助詞/* やさしい/形容詞/形容詞・イ段
-2.314387	し/助詞/* らしい/助動詞/形容詞・イ段
-2.314387	し/助詞/* れる/動詞/一段
-0.9925406	し/助詞/* ん/助動詞/特殊・ナイ	-0.09958622
-2.314387	し/助詞/* 乗せれる/動詞/一段・可能
-2.314387	し/助詞/* 入れる/動詞/一段
-2.314387	し/助詞/* 喋る/動詞/五段・ラ行
-1.453791	し/助詞/* 思う/動詞/五段・ワ行促音便
-2.314387	し/助詞/* 行く/動詞/五段・カ行促音便
-2.314387	し/助詞/* 見える/動詞/一段
-2.314387	し/助詞/* 近い/形容詞/形容詞・アウオ段
-2.439326	し/動詞/サ変・スル </s>
-1.750509	し/動詞/サ変・スル が/助詞/*
-1.750509	し/動詞/サ変・スル しか/助詞/*
-2.439326	し/動詞/サ変・スル じゃあ/接続詞/*
-2.439326	し/動詞/サ変・スル とか/助詞/*
-1.750509	し/動詞/サ変・スル どう/副詞/*
-1.750509	し/動詞/サ変・スル なに/名詞/*
-0.8519375	し/動詞/サ変・スル に/助詞/*	-0.03417098
-2.439326	し/動詞/サ変・スル は/助詞/*
-2.439326	し/動詞/サ変・スル ぼーっと/副詞/*
-2.439326	し/動詞/サ変・スル めっちゃ/副詞/*
-1.750509	し/動詞/サ変・スル ゆっくり/副詞/*
-1.365522	し/動詞/サ変・スル を/助詞/*
-2.439326	し/動詞/サ変・スル ん/名詞/*
-2.439326	し/動詞/サ変・スル アップ/名詞/*
-2.439326	し/動詞/サ変・スル エンジョイ/名詞/*
-2.439326	し/動詞/サ変・スル チョンて/副詞/*
-1.750509	し/動詞/サ変・スル バイト/名詞/*
-2.439326	し/動詞/サ変・スル バレエ/名詞/*
-2.439326	し/動詞/サ変・スル 中断/名詞/*
-2.439326	し/動詞/サ変・スル 何/名詞/*
-2.439326	し/動詞/サ変・スル 値上がり/名詞/*
-2.439326	し/動詞/サ変・スル 停止/名詞/*
-2.439326	し/動詞/サ変・スル 勘弁/名詞/*
-2.439326	し/動詞/サ変・スル 協力/名詞/*
-2.439326	し/動詞/サ変・スル 声変わり/名詞/*
-2.439326	し/動詞/サ変・スル 妄想/名詞/*
-2.439326	し/動詞/サ変・スル 実現/名詞/*
-2.439326	し/動詞/サ変・スル 就職/名詞/*
-2.439326	し/動詞/サ変・スル 嵌り/動詞/五段・ラ行
-2.439326	し/動詞/サ変・スル 帰省/名詞/*
-2.439326	し/動詞/サ変・スル 強化/名詞/*
-2.439326	し/動詞/サ変・スル 恋愛/名詞/*
-2.439326	し/動詞/サ変・スル 旅行/名詞/*
-2.439326	し/動詞/サ変・スル 浮気/名詞/*
-2.439326	し/動詞/サ変・スル 生活/名詞/*
-2.439326	し/動詞/サ変・スル 確認/名詞/*
-2.439326	し/動詞/サ変・スル 経験/名詞/*
-1.750509	し/動詞/サ変・スル 結婚/名詞/*
-2.439326	し/動詞/サ変・スル 練習/名詞/*
-1.750509	し/動詞/サ変・スル 自立/名詞/*
-2.439326	し/動詞/サ変・スル 苦労/名詞/*
-2.439326	し/動詞/サ変・スル 解釈/名詞/*
-2.439326	し/動詞/サ変・スル 認識/名詞/*
-2.439326	し/動詞/サ変・スル 離婚/名詞/*
-0.633146	し/動詞/五段・サ行 履か/動詞/五段・カ行イ音便
-1.411297	しか/助詞/* つ/名詞/*
-0.7224804	しか/助詞/* に/助詞/*	-0.2483614
-0.7224804	しか/助詞/* バレエ/名詞/*	-0.2033797
-1.411297	しか/助詞/* 回/名詞/*
-0.633146	しかも/接続詞/* </s>
-0.934176	したら/接続詞/* 、/記号/*
-0.934176	したら/接続詞/* と/助詞/*
-0.633146	しば/名詞/* </s>
-0.633146	しまい/動詞/五段・ワ行促音便 て/助詞/*
-0.2496709	しまう/動詞/五段・ワ行促音便 て/助詞/*	-0.1288875
-0.2453592	しまっ/動詞/五段・ワ行促音便 て/助詞/*
-0.633146	しゃあない/形容詞/形容詞・アウオ段 、/記号/*
-0.633146	しゃけ/名詞/* 、/記号/*
-1.110267	しゃべっ/動詞/五段・ラ行 </s>
-1.110267	しゃべっ/動詞/五段・ラ行 いきなり/副詞/*
-1.110267	しゃべっ/動詞/五段・ラ行 なんか/フィラー/*
-0.633146	しゃべれる/動詞/一段 英語/名詞/*
-0.633146	しょう/名詞/* は/助詞/*
-0.633146	しょうゆ/名詞/* 、/記号/*
-0.2453592	しよ/動詞/サ変・スル どう/副詞/*
-0.934176	しら/動詞/五段・ラ行 全然/副詞/*
-0.934176	しら/動詞/五段・ラ行 生活/名詞/*
-0.08945063	しれ/動詞/一段 かも/助詞/*	0.02157488
-0.5463892	しんどい/形容詞/形容詞・アウオ段 、/記号/*	-0.2090621
-1.235206	しんどい/形容詞/形容詞・アウオ段 こんな/連体詞/*
-1.235206	しんどい/形容詞/形容詞・アウオ段 結構/副詞/*
-0.4214504	じいさん/名詞/* </s>
-1.110267	じいさん/名詞/* から/助詞/*
-2.276599	じゃ/助動詞/特殊・ジャ </s>
-2.276599	じゃ/助動詞/特殊・ジャ から/助詞/*
-2.276599	じゃ/助動詞/特殊・ジャ がっつり/副詞/*
-2.276599	じゃ/助動詞/特殊・ジャ ここ/名詞/*
-2.276599	じゃ/助動詞/特殊・ジャ さけ/動詞/一段
-2.276599	じゃ/助動詞/特殊・ジャ そう/副詞/*
-2.276599	じゃ/助動詞/特殊・ジャ そんなん/名詞/*
-2.276599	じゃ/助動詞/特殊・ジャ だけ/助詞/*
-2.276599	じゃ/助動詞/特殊・ジャ でも/助詞/*
-1.202795	じゃ/助動詞/特殊・ジャ とか/助詞/*
-2.276599	じゃ/助動詞/特殊・ジャ ない/助動詞/特殊・ナイ
-2.276599	じゃ/助動詞/特殊・ジャ ぺらぺら/副詞/*
-2.276599	じゃ/助動詞/特殊・ジャ もん/名詞/*
-2.276599	じゃ/助動詞/特殊・ジャ よ/助詞/*
-1.587782	じゃ/助動詞/特殊・ジャ ん/名詞/*	0.1305877
-2.276599	じゃ/助動詞/特殊・ジャ イケメン/名詞/*
-1.587782	じゃ/助動詞/特殊・ジャ 一人/名詞/*
-2.276599	じゃ/助動詞/特殊・ジャ 上/名詞/*
-2.276599	じゃ/助動詞/特殊・ジャ 上が原/名詞/*
-2.276599	じゃ/助動詞/特殊・ジャ 不細工/名詞/*
-1.587782	じゃ/助動詞/特殊・ジャ 人/名詞/*
-2.276599	じゃ/助動詞/特殊・ジャ 図書館/名詞/*
-2.276599	じゃ/助動詞/特殊・ジャ 塩/名詞/*
-1.202795	じゃ/助動詞/特殊・ジャ 好き/名詞/*	-0.2196094
-2.276599	じゃ/助動詞/特殊・ジャ 嫌/名詞/*
-1.416002	じゃ/助動詞/特殊・ジャ 嫌い/動詞/五段・ワ行促音便
-2.276599	じゃ/助動詞/特殊・ジャ 派手/名詞/*
-2.276599	じゃ/助動詞/特殊・ジャ 浮気/名詞/*
-2.276599	じゃ/助動詞/特殊・ジャ 環境/名詞/*
-2.276599	じゃ/助動詞/特殊・ジャ 知りあい/名詞/*
-2.276599	じゃ/助動詞/特殊・ジャ 知り合い/動詞/五段・ワ行促音便
-2.276599	じゃ/助動詞/特殊・ジャ 系/名詞/*
-2.276599	じゃ/助動詞/特殊・ジャ 美形/名詞/*
-0.934176	じゃ/接続詞/* </s>
-0.934176	じゃ/接続詞/* 、/記号/*
-0.6432992	じゃあ/接続詞/* </s>
-0.6432992	じゃあ/接続詞/* 、/記号/*
-1.332116	じゃあ/接続詞/* え/感動詞/*
-0.633146	じゃろ/助動詞/特殊・ジャ 好き/名詞/*
-1.332116	じゃん/助動詞/不変化型 さん/名詞/*
-1.332116	じゃん/助動詞/不変化型 できる/動詞/一段
-1.332116	じゃん/助動詞/不変化型 ねぇ/助動詞/特殊・ナイ
-1.332116	じゃん/助動詞/不変化型 使う/動詞/五段・ワ行促音便
-1.332116	じゃん/助動詞/不変化型 系/名詞/*
-0.633146	す/動詞/サ変・スル 結婚/名詞/*
-0.633146	すいません/感動詞/* </s>
-0.633146	すぎ/動詞/一段 嫌/名詞/*
-0.633146	すく/動詞/五段・カ行イ音便 お腹/名詞/*
-0.633146	すぐ/副詞/* 絶対/副詞/*
-0.633146	すげえ/感動詞/* ここ/名詞/*
-0.6432992	すごい/形容詞/形容詞・アウオ段 </s>
-1.332116	すごい/形容詞/形容詞・アウオ段 が/助詞/*
-1.332116	すごい/形容詞/形容詞・アウオ段 なんか/フィラー/*
-1.332116	すごい/形容詞/形容詞・アウオ段 思う/動詞/五段・ワ行促音便
-0.633146	すごかっ/形容詞/形容詞・アウオ段 が/助詞/*
-0.633146	すっご/形容詞/形容詞・アウオ段 </s>
-0.633146	すべて/名詞/* は/助詞/*
-0.633146	すら/助詞/* こと/名詞/*
-1.359303	する/動詞/サ変・スル </s>
-2.048119	する/動詞/サ変・スル 、/記号/*
-1.359303	する/動詞/サ変・スル が/助詞/*	-0.246476
-2.048119	する/動詞/サ変・スル たり/助詞/*
-1.359303	する/動詞/サ変・スル て/助詞/*
-2.048119	する/動詞/サ変・スル でも/助詞/*
-2.048119	する/動詞/サ変・スル に/助詞/*
-2.048119	する/動詞/サ変・スル びっくり/名詞/*
-1.359303	する/動詞/サ変・スル も/助詞/*
-2.048119	する/動詞/サ変・スル 万/名詞/*
-2.048119	する/動詞/サ変・スル 仕事/名詞/*
-2.048119	する/動詞/サ変・スル 切れ/動詞/一段
-2.048119	する/動詞/サ変・スル 存在/名詞/*
-2.048119	する/動詞/サ変・スル 成功/名詞/*
-2.048119	する/動詞/サ変・スル 成長/名詞/*
-2.048119	する/動詞/サ変・スル 昇格/名詞/*
-2.048119	する/動詞/サ変・スル 水泳/名詞/*
-2.048119	する/動詞/サ変・スル 無理やり/副詞/*
-2.048119	する/動詞/サ変・スル 留学/名詞/*
-2.048119	する/動詞/サ変・スル 直進/名詞/*
-2.048119	する/動詞/サ変・スル 結婚/名詞/*
-2.048119	する/動詞/サ変・スル 質問/名詞/*
-0.633146	すると/接続詞/* から/助詞/*
-1.332116	ず/助動詞/特殊・ヌ いか/動詞/五段・カ行促音便
-1.332116	ず/助動詞/特殊・ヌ 入ら/動詞/五段・ラ行
-1.332116	ず/助動詞/特殊・ヌ 噛ま/動詞/五段・マ行
-1.332116	ず/助動詞/特殊・ヌ 知ら/動詞/五段・ラ行
-1.332116	ず/助動詞/特殊・ヌ 言わ/動詞/五段・ワ行促音便
-1.110267	ずっと/副詞/* それからも/接続詞/*
-1.110267	ずっと/副詞/* て/助詞/*
-1.110267	ずっと/副詞/* 最近/名詞/*
-0.4214504	せ/副詞/* </s>
-1.110267	せ/副詞/* 、/記号/*
-0.3746097	せ/動詞/サ変・スル </s>
-1.235206	せ/動詞/サ変・スル ん/助動詞/特殊・ナイ
-0.633146	せ/動詞/一段 やら/動詞/五段・ラ行
-0.5463892	せえ/動詞/サ変・スル 全く/副詞/*
-1.235206	せえ/動詞/サ変・スル 否定/名詞/*
-1.235206	せえ/動詞/サ変・スル 干渉/名詞/*
-0.4214504	そ/副詞/* </s>
-1.110267	そ/副詞/* うん/感動詞/*
-0.3369426	そう/副詞/* </s>
-2.0447	そう/副詞/* 、/記号/*
-1.330477	そう/副詞/* あ/感動詞/*	-0.04275198
-2.733516	そう/副詞/* ああ/感動詞/*
-2.733516	そう/副詞/* あー/フィラー/*
-2.733516	そう/副詞/* うん/感動詞/*
-2.733516	そう/副詞/* え/フィラー/*
-0.4771213	そう/副詞/* そう/副詞/*	-0.937852
-1.87292	そう/副詞/* て/助詞/*
-2.733516	そう/副詞/* でも/接続詞/*
-2.733516	そう/副詞/* なさ/助動詞/特殊・ナイ
-2.733516	そう/副詞/* に/助詞/*
-2.0447	そう/副詞/* は/助詞/*
-2.733516	そう/副詞/* まあ/フィラー/*
-2.733516	そう/副詞/* も/助詞/*
-2.733516	そう/副詞/* 不可能/名詞/*
-2.733516	そう/副詞/* 多分/副詞/*
-2.733516	そう/副詞/* 奈美恵/名詞/*
-1.536236	そう/名詞/* くれ/動詞/一段・クレル
-1.536236	そう/名詞/* しまい/動詞/五段・ワ行促音便
-1.536236	そう/名詞/* ちゃい/動詞/五段・ワ行促音便
-1.536236	そう/名詞/* なり/動詞/五段・ラ行
-1.536236	そう/名詞/* よさ/形容詞/形容詞・アウオ段
-1.536236	そう/名詞/* 似合い/動詞/五段・ワ行促音便
-1.536236	そう/名詞/* 広/形容詞/形容詞・アウオ段
-1.536236	そう/名詞/* 来/動詞/カ変・来ル
-0.8474192	そういう/連体詞/* </s>
-0.6756397	そういう/連体詞/* 、/記号/*
-1.536236	そういう/連体詞/* あー/フィラー/*
-1.536236	そういう/連体詞/* とか/助詞/*
-1.536236	そういう/連体詞/* も/助詞/*
-0.934176	そういえば/接続詞/* 、/記号/*
-0.934176	そういえば/接続詞/* さっき/名詞/*
-0.633146	そうそう/副詞/* </s>
-0.7054704	そこ/名詞/* </s>
-0.4573677	そこ/名詞/* 、/記号/*
-1.779274	そこ/名詞/* だから/接続詞/*
-1.779274	そこ/名詞/* だって/接続詞/*
-1.779274	そこ/名詞/* でも/接続詞/*
-1.779274	そこ/名詞/* な/助詞/*
-1.779274	そこ/名詞/* ねん/助詞/*
-0.633146	そこで/接続詞/* 、/記号/*
-0.2453592	そして/接続詞/* </s>
-0.633146	そっかー/感動詞/* あー/フィラー/*
-0.633146	その/フィラー/* やっぱ/副詞/*
-1.027822	その/連体詞/* </s>
-0.4853793	その/連体詞/* 、/記号/*	-0.04298364
-1.888419	その/連体詞/* が/助詞/*
-1.199602	その/連体詞/* て/助詞/*
-1.888419	その/連体詞/* で/接続詞/*
-1.888419	その/連体詞/* な/助詞/*
-1.888419	その/連体詞/* まあ/フィラー/*
-1.888419	その/連体詞/* も/助詞/*
-1.888419	その/連体詞/* を/助詞/*
-0.633146	そもそも/接続詞/* </s>
-0.3933443	それ/名詞/* </s>
-0.9022046	それ/名詞/* 、/記号/*
-2.305244	それ/名詞/* あたし/名詞/*
-1.616427	それ/名詞/* うん/感動詞/*	1.48961
-2.305244	それ/名詞/* から/助詞/*
-2.305244	それ/名詞/* じゃん/助動詞/不変化型
-2.305244	それ/名詞/* それ/名詞/*
-2.305244	それ/名詞/* たぶん/副詞/*
-1.444648	それ/名詞/* でも/接続詞/*
-1.616427	それ/名詞/* は/助詞/*
-2.305244	それ/名詞/* ば/助詞/*
-0.9833376	それ/名詞/* ほんま/副詞/*	0.06820518
-2.305244	それ/名詞/* まさしく/副詞/*
-2.305244	それ/名詞/* も/助詞/*
-2.305244	それ/名詞/* 何/名詞/*
-0.633146	それからも/接続詞/* 、/記号/*
-0.4044404	それで/接続詞/* </s>
-1.478244	それで/接続詞/* だから/接続詞/*
-0.7894272	それで/接続詞/* は/助詞/*	-0.2093603
-0.633146	それでいて/接続詞/* </s>
-0.633146	それでも/接続詞/* でも/接続詞/*
-0.633146	それなり/名詞/* たら/助動詞/特殊・タ
-0.633146	そんだけ/副詞/* </s>
-0.3467875	そんな/連体詞/* </s>
-1.934176	そんな/連体詞/* 、/記号/*
-1.934176	そんな/連体詞/* あと/名詞/*
-1.934176	そんな/連体詞/* じゃん/助動詞/不変化型
-1.245359	そんな/連体詞/* は/助詞/*
-1.934176	そんな/連体詞/* まあ/フィラー/*
-1.934176	そんな/連体詞/* もん/助詞/*
-1.934176	そんな/連体詞/* やっぱ/副詞/*
-1.934176	そんな/連体詞/* 会話/名詞/*
-1.934176	そんな/連体詞/* 別に/副詞/*
-1.934176	そんな/連体詞/* 多分/副詞/*
-1.110267	そんなに/副詞/* </s>
-1.110267	そんなに/副詞/* 、/記号/*
-1.110267	そんなに/副詞/* まあ/フィラー/*
-0.6432992	そんなん/名詞/* </s>
-0.6432992	そんなん/名詞/* 、/記号/*
-1.332116	そんなん/名詞/* ない/助動詞/特殊・ナイ
-2.81499	た/助動詞/特殊・タ あげ/動詞/一段
-1.954393	た/助動詞/特殊・タ あっ/動詞/五段・ラ行	-0.07326484
-2.81499	た/助動詞/特殊・タ い/動詞/一段
-2.81499	た/助動詞/特殊・タ おっ/動詞/五段・ラ行
-2.81499	た/助動詞/特殊・タ おもろかっ/形容詞/形容詞・アウオ段
-2.81499	た/助動詞/特殊・タ かっこよかっ/形容詞/形容詞・アウオ段
-1.954393	た/助動詞/特殊・タ き/動詞/カ変・クル	1.265691
-2.81499	た/助動詞/特殊・タ くれ/動詞/一段・クレル
-1.41195	た/助動詞/特殊・タ し/動詞/サ変・スル	-0.1096052
-2.81499	た/助動詞/特殊・タ しまっ/動詞/五段・ワ行促音便
-2.81499	た/助動詞/特殊・タ しゃべっ/動詞/五段・ラ行
-2.81499	た/助動詞/特殊・タ すごかっ/形容詞/形容詞・アウオ段
-2.81499	た/助動詞/特殊・タ たかっ/助動詞/特殊・タイ
-2.81499	た/助動詞/特殊・タ たどり着い/動詞/五段・カ行イ音便
-1.41195	た/助動詞/特殊・タ だっ/助動詞/特殊・ダ	-0.02392594
-1.954393	た/助動詞/特殊・タ ちゃっ/動詞/五段・ワ行促音便
-0.8808136	た/助動詞/特殊・タ て/助詞/*	-0.06173742
-1.102662	た/助動詞/特殊・タ とっ/動詞/五段・ラ行	-0.03673652
-1.278754	た/助動詞/特殊・タ なかっ/助動詞/特殊・ナイ	0.1744876
-1.278754	た/助動詞/特殊・タ なっ/動詞/五段・ラ行	-0.4191293
-2.81499	た/助動詞/特殊・タ へんかっ/助動詞/特殊・ナイ
-2.126173	た/助動詞/特殊・タ まし/助動詞/特殊・マス
-1.41195	た/助動詞/特殊・タ やっ/助動詞/特殊・ヤ
-1.954393	た/助動詞/特殊・タ やっ/動詞/五段・ラ行
-2.81499	た/助動詞/特殊・タ やめ/動詞/一段
-1.493143	た/助動詞/特殊・タ よかっ/形容詞/形容詞・アウオ段	-0.002684276
-1.954393	た/助動詞/特殊・タ れ/動詞/一段	0.001184723
-1.954393	た/助動詞/特殊・タ んかっ/助動詞/特殊・ナイ
-2.81499	た/助動詞/特殊・タ 与え/動詞/一段
-2.81499	た/助動詞/特殊・タ 亡くなっ/動詞/五段・ラ行
-1.741186	た/助動詞/特殊・タ 入っ/動詞/五段・ラ行	0.193505
-2.81499	た/助動詞/特殊・タ 出/動詞/一段
-2.81499	た/助動詞/特殊・タ 出会え/動詞/一段
-2.81499	た/助動詞/特殊・タ 出会っ/動詞/五段・ワ行促音便
-2.81499	た/助動詞/特殊・タ 増え/動詞/一段
-1.954393	た/助動詞/特殊・タ 忘れ/動詞/一段
-2.81499	た/助動詞/特殊・タ 思い出し/動詞/五段・サ行
-2.81499	た/助動詞/特殊・タ 思え/動詞/一段
-1.741186	た/助動詞/特殊・タ 思っ/動詞/五段・ワ行促音便	-0.01222494
-2.81499	た/助動詞/特殊・タ 来/動詞/カ変・来ル
-2.81499	た/助動詞/特殊・タ 楽しかっ/形容詞/形容詞・イ段
-2.81499	た/助動詞/特殊・タ 死にかけ/動詞/一段
-2.81499	た/助動詞/特殊・タ 決め/動詞/一段
-2.81499	た/助動詞/特殊・タ 治っ/動詞/五段・ラ行
-2.126173	た/助動詞/特殊・タ 消え/動詞/一段
-2.81499	た/助動詞/特殊・タ 終わっ/動詞/五段・ラ行
-2.81499	た/助動詞/特殊・タ 続け/動詞/一段
-2.126173	た/助動詞/特殊・タ 聞い/動詞/五段・カ行イ音便
-2.126173	た/助動詞/特殊・タ 良かっ/形容詞/形容詞・アウオ段
-1.278754	た/助動詞/特殊・タ 見/動詞/一段
-2.81499	た/助動詞/特殊・タ 見出し/動詞/五段・サ行
-2.81499	た/助動詞/特殊・タ 載っ/動詞/五段・ラ行
-2.81499	た/助動詞/特殊・タ 違っ/動詞/五段・ワ行促音便
-2.81499	た/助動詞/特殊・タ 青かっ/形容詞/形容詞・アウオ段
-2.201348	たい/助動詞/特殊・タイ あり/動詞/五段・ラ行
-2.201348	たい/助動詞/特殊・タイ い/動詞/一段
-2.201348	たい/助動詞/特殊・タイ させ/動詞/一段
-0.6651117	たい/助動詞/特殊・タイ し/動詞/サ変・スル
-2.201348	たい/助動詞/特殊・タイ なり/動詞/五段・ラ行
-0.8795011	たい/助動詞/特殊・タイ み/動詞/一段	0.3496962
-1.340751	たい/助動詞/特殊・タイ やり/動詞/五段・ラ行	-0.0382067
-2.201348	たい/助動詞/特殊・タイ 恋し/動詞/サ変・−スル
-2.201348	たい/助動詞/特殊・タイ 死に/動詞/五段・ナ行
-2.201348	たい/助動詞/特殊・タイ 知り/動詞/五段・ラ行
-2.201348	たい/助動詞/特殊・タイ 移り/動詞/五段・ラ行
-1.512531	たい/助動詞/特殊・タイ 習い/動詞/五段・ワ行促音便
-1.340751	たい/助動詞/特殊・タイ 行き/動詞/五段・カ行促音便	0.08790343
-0.8795011	たい/助動詞/特殊・タイ 見/動詞/一段
-2.201348	たい/助動詞/特殊・タイ 食べ/動詞/一段
-0.550701	たかっ/助動詞/特殊・タイ なり/動詞/五段・ラ行	0.4304244
-1.411297	たかっ/助動詞/特殊・タイ み/動詞/一段
-0.7224804	たかっ/助動詞/特殊・タイ やり/動詞/五段・ラ行
-1.110267	たく/助動詞/特殊・タイ 入り/動詞/五段・ラ行
-1.110267	たく/助動詞/特殊・タイ 知り/動詞/五段・ラ行
-1.110267	たく/助動詞/特殊・タイ 食べ/動詞/一段
-0.934176	たげよ/動詞/一段 し/動詞/サ変・スル
-0.934176	たげよ/動詞/一段 閉め/動詞/一段
-0.934176	たしなむ/動詞/五段・マ行 、/記号/*
-0.934176	たしなむ/動詞/五段・マ行 まあ/フィラー/*
-1.110267	ただ/接続詞/* </s>
-1.110267	ただ/接続詞/* 、/記号/*
-1.110267	ただ/接続詞/* まあ/フィラー/*
-0.633146	たった/副詞/* </s>
-0.633146	たどり着い/動詞/五段・カ行イ音便 の/助詞/*
-0.5463892	たぶん/副詞/* </s>
-1.235206	たぶん/副詞/* たら/助動詞/特殊・タ
-1.235206	たぶん/副詞/* は/助詞/*
-0.633146	たま/名詞/* </s>
-0.633146	たまに/副詞/* </s>
-0.633146	たまらなく/形容詞/形容詞・アウオ段 が/助詞/*
-2.314387	たら/助動詞/特殊・タ いれ/動詞/一段
-2.314387	たら/助動詞/特殊・タ おっ/動詞/五段・ラ行
-2.314387	たら/助動詞/特殊・タ くれ/動詞/一段・クレル
-2.314387	たら/助動詞/特殊・タ し/動詞/サ変・スル
-2.314387	たら/助動詞/特殊・タ しゃべっ/動詞/五段・ラ行
-1.453791	たら/助動詞/特殊・タ たかっ/助動詞/特殊・タイ	-0.006722625
-0.911348	たら/助動詞/特殊・タ だっ/助動詞/特殊・ダ
-1.453791	たら/助動詞/特殊・タ て/助詞/*
-2.314387	たら/助動詞/特殊・タ とっ/動詞/五段・ラ行
-1.240584	たら/助動詞/特殊・タ なかっ/助動詞/特殊・ナイ	0.1194098
-2.314387	たら/助動詞/特殊・タ なっ/動詞/五段・ラ行
-2.314387	たら/助動詞/特殊・タ なれ/動詞/一段
-0.9925406	たら/助動詞/特殊・タ やっ/助動詞/特殊・ヤ	-0.04323559
-2.314387	たら/助動詞/特殊・タ やられ/動詞/一段
-1.62557	たら/助動詞/特殊・タ ゆっ/動詞/五段・ワ行促音便	0.08899592
-2.314387	たら/助動詞/特殊・タ られ/動詞/一段
-1.453791	たら/助動詞/特殊・タ れ/動詞/一段	0.001184723
-2.314387	たら/助動詞/特殊・タ わかっ/動詞/五段・ラ行
-2.314387	たら/助動詞/特殊・タ 仲良かっ/形容詞/形容詞・アウオ段
-2.314387	たら/助動詞/特殊・タ 悪かっ/形容詞/形容詞・アウオ段
-2.314387	たら/助動詞/特殊・タ 比べ/動詞/一段
-2.314387	たら/助動詞/特殊・タ 考え/動詞/一段
-2.314387	たら/助動詞/特殊・タ 行っ/動詞/五段・カ行促音便
-2.314387	たら/助動詞/特殊・タ 言っ/動詞/五段・ワ行促音便
-2.314387	たら/助動詞/特殊・タ 買っ/動詞/五段・ワ行促音便
-2.314387	たら/助動詞/特殊・タ 踊っ/動詞/五段・ラ行
-2.314387	たら/助動詞/特殊・タ 頑張っ/動詞/五段・ラ行
-1.110267	たり/助詞/* つぶれ/動詞/一段
-0.4214504	たり/助詞/* 見/動詞/一段	-0.2364134
-0.633146	たろ/助動詞/特殊・タ 越し/動詞/五段・サ行
-1.332116	たん/助動詞/特殊・タ おっ/動詞/五段・ラ行
-1.332116	たん/助動詞/特殊・タ し/動詞/サ変・スル
-1.332116	たん/助動詞/特殊・タ だっ/助動詞/特殊・ダ
-0.6432992	たん/助動詞/特殊・タ とっ/動詞/五段・ラ行	-0.1471077
-1.587389	だ/助動詞/特殊・タ </s>
-0.8985717	だ/助動詞/特殊・タ ん/名詞/*
-1.587389	だ/助動詞/特殊・タ 呑ん/動詞/五段・マ行
-0.8985717	だ/助動詞/特殊・タ 死ん/動詞/五段・ナ行
-1.587389	だ/助動詞/特殊・タ 総政/名詞/*
-1.587389	だ/助動詞/特殊・タ 脱い/動詞/五段・ガ行
-1.587389	だ/助動詞/特殊・タ 飛ん/動詞/五段・バ行
-2.256395	だ/助動詞/特殊・ダ お母さん/名詞/*
-0.6690068	だ/助動詞/特殊・ダ そう/副詞/*	0.02409764
-2.256395	だ/助動詞/特殊・ダ そう/名詞/*
-2.256395	だ/助動詞/特殊・ダ のん/名詞/*
-2.256395	だ/助動詞/特殊・ダ みたい/名詞/*
-2.256395	だ/助動詞/特殊・ダ もん/名詞/*
-0.447158	だ/助動詞/特殊・ダ ん/名詞/*	0.2257372
-2.256395	だ/助動詞/特殊・ダ イケメン/名詞/*
-2.256395	だ/助動詞/特殊・ダ コウタ/名詞/*
-2.256395	だ/助動詞/特殊・ダ タイプ/名詞/*
-2.256395	だ/助動詞/特殊・ダ ホゼ/名詞/*
-2.256395	だ/助動詞/特殊・ダ 不思議/名詞/*
-2.256395	だ/助動詞/特殊・ダ 大変/名詞/*
-2.256395	だ/助動詞/特殊・ダ 好き/名詞/*
-2.256395	だ/助動詞/特殊・ダ 子/名詞/*
-2.256395	だ/助動詞/特殊・ダ 孫/名詞/*
-2.256395	だ/助動詞/特殊・ダ 月末/名詞/*
-2.256395	だ/助動詞/特殊・ダ 派/名詞/*
-2.256395	だ/助動詞/特殊・ダ 無理/名詞/*
-2.256395	だ/助動詞/特殊・ダ 金持ち/名詞/*
-0.146128	だから/接続詞/* </s>
-0.9186777	だから/接続詞/* 、/記号/*
-1.779274	だから/接続詞/* し/助詞/*
-1.478244	だけ/助詞/* </s>
-1.478244	だけ/助詞/* SS/名詞/*
-1.478244	だけ/助詞/* た/助動詞/特殊・タ
-1.478244	だけ/助詞/* どれ/名詞/*
-0.7894272	だけ/助詞/* な/助動詞/特殊・ダ
-1.478244	だけ/助詞/* 学問/名詞/*
-1.809237	だっ/助動詞/特殊・ダ こっち/名詞/*
-1.809237	だっ/助動詞/特殊・ダ とか/助詞/*
-1.809237	だっ/助動詞/特殊・ダ なん/名詞/*
-1.809237	だっ/助動詞/特殊・ダ 人/名詞/*
-1.809237	だっ/助動詞/特殊・ダ 人間/名詞/*
-1.809237	だっ/助動詞/特殊・ダ 友達/名詞/*
-1.12042	だっ/助動詞/特殊・ダ 好き/名詞/*
-1.809237	だっ/助動詞/特殊・ダ 嫌い/動詞/五段・ワ行促音便
-1.809237	だっ/助動詞/特殊・ダ 嫌い/名詞/*
-1.809237	だっ/助動詞/特殊・ダ 年下/名詞/*
-1.809237	だっ/助動詞/特殊・ダ 感じ/動詞/一段
-1.809237	だっ/助動詞/特殊・ダ 気分/名詞/*
-1.809237	だっ/助動詞/特殊・ダ 灰色/名詞/*
-1.809237	だっ/助動詞/特殊・ダ 逆/名詞/*
-0.633146	だって/助詞/* 今/名詞/*
-0.1843493	だって/接続詞/* </s>
-1.587389	だって/接続詞/* 、/記号/*
-1.587389	だって/接続詞/* そう/副詞/*
-0.633146	だらけ/名詞/* 血/名詞/*
-1.332116	だれ/名詞/* あと/名詞/*
-1.332116	だれ/名詞/* が/助詞/*
-1.332116	だれ/名詞/* たら/助動詞/特殊・タ
-1.332116	だれ/名詞/* もう/副詞/*
-1.332116	だれ/名詞/* もうすぐ/副詞/*
-1.110267	だろ/助動詞/特殊・タ いい/形容詞/形容詞・イイ
-1.110267	だろ/助動詞/特殊・タ しんどい/形容詞/形容詞・アウオ段
-1.110267	だろ/助動詞/特殊・タ とん/動詞/五段・ラ行撥音便
-1.478244	だろ/助動詞/特殊・ダ どう/副詞/*
-0.4044404	だろ/助動詞/特殊・ダ ん/名詞/*	0.1381917
-1.478244	だろ/助動詞/特殊・ダ 川/名詞/*
-1.478244	だろ/助動詞/特殊・ダ 衝撃/名詞/*
-0.633146	ちっちゃい/形容詞/形容詞・アウオ段 最近/名詞/*
-0.633146	ちっちゃく/形容詞/形容詞・イ段 めっちゃ/副詞/*
-0.633146	ちゃい/動詞/五段・ワ行促音便 思っ/動詞/五段・ワ行促音便
-1.411297	ちゃう/動詞/五段・ワ行促音便 ぐらい/助詞/*
-1.411297	ちゃう/動詞/五段・ワ行促音便 し/動詞/サ変・スル
-0.7224804	ちゃう/動詞/五段・ワ行促音便 れ/動詞/一段	-0.2253392
-1.411297	ちゃう/動詞/五段・ワ行促音便 似合っ/動詞/五段・ワ行促音便
-1.411297	ちゃう/動詞/五段・ワ行促音便 感じ/動詞/一段
-1.633146	ちゃう/動詞/五段・特殊 と/助詞/*
-1.633146	ちゃう/動詞/五段・特殊 の/名詞/*
-0.09691001	ちゃう/動詞/五段・特殊 ん/名詞/*	0.2831981
-1.235206	ちゃっ/動詞/五段・ワ行促音便 れ/動詞/一段
-1.235206	ちゃっ/動詞/五段・ワ行促音便 入っ/動詞/五段・ラ行
-1.235206	ちゃっ/動詞/五段・ワ行促音便 染まっ/動詞/五段・ラ行
-1.235206	ちゃっ/動詞/五段・ワ行促音便 行っ/動詞/五段・カ行促音便
-0.7224804	ちゃん/名詞/* おば/名詞/*	0.1141481
-1.411297	ちゃん/名詞/* しば/名詞/*
-1.411297	ちゃん/名詞/* シン/名詞/*
-1.411297	ちゃん/名詞/* 亜紀/名詞/*
-1.411297	ちゃん/名詞/* 安室/名詞/*
-0.934176	ちゃんと/副詞/* </s>
-0.934176	ちゃんと/副詞/* ちょっと/副詞/*
-0.633146	ちょ/接頭詞/* っ/助詞/*
-0.633146	ちょいと/副詞/* より/助詞/*
-0.633146	ちょう/接頭詞/* </s>
-0.9443292	ちょっと/副詞/* </s>
-0.9443292	ちょっと/副詞/* 、/記号/*
-0.9443292	ちょっと/副詞/* て/助詞/*
-1.633146	ちょっと/副詞/* なんか/フィラー/*
-0.7725497	ちょっと/副詞/* もう/副詞/*
-0.633146	っ/助詞/* 先/名詞/*
-0.633146	っきれ/名詞/* 布/名詞/*
-0.2453592	っけ/助詞/* だ/助動詞/特殊・ダ
-1.805973	って/助詞/* </s>
-2.66657	って/助詞/* 、/記号/*
-1.592766	って/助詞/* 」/記号/*
-2.66657	って/助詞/* ああ/感動詞/*
-2.66657	って/助詞/* あたし/名詞/*
-2.66657	って/助詞/* ありがとう/感動詞/*
-1.977753	って/助詞/* う/助動詞/不変化型
-2.66657	って/助詞/* おる/動詞/五段・ラ行
-1.344723	って/助詞/* か/助詞/*	-0.06368423
-1.977753	って/助詞/* から/助詞/*	-0.1786666
-2.66657	って/助詞/* ください/動詞/五段・ラ行特殊
-2.66657	って/助詞/* くれ/動詞/一段・クレル
-2.66657	って/助詞/* こと/名詞/*
-2.66657	って/助詞/* これ/名詞/*
-2.66657	って/助詞/* すいません/感動詞/*
-2.66657	って/助詞/* すげえ/感動詞/*
-2.66657	って/助詞/* それ/名詞/*
-1.977753	って/助詞/* た/助動詞/特殊・タ
-2.66657	って/助詞/* たい/助動詞/特殊・タイ
-2.66657	って/助詞/* だろ/助動詞/特殊・タ
-2.66657	って/助詞/* ちゃう/動詞/五段・特殊
-1.977753	って/助詞/* て/助詞/*
-2.66657	って/助詞/* です/助動詞/特殊・デス
-2.66657	って/助詞/* と/助詞/*
-1.977753	って/助詞/* とか/助詞/*
-2.66657	って/助詞/* とる/動詞/五段・ラ行
-1.592766	って/助詞/* な/助詞/*
-2.66657	って/助詞/* なあ/助詞/*
-1.977753	って/助詞/* ない/助動詞/特殊・ナイ
-2.66657	って/助詞/* なさい/動詞/五段・ラ行特殊
-1.977753	って/助詞/* なー/助詞/*
-1.977753	って/助詞/* に/助詞/*
-1.977753	って/助詞/* の/名詞/*
-2.66657	って/助詞/* はい/感動詞/*
-2.66657	って/助詞/* ひん/助動詞/特殊・ナイ
-2.66657	って/助詞/* めんどうくせえ/形容詞/形容詞・アウオ段
-2.66657	って/助詞/* めんどくさい/形容詞/形容詞・アウオ段
-2.66657	って/助詞/* もらえ/動詞/五段・ワ行促音便
-2.66657	って/助詞/* もん/助詞/*
-2.66657	って/助詞/* もん/名詞/*
-2.66657	って/助詞/* や/助詞/*
-2.66657	って/助詞/* やべー/感動詞/*
-2.66657	って/助詞/* わ/助詞/*
-2.66657	って/助詞/* わざわざ/副詞/*
-2.66657	って/助詞/* アイアムカルロス/感動詞/*
-2.66657	って/助詞/* イメージ/名詞/*
-2.66657	って/助詞/* カッコイイ/形容詞/不変化型
-2.66657	って/助詞/* カルロス/名詞/*
-2.66657	って/助詞/* キムヒキム・ヒョンジュン/名詞/*
-1.805973	って/助詞/* ケント/名詞/*
-2.66657	って/助詞/* ゴキブリ/名詞/*
-2.66657	って/助詞/* サークル/名詞/*
-2.66657	って/助詞/* タレント/名詞/*
-2.66657	って/助詞/* ダンス/名詞/*
-2.66657	って/助詞/* テロンアイランド/名詞/*
-1.977753	って/助詞/* バレエ/名詞/*
-2.66657	って/助詞/* ピアノ/名詞/*
-2.66657	って/助詞/* フレックス/名詞/*
-2.66657	って/助詞/* 三田/名詞/*
-2.66657	って/助詞/* 人/名詞/*
-2.66657	って/助詞/* 人見知り/名詞/*
-2.66657	って/助詞/* 人間/名詞/*
-2.66657	って/助詞/* 仲良く/形容詞/形容詞・アウオ段
-1.977753	って/助詞/* 原因/名詞/*
-2.66657	って/助詞/* 友達/名詞/*
-2.66657	って/助詞/* 塾/名詞/*
-2.66657	って/助詞/* 大学/名詞/*
-2.66657	って/助詞/* 子/名詞/*
-2.66657	って/助詞/* 恋愛/名詞/*
-2.66657	って/助詞/* 感じ/名詞/*
-2.66657	って/助詞/* 接する/動詞/サ変・−スル
-2.66657	って/助詞/* 横/名詞/*
-2.66657	って/助詞/* 歳/名詞/*
-2.66657	って/助詞/* 目的/名詞/*
-2.66657	って/助詞/* 美しい/形容詞/形容詞・イ段
-2.66657	って/助詞/* 美貌/名詞/*
-1.977753	って/助詞/* 習い事/名詞/*
-2.66657	って/助詞/* 自立/名詞/*
-2.66657	って/助詞/* 近い/名詞/*
-2.66657	って/助詞/* 違い/名詞/*
-2.66657	って/助詞/* 関係/名詞/*
-0.633146	つ/名詞/* 四/名詞/*
-0.633146	つい/動詞/五段・カ行イ音便 の/助詞/*
-0.633146	ついては/接続詞/* に/助詞/*
-0.633146	つく/動詞/五段・カ行イ音便 おじけ/動詞/一段
-0.6432992	つつ/助詞/* あり/動詞/五段・ラ行	-0.2033797
-1.332116	つつ/助詞/* 受け/動詞/一段
-1.332116	つつ/助詞/* 感じ/動詞/一段
-1.332116	つつ/助詞/* 言い/動詞/五段・ワ行促音便
-0.633146	つながり/名詞/* </s>
-0.633146	つぶれ/動詞/一段 で/助詞/*
-0.633146	つらい/形容詞/形容詞・アウオ段 </s>
-0.633146	つるむ/動詞/五段・マ行 に/助詞/*
-3.098529	て/助詞/* </s>
-2.409712	て/助詞/* 、/記号/*
-3.098529	て/助詞/* 」/記号/*
-3.098529	て/助詞/* あえ/動詞/一段
-2.024725	て/助詞/* あっ/動詞/五段・ラ行
-3.098529	て/助詞/* い/動詞/一段
-2.409712	て/助詞/* いっ/動詞/五段・ワ行促音便	-0.1387341
-3.098529	て/助詞/* いれ/動詞/一段
-2.409712	て/助詞/* おい/動詞/一段
-2.409712	て/助詞/* おっ/動詞/五段・ラ行
-2.237932	て/助詞/* かけ/動詞/一段
-2.409712	て/助詞/* き/動詞/カ変・クル	1.383112
-3.098529	て/助詞/* き/動詞/一段
-1.018225	て/助詞/* し/動詞/サ変・スル	0.03056554
-3.098529	て/助詞/* し/動詞/五段・サ行
-3.098529	て/助詞/* しゃべっ/動詞/五段・ラ行
-3.098529	て/助詞/* すぎ/動詞/一段
-3.098529	て/助詞/* たかっ/助動詞/特殊・タイ
-3.098529	て/助詞/* たく/助動詞/特殊・タイ
-3.098529	て/助詞/* たん/助動詞/特殊・タ
-3.098529	て/助詞/* ちっちゃく/形容詞/形容詞・イ段
-3.098529	て/助詞/* ちゃっ/動詞/五段・ワ行促音便
-1.562293	て/助詞/* て/助詞/*	-0.006664318
-3.098529	て/助詞/* でき/動詞/一段
-3.098529	て/助詞/* できる/動詞/一段
-1.562293	て/助詞/* とっ/動詞/五段・ラ行	-0.00113043
-1.465383	て/助詞/* なく/助動詞/特殊・ナイ	-0.3988116
-3.098529	て/助詞/* なく/形容詞/形容詞・アウオ段
-1.319255	て/助詞/* なっ/動詞/五段・ラ行	0.08113129
-2.409712	て/助詞/* なん/名詞/*
-2.237932	て/助詞/* ねん/助詞/*	-0.02294055
-3.098529	て/助詞/* ねー/助詞/*
-3.098529	て/助詞/* はいっ/動詞/五段・ラ行
-3.098529	て/助詞/* へん/助動詞/特殊・ナイ
-3.098529	て/助詞/* まとめ/動詞/一段
-2.409712	て/助詞/* もっさく/形容詞/形容詞・アウオ段
-2.024725	て/助詞/* やっ/助動詞/特殊・ヤ
-1.351439	て/助詞/* やっ/動詞/五段・ラ行	0.002885293
-3.098529	て/助詞/* やめ/動詞/一段
-1.776682	て/助詞/* ゆっ/動詞/五段・ワ行促音便	0.1935617
-3.098529	て/助詞/* よく/形容詞/形容詞・アウオ段
-3.098529	て/助詞/* らしくっ/助動詞/形容詞・イ段
-1.562293	て/助詞/* れ/動詞/一段	-0.03640529
-3.098529	て/助詞/* キャンパス/名詞/*
-3.098529	て/助詞/* スペイン/名詞/*
-3.098529	て/助詞/* テロン/名詞/*
-3.098529	て/助詞/* 上げ/動詞/一段
-3.098529	て/助詞/* 伸び/動詞/一段
-3.098529	て/助詞/* 似/動詞/一段
-2.409712	て/助詞/* 何/名詞/*	-0.2313373
-3.098529	て/助詞/* 信じ/動詞/一段
-3.098529	て/助詞/* 働い/動詞/五段・カ行イ音便
-1.319255	て/助詞/* 入っ/動詞/五段・ラ行	0.1606943
-2.409712	て/助詞/* 入れ/動詞/一段	-0.0438993
-1.776682	て/助詞/* 出/動詞/一段	-0.01000815
-3.098529	て/助詞/* 出会っ/動詞/五段・ワ行促音便
-3.098529	て/助詞/* 初め/動詞/一段
-3.098529	て/助詞/* 別れ/動詞/一段
-3.098529	て/助詞/* 化し/動詞/五段・サ行
-3.098529	て/助詞/* 受け/動詞/一段
-3.098529	て/助詞/* 向い/動詞/五段・カ行イ音便
-3.098529	て/助詞/* 喋っ/動詞/五段・ラ行
-3.098529	て/助詞/* 始め/動詞/一段
-3.098529	て/助詞/* 安く/形容詞/形容詞・アウオ段
-3.098529	て/助詞/* 対し/動詞/五段・サ行
-3.098529	て/助詞/* 履い/動詞/五段・カ行イ音便
-3.098529	て/助詞/* 弾い/動詞/五段・カ行イ音便
-3.098529	て/助詞/* 弾け/動詞/一段
-3.098529	て/助詞/* 忘れ/動詞/一段
-3.098529	て/助詞/* 思う/動詞/五段・ワ行促音便
